ERR594294,-0.7054979675862424,0.4438634297263229,0.11201937495193179,-1.0494721933505267,-0.2486831697764572,0.10007701237769634,0.6515663293205906,0.5501306694383755,-1.1579249766244324,0.4928450447894149,-0.8231357707875511,0.0006997811013627496,-0.9003148231795565,0.6246666669642897,0.12214112682592045,0.215167251459808,0.6636604501970532,-0.8607206592643952,-0.0003290688684006596,0.06196741917355446,0.49631662968437124,-0.032289448019553725,-1.604694662792858,1.0666644787518602,-0.2789691312760615,-0.43321397911050397,-0.4082059841263874,0.027937128714836237,0.22169934850223055,-0.05832126998309643,0.3052975864594957,1.1795434418808204,0.002127852443439603,-0.04681397736273062,0.8814433802112318,-0.23214227419621347,-0.5527498268688961,-0.4209232329079956,-0.5965172750470235,0.4477592435288927,-0.3389560861532329,0.63986842162934,-0.5276541692320558,-0.16247785348315558,-0.8633599244277951,0.8966119300646588,0.6941314715087863,-0.2456387566161543,0.12402153727061953,0.6808784805829802,0.5930266381402982,-0.8463412826385577,-0.773252391083621,-0.6972773742098617,-0.11024527325979946,-0.4474747891278642,0.6954699263569838,0.6054969841498145,-0.9085675601958545,-0.7127429452358242,-0.394222012041056,0.6043874581720294,-0.2433223557006658,0.015971643395563152,0.7691901658854853,-0.9387552610020142,-0.3435742120360367,1.0745026323327236,-0.1632329814602609,0.46068515258250553,-0.1546262317213903,-0.10814180452851492,-0.9538894505220715,-0.914753541470296,-0.2507614140278298,-0.4185473612223851,-1.1726161097803465,-0.2303624562547246,-0.5709974749761252,-0.5951687896414093,0.7752037633858119,-0.6265100898340705,0.13335846196959403,0.7344726240434919,0.16977071947907246,1.1523630233699584,0.9490644442307997,0.829685199958361,0.11978748781630214,0.8711436507812865,0.5090174701216572,0.6453297590890609,-0.9104646025050687,0.13458702131426814,0.08432594136553787,-0.8313358369882805,-0.6317030117882954,0.8242883654475074,-0.5512475406535169,-0.5136354431342162,0.048530598114278595,-0.4526586063139349,-0.6245537722906562,-0.0024341523629598425,0.5129602197499796,-0.17506011256907328,-0.6276853799418193,-0.8863013784838796,-0.47385314243640536,-0.5344284272421579,-0.8649681966404311,-0.038829205025928244,-0.08234718945180221,-0.3702513505619204,0.628681096852394,-0.13935954231235842,-1.046427860629838,-0.11630481164752636,0.1350819868800542,0.8984971690450053,0.6504257007961356,-1.0036186889632752,0.9336662864758972,0.3604139164167635,0.02455502771663211,0.12794552561412398,0.06489378842007204,0.48091817452370683,0.34218309862923607,-0.04625267651491198,-0.21557023367381092,-0.1686482034542994,-0.4852802846502904,0.6610147420613642,-0.30049026706158377,0.9192675095917165,0.7558764888085433,0.2430487514483488,-0.7520841797979692,0.78304477338087,-1.0678872042168508,-1.0370236966161759,-0.13532517264306695,-0.3166299064386558,-0.8672197083040923,-0.865577807909479,0.6115210389437353,-0.6238025576426649,0.8809203682620094,-0.8583370465189394,-0.9401159960144881,0.9540599244324971,-0.7997987141328441,0.8350679944024155,0.3221563226270998,0.7561804134235947,-1.1234861064464592,-0.09716464987027039,-0.022085808001137446,0.3926615561378914,-0.08265851779839015,0.9264088011802913,1.1476459580278837,0.7235156404551755,-0.3994160309633774,0.8368068192558065,-0.22711183386683584,-0.3884098395411432,-0.12236410703484109,-0.33186832431006136,1.1535502011315668,-0.79992542936114,-0.7576304658740599,-0.16921914650466005,1.0634650590374246,0.9752515296005653,-0.7502825368442247,0.9592539485195521,0.7773966287753897,0.03271090299428756,0.5384327285136994,0.8389748152485359,0.5498499043813642,0.03685016757429248,0.5423399084735296,0.25011262889962865,0.05806869690368924,-0.8777199111385428,-0.15131579590750388,-0.4286760673205486,-0.004976517522303453,0.5179033968102671,0.6542174245264526,-0.38871326565453046,0.40633211406299424,0.8635948932619352,-0.22751446783552765,1.3310590656955799,0.22835657581014793,0.7895812212099621,-0.440608605360579,-0.40817286631391786,-1.1283698339917074,0.7711299199454817,-0.7223647797752384,-0.7162094924062761,-0.05122948231568446,-0.35733284987732183,-0.06039820814182395,0.1866885956769985,-0.9383421258572452,0.8965969371586088,-0.01038695342646139,-0.06518045170774903,0.0841207024409942,0.7583595796686586,-0.39956148791282303,0.02819535418206947,-0.40108143917002703,0.36201827666209085,0.24418878298390134,0.3255246290614886,1.027210714115139,-0.7673440605761317,0.5809889285164719,0.4924369003232955,0.2549124481673019,0.03131450978834316,0.3919638629768971,-0.46749493515344953,0.09613368602239679,-0.4031359954263431,0.8041857814112235,0.6121870411301649,-0.5572005390503005,-0.6867451077385461,0.983321465194119,-1.0291440143782424,0.7801800373068205,0.3643816723993414,-0.3007202071286865,-0.5362348426561587,0.455390388787576,-0.06339931276719951,1.3425868205124383,-0.018592830286990936,-0.6112647363708967,-0.6682239673318298,-0.13414889249602946,0.4929341333030896,-0.4995541317755282,0.749945067236905,-0.2917415363880623,0.21050507717547226,0.08594945075701771,0.5059517878532316,1.0672396606648569,-0.10224900260121489,-1.5577524818772814,0.8981572893676838,-0.7381214178677326,0.7707428271377713,0.17539350565985615,-1.3704567236595822,1.2014067945857816,0.2819442338884529,-0.1943169933816532,0.6233428215170108,-0.41485742853232366,0.35766953446440225,0.4341960345771933,-1.0108594032821159,-1.0800827159116673,-0.8147754283189944,-1.1330555098391968,0.820170147869225,-0.4719642501597725,0.6422231166592878,-1.0312712554432921,0.720830658829905,-0.47568826041909784,-0.20819433399067966,-0.18802771136313667,-0.9473295955341708,0.9058451571712133,-0.9781539133951574,-0.07286609256502162,0.7124501340400993,0.7529071864456599,0.22718284209564565,-0.73274929165317,1.6227627009819536,-1.1539338733055804,-0.02275300840097613,-0.024106146112022345,-0.8558537662478611,-0.5130027792758496,0.6477656168644093,0.3665680983665894,0.4835168243991039,-1.0011290779894788,-0.8299021781838847,0.21830338833870236,-1.0316414005369454,-0.47914438471706594,0.4848828519328021,-0.28852326182545995,0.05433452368059233,-0.6723018886500514,-0.8193559831408956,-1.0758745347532301,-0.8179014498746466,-0.7261613627346348,-0.14338440701671795,-1.0861726829861427,-0.582919856033051,0.36490858751060995,-0.3322508773740296,0.4339940325896982,0.833353150871048,-0.8936634316779092,-0.15520698617794268,0.170319849126837,-0.16424744698015453,-0.8329413480223922,0.6016861286421057,-0.5934136360924217,1.1086794606813288,-0.18549262149224727,0.22990725709005072,0.26006857521004334,1.1055254296485384,0.4844647327360149,-0.009426844990261203,0.2629877378820942,-0.7986516968721832,0.028982308928957277,0.06834144759594825,0.035728045852655335,0.7979009755911364,0.8530398387693986,0.6537621278423016,1.3498244795310992,0.1464321290572931,1.0170082270485068,-0.9883440394679908,0.6276744572887818,1.0823132083867808,0.4214880535343169,0.8121053937050284,0.49555935334130313,-0.4133419493295794,-0.8799616495538816,-0.6940562091096794,0.5982149916675813,-0.9067643032920988,-1.1717578290169994,1.2109685834893296,0.39977109353434986,-1.1679404854455657,0.7907238898867689,-1.0379133618738294,-0.9295528916007872,0.2766358849053287,-0.7156185304319596,-0.6682418717066484,0.44524008833466006,0.04490239253441279,-0.22211799573995486,0.05039244786574569,-0.9134762998988524,0.7665194190997362,-0.715462311199183,-0.8848597100340739,-0.6975990188608674,-0.2108632741769155,0.07777012791308505,-0.732730336642334,-0.23154841099352436,-0.1685360068617058,-0.2732138944010797,-0.11656794094231845,0.14075570864677311,0.031113253142762847,0.10058417596204551,-0.9427543953465206,0.44604064101269897,0.895873364609927,-0.3962971967175134,-0.8669592447588743,0.18626860057220881,-1.0031711973337678,0.19672995875562024,0.004675135768083953,-1.1779906633645085,0.773796849219383,0.8300689244945084,-0.31561999487724013,-0.8251913357973375,0.05183787844317362
ERR594299,-0.7200824099413964,0.3990180015334756,0.06452629828867766,-0.9778290453035544,-0.28172674502828143,0.08163374059382912,0.6483587701709915,0.5309766500670562,-1.1263662679256894,0.532726993007408,-0.7873032907734235,0.047201466744555824,-0.8241659403924696,0.5944637433408367,0.0888433743504867,0.2069979044365199,0.6905665833912539,-0.8046958228250444,-0.03597632475616901,0.10459644292375837,0.5032134705532797,-0.07601382616559656,-1.56928366697711,1.0365361305618075,-0.29715297195042584,-0.3909713487028129,-0.3843206954247427,-0.026767371749284213,0.21694290921350243,-0.045150009442612514,0.24649158646845248,1.1218310744278162,0.00704399734769114,-0.06287844597637957,0.852269131401882,-0.24085395526059325,-0.580568955439906,-0.3720519534136347,-0.5491564091796131,0.48099219583464825,-0.31022068091239247,0.5717256000630143,-0.4768712282169751,-0.1299173571625272,-0.848749825291948,0.8400763904659294,0.6403451649596701,-0.2570396816838399,0.11770957131425562,0.6319861703237097,0.561461381492972,-0.8070726259303143,-0.7354753712757583,-0.65585550613711,-0.10594167595366184,-0.4736857493640239,0.6659904408135823,0.5529765992999582,-0.8795491015407696,-0.6696577090013768,-0.3704594532058334,0.5653417649131058,-0.2544738480909299,0.0217390495767092,0.7079235156298713,-0.9167265259329148,-0.3215175935659029,1.0519376389527584,-0.12807691039020272,0.4471083609911085,-0.16238862203414695,-0.12251429147035084,-0.8832882923474301,-0.8438460191644942,-0.2711675933888915,-0.3972796892989858,-1.142670490503344,-0.21475096790140596,-0.5253590683239413,-0.5205622329837096,0.7139929735661729,-0.5799056770031172,0.08184175514472841,0.679001525217201,0.1593516493984688,1.0784200375360418,0.9297132227567191,0.832852152573096,0.11000747315300048,0.7893349021566783,0.5139102312591389,0.6531733554170752,-0.8712231444937761,0.13854254500853633,0.08377677873456431,-0.8149707384447732,-0.5888919175016165,0.8231573045806073,-0.5797064802863865,-0.4677637191453468,0.047667184831717155,-0.4460924753064844,-0.5946635790672062,-0.05702945705347122,0.4738554452160013,-0.16368557668623607,-0.6329207588021247,-0.8697176498920239,-0.4386088579981135,-0.485195264219899,-0.8011830570206734,-0.07483930011934949,-0.07109334902782341,-0.40901018362907077,0.5808120211257899,-0.13023965777586222,-0.9719900667653069,-0.14869390582387965,0.12465683484271577,0.8617145752295382,0.5999091649066758,-0.9358223992275729,0.9571509739064288,0.3706415084971514,-0.013607264736380532,0.1145040676808685,0.032274246517883895,0.48068250031537646,0.3941716949107044,-0.07241049271175545,-0.22696177771491785,-0.15155308638487397,-0.4260431457218002,0.6244735711987514,-0.272633034942823,0.8910137566267706,0.6958252804895998,0.21399801495919096,-0.7137600377916595,0.7268127857038209,-0.9957022723091928,-1.0049485483565743,-0.08009481912849321,-0.2972957176494225,-0.819299731134972,-0.8265574721923866,0.6187524609458326,-0.621929301750704,0.8214819986691588,-0.7962514418612056,-0.903980315834415,0.9235010924889421,-0.7412512634581014,0.7713947462881916,0.298478833136113,0.7037190452355386,-1.0865150672824488,-0.048287547094808016,-0.0231511850391176,0.3802416364508046,-0.03594907305793538,0.8709710190735597,1.0715518139409514,0.6675085591343786,-0.34511928136900694,0.7746539870005525,-0.23512382568809456,-0.35176042791709444,-0.11749384862207966,-0.34733567085981837,1.078242484114362,-0.7707976179997105,-0.7606922001195563,-0.17739590345382758,1.039983180742682,0.9036368398356889,-0.6806005382732886,0.9024531882684782,0.7159151919282172,0.03199165041587018,0.5656423048122302,0.7904728965944876,0.5203511696437516,0.04974309012018277,0.49669346446319806,0.24452091230302006,0.052919023956460635,-0.8241557063797093,-0.14973932126059442,-0.40882708190997713,0.028444868902116397,0.4792434611906639,0.6528042989707746,-0.3519689516487748,0.38587883094389597,0.8264440811895911,-0.2802646677000782,1.2960633109916515,0.18009808010029474,0.7699395173101619,-0.473827880926162,-0.3774226014159001,-1.097807688230434,0.7117616852025508,-0.7321224140528326,-0.7125101201007432,-0.05515884352453449,-0.3283979215109503,-0.0769970965876805,0.1828075924349979,-0.8701131803808076,0.8654131916275056,0.04461490338120287,-0.06276854215145437,0.07227844308143712,0.7508018161089928,-0.3557642319087712,0.02465708823689345,-0.3596462291395675,0.3062560157169443,0.22867077820463166,0.30671883075938144,0.9542054053031956,-0.7116061664068124,0.5417872853393222,0.49387445293755383,0.2631333166592085,0.03745518801928694,0.35246007047374955,-0.45541088624560916,0.14933184599331278,-0.3662943746222194,0.7450420679900084,0.56323818882925,-0.547579572191722,-0.6263138709229786,0.9725910426219405,-0.9562825391873885,0.7373396448532626,0.3515294944264595,-0.28727618991760884,-0.5009543064843477,0.44552778189995124,-0.061144460651662944,1.305067658085329,0.025711449075079988,-0.641011652970575,-0.6170800200886984,-0.17253520874268416,0.5122349543573883,-0.5391620699524593,0.6900786025689555,-0.26053948084952844,0.19917578397776112,0.08052092920407104,0.5491824345881599,1.0372456089889521,-0.10435546786519218,-1.5141583831262733,0.8364283210713778,-0.6446170923574402,0.7655209817047587,0.17112142533827626,-1.3154380561587753,1.1726654014552509,0.3474236711610326,-0.17471597735882313,0.6100978402594892,-0.40226022989914706,0.3371131154857613,0.43575283838673456,-0.9259290567725148,-1.0125271364436548,-0.7399168090513145,-1.0957462788061185,0.7599292242483197,-0.42239811751133,0.6136676853601971,-1.0036390187197133,0.7334745062933222,-0.4188440878621596,-0.2331739712384767,-0.18833674228627012,-0.8846593264516551,0.8519163263726672,-0.9010677386805034,-0.07646066427419342,0.6976018240183892,0.7545092216207532,0.2293247627077269,-0.6788381025454419,1.58044997430627,-1.1215241935662013,-0.0289515259707275,0.03160581608317972,-0.7981545871941574,-0.5297975290559371,0.597319922011373,0.3611281983490884,0.4490720249140067,-0.9346850020233415,-0.7989697565564037,0.19536485510852863,-1.0097971698310448,-0.5136297025602946,0.4482393276357178,-0.2548190664759873,0.04521974936732256,-0.6788273657836894,-0.7745749647836789,-1.0423427049036234,-0.809977733262604,-0.6670296856894138,-0.1195435634336244,-0.9788956213612034,-0.6055731999457513,0.3627641528487219,-0.3129774772579921,0.4433058414379185,0.778967897351064,-0.8923551010572758,-0.15920913988112836,0.1646660310948963,-0.16030569616812407,-0.7725754964161838,0.5904195889459939,-0.545381300174857,1.037498743223365,-0.17696555070830192,0.2227607976909556,0.2442391234240882,1.0715661224190838,0.4969227956720925,-0.008935097286835262,0.23680484631670543,-0.7353255915495935,0.023831852223020953,0.10556396803605589,0.06853557912862347,0.7586132251561386,0.7892347728566123,0.6627442869891931,1.3093009901841244,0.135570495086131,0.9440829126380706,-0.9677597226715587,0.5794221484206865,1.0535302754473412,0.3687156335632319,0.7540889159909409,0.502007754231571,-0.4234659635180818,-0.8578086062985137,-0.6382133679893615,0.5514169749835283,-0.8784220785713701,-1.0997176518155327,1.1753649455879107,0.4363544885934534,-1.1335671754187122,0.7886479137340633,-1.0086456276155062,-0.8632630517926648,0.298687674720073,-0.7011050659180222,-0.5943824478942344,0.4419105983692819,0.03688783048570173,-0.24697765000190455,0.03962876702628864,-0.903925759842228,0.7119165160322178,-0.6676322908629588,-0.82461307545737,-0.6493987732678259,-0.24176901179932095,0.06889403338584514,-0.7179882699411929,-0.23646344139518594,-0.1866558607495861,-0.32758204385876205,-0.059269332215018525,0.18278416119405944,0.015548473884586042,0.09473633325614325,-0.9232658390520968,0.3929963376004071,0.8247928016862314,-0.36673492824435067,-0.8024277899497104,0.1367435591397372,-0.98422435713952,0.20348444366998644,-0.024639185987921104,-1.1347248895961535,0.7170256109530435,0.7791852284945145,-0.3462215723311246,-0.8245233992153472,0.024968476654666893
ERR594310,-0.694289068548853,0.47770727519044837,0.14802273838999694,-1.0983608071459179,-0.22559960327756937,0.11299532145133265,0.6520875559517084,0.56248844003085,-1.1799787579015957,0.46493675723779015,-0.8466164110439669,-0.03236786731385639,-0.9544739136427199,0.6438964018622761,0.14753659278317707,0.2223355897881104,0.6450100010762382,-0.9021748291316374,0.02693013580488538,0.03440300589713883,0.49002633320696615,-0.0028948094061093366,-1.62854267664103,1.0887031801286364,-0.2653026537627255,-0.46086324085083363,-0.42540571380827136,0.06676877829263034,0.22491156548993277,-0.06807700578023941,0.34579129903098593,1.2197434792056994,-0.0015736125631230097,-0.03413136246050782,0.900973243101128,-0.22510369921441128,-0.5326040307599839,-0.45410723097646555,-0.6277140357159441,0.42417176767808124,-0.3603950017788578,0.6869632248811791,-0.5610596657898871,-0.18689425169163792,-0.8735275543772884,0.9343342726608129,0.7308210978882159,-0.2383557361865662,0.12841994626916833,0.7147471427599557,0.6159393297984853,-0.8723389445799604,-0.8011088583784796,-0.7261950595300583,-0.11321931405513855,-0.4281692395037042,0.7179459996225268,0.6425276990977039,-0.9277449277147644,-0.7414567219702649,-0.41103384573729823,0.630348751927179,-0.23688425449641365,0.010889800570803425,0.8095867787456731,-0.9536401267507802,-0.35884403696113265,1.089406620922015,-0.18990644493458356,0.4698183345512831,-0.14756612546859704,-0.09739478072055889,-1.0009621375300077,-0.9626505500502318,-0.2343363930860212,-0.4332378384579835,-1.1932879138571326,-0.2407107253730883,-0.6027932729762326,-0.650826066968479,0.8165054655955334,-0.657051811494039,0.16958431568132518,0.7733286532681143,0.1770070625002795,1.2071400419892775,0.9630930949890267,0.8274269336418512,0.1267076917583951,0.9281577586954582,0.5074913169733247,0.6402744779600377,-0.93789100566,0.12964203478993228,0.08452130248261697,-0.8418031528035883,-0.6595492684364789,0.8255941055064108,-0.5307429141531431,-0.5439499472348488,0.04911094363348371,-0.457433143552957,-0.6439269020367919,0.03664990832298312,0.5421745701013658,-0.182965864830719,-0.6253079236844317,-0.8976776640238852,-0.49847417900269686,-0.5690454189446098,-0.9123737012628661,-0.014096283733254686,-0.09040587467955817,-0.342816614854183,0.6624903747465096,-0.14572838054253423,-1.098384237023556,-0.09513145158740008,0.14209343137388677,0.9236243329186481,0.6884135094095185,-1.0512521483834256,0.9159056638895579,0.3517345177928548,0.05373703477218031,0.13723470078618802,0.08598815816690239,0.47993469091434793,0.3055363439002675,-0.026936535092025586,-0.20856449931582519,-0.18065474612672175,-0.5264399590956783,0.6875185427459353,-0.31815531119391716,0.938968202097667,0.797859529702375,0.26152175654942633,-0.7780188407101348,0.8224337349386087,-1.12169525403772,-1.0591408602013042,-0.1733651977009644,-0.328103764586664,-0.9022623099925805,-0.8924968243783508,0.6058691298762584,-0.6245479676834451,0.9242920214498915,-0.9019389855611337,-0.9651067543902881,0.9759683303122895,-0.8391399367141407,0.8821252032704102,0.34105583305532666,0.7930128638847029,-1.1491691371669746,-0.13096789566472747,-0.021279947218343576,0.39940286916120954,-0.11505728282839754,0.9656393556354411,1.2007854079273668,0.7647534581273757,-0.43595436499811263,0.8804921643116547,-0.22185571727576145,-0.41307427933617025,-0.12568770535215712,-0.31908357030192075,1.2057091573218386,-0.818476618467552,-0.7534661460879495,-0.16329563547279502,1.079642266478755,1.0245997896038195,-0.7988478677814284,1.0010276072141968,0.8205384356475086,0.033197822723232885,0.5198243020198976,0.8735444468092617,0.5698217625318072,0.027248910258208577,0.5743294207537107,0.2537748619828883,0.06292183681776253,-0.9173776041714773,-0.15138733257904932,-0.4408998454735044,-0.025828266086389124,0.5470772538011947,0.6540936585141209,-0.41553394827178114,0.4204208627022458,0.8895885220596857,-0.19019460142121888,1.3552223400141112,0.26228068862410264,0.8017067301704376,-0.41777213632324905,-0.4284660145056613,-1.1495744743777891,0.8118540155093437,-0.715812595705428,-0.7189736690830483,-0.04826322924845537,-0.3776677036389728,-0.04903893664863486,0.1895066356150312,-0.9862909536311205,0.9193198851794537,-0.048318095845069325,-0.06698312556316327,0.09227319290241676,0.7621568363647047,-0.42842041707221884,0.0306114713135942,-0.43213615913550846,0.40043135341032465,0.2558736252084573,0.3402092277330435,1.078168020738516,-0.8081111135537722,0.608422815014239,0.4892877819994893,0.24739514660940432,0.028648255282946823,0.4174833139568086,-0.475541616235126,0.05865111117579768,-0.42837881651684995,0.8437512199582183,0.6489861998091468,-0.5634832420206871,-0.7273701937371116,0.9909517087503618,-1.080082606082989,0.809264231090472,0.3720025433553174,-0.3087177791341508,-0.5608499258694541,0.4627331726937199,-0.06463035546781937,1.3684446629422515,-0.049531563461029014,-0.5904328348119557,-0.7063880248589316,-0.10697790493149366,0.47931168993587847,-0.4717008854612737,0.7928008614483346,-0.31206774432452705,0.21835262317702508,0.08976935987461038,0.47503939710337856,1.0878020962648052,-0.10081352656497075,-1.5880881090445145,0.9442422107172761,-0.8032091140898635,0.7731514404372479,0.1793804099347618,-1.4092147971226017,1.2213299993982594,0.23580553697581008,-0.20841651941617365,0.6325530852841666,-0.42354443342290893,0.37200335476791063,0.4318974932898067,-1.0704072219699423,-1.126817038984473,-0.8646800924390831,-1.158870794979692,0.8643766802836487,-0.5074244078215394,0.6622650556318409,-1.049819984181599,0.7103905097316306,-0.5149687050808306,-0.19209116824673161,-0.187791598875412,-0.9921631598392144,0.946191309124667,-1.0318788610685732,-0.07017178999393286,0.721689222184971,0.7495499327322541,0.22554643126811627,-0.7700712960460129,1.6520854106234206,-1.1762695924806505,-0.01849106014769476,-0.06273514498159588,-0.8954191549497758,-0.5024071243744017,0.6825190338600533,0.36967078125226654,0.5080549021220931,-1.0488725965469943,-0.851745484809019,0.23658680053718714,-1.0469887627162007,-0.4545727841832714,0.5107377837475515,-0.313481667711941,0.06056856428313775,-0.6688433940115429,-0.8488805174401991,-1.0992688177140568,-0.8218811055138066,-0.7675413146174267,-0.16013969939136297,-1.1659850295350496,-0.5667129610274075,0.3658203455737641,-0.34741241372782905,0.4266238311994603,0.8731045279247567,-0.8924440998442963,-0.15420059057388763,0.17415359503363897,-0.16691560974198036,-0.8750615082160169,0.6081580938502392,-0.6290728449557238,1.1582893614459588,-0.19327317357253718,0.2346534202890128,0.2711309483305409,1.1292441265874325,0.4748327189069824,-0.009765475000164114,0.2805571430664838,-0.8434593996567029,0.03265702317434275,0.04135643526814485,0.011759504222280198,0.8274440668654834,0.8977281128328232,0.6452823676588222,1.3779329021866729,0.15412790005571042,1.0674347330100813,-1.0021658755055156,0.6636271577484896,1.1020103164966126,0.45892463064408173,0.8503929575101339,0.4897642611149556,-0.4081947671331956,-0.8939171362961639,-0.7324456014149713,0.6293740391464578,-0.9269196091156272,-1.221936446385565,1.2352402570531802,0.373511444808175,-1.191543635818639,0.7932643296673191,-1.0585694169713356,-0.9758651462544322,0.2598492944580969,-0.7248451343989548,-0.7196682814506056,0.44755636857574693,0.050511656861874726,-0.20641317879766252,0.05930223556042749,-0.9194714797303088,0.8071579324795791,-0.7508295237397203,-0.9297587039926525,-0.7313937591261435,-0.19135445967676457,0.08395751799475033,-0.7429595727259479,-0.22756189016217288,-0.15354571966140015,-0.23521675778841247,-0.15694378682047033,0.11131590616409118,0.042104431462830536,0.10468301142039642,-0.9557387577413913,0.4838199170919806,0.9452673130513753,-0.41693834774646166,-0.9106713095223918,0.22075440697032217,-1.01521342893903,0.1917079131293943,0.027243401877681143,-1.2080733520579225,0.8155798774373282,0.8677148244213841,-0.2945334171845943,-0.8241145473851849,0.07073303106491315
ERR594313,-0.6910184896339621,0.48805954456414247,0.1591494105855935,-1.110574516639994,-0.21972564020704408,0.11637149727287066,0.6513862029532743,0.5652251518121477,-1.1860270412810607,0.45787368209931945,-0.8519916431598031,-0.04122970052812012,-0.9692690876750679,0.6479178814140953,0.15538770299381102,0.22511902211053897,0.640497755509044,-0.9144923844787263,0.035488930285098336,0.028471803013734035,0.4876944919537533,0.003980541709061869,-1.6346672665813446,1.0952845655337637,-0.26130324256586784,-0.4670048858737641,-0.43026084522628727,0.07714711801880697,0.22574011088585044,-0.07093809225699307,0.35613029281305547,1.2304254389738334,-0.002687805434560936,-0.030006900454661714,0.9057615504284374,-0.22279626086134682,-0.5271559429491637,-0.46221396804093,-0.6348007043087092,0.41800699632122923,-0.36683805362864813,0.6989859465169002,-0.568592052395279,-0.1942353679948725,-0.8763883119692379,0.9432625520654183,0.7399528491423626,-0.2369608256151969,0.12958108200974028,0.723500695437537,0.622528969430438,-0.8784370006705137,-0.8093868275442947,-0.7338540475356098,-0.11399780913735279,-0.42273850798053497,0.7250841507424942,0.6524552683546625,-0.9323054140862301,-0.7482448571984225,-0.41560234252120193,0.6364298796648155,-0.23610541634132132,0.008957355375113099,0.8187925542130967,-0.9574746970736057,-0.3627947975756499,1.0930853580141688,-0.19808842240362548,0.4720964689189623,-0.1448152116631226,-0.09424210249680122,-1.0120326671813489,-0.9742866822813397,-0.2288876692082345,-0.4370412189370365,-1.1988286698601005,-0.24311143741150276,-0.6111059923633257,-0.6676079929357442,0.8265027271456222,-0.6639046953860723,0.17909464370962236,0.7836179811738863,0.17889373937463382,1.2234568672975912,0.9672979848961918,0.8270739155264042,0.1285785659074413,0.9430271515945902,0.5083815687733542,0.639418547452165,-0.9452530984030157,0.12710415899344463,0.0844821797852484,-0.8441760770507323,-0.66567373847584,0.8265011054517213,-0.5252517436659954,-0.5508800591622085,0.04925837284241788,-0.4589077000895291,-0.6482006774421539,0.04727687648635426,0.5509822760281776,-0.1850284975646219,-0.625657648729904,-0.900747176633228,-0.5049618916155146,-0.5782568930955635,-0.9265566874904698,-0.007988796266273333,-0.09262392151698677,-0.3356503206523989,0.6716081562840321,-0.14740897846438017,-1.1120548493617797,-0.0905709069450216,0.14378283276023654,0.9300393298346555,0.7000059451685524,-1.0639871983803355,0.9108108996671009,0.3486935743138722,0.0628529057447665,0.1396054886698095,0.09042829758465779,0.4791416649868639,0.29601107805745447,-0.02134530183879822,-0.20739148089115841,-0.18383593978516954,-0.5370595990234605,0.6951269929470038,-0.32172367057228457,0.9442971643320177,0.8089282592110986,0.26526938810767375,-0.7844490047646255,0.8328775932640016,-1.1378913143248317,-1.0650124225744557,-0.18288120779009195,-0.32993770871451994,-0.9124805245059167,-0.8994897622645328,0.6042424406113535,-0.6245857259816385,0.9368293045987789,-0.9135615369964079,-0.9716851294604979,0.9822540418161623,-0.8485784803845106,0.8960408353543201,0.34742987443683504,0.8028292989473688,-1.1560713469171697,-0.1394983624131596,-0.021039410262970164,0.4001013000448823,-0.12328209562179332,0.9763207446532969,1.2148099385949513,0.7768539901730099,-0.4446574734911779,0.8921549140573528,-0.22077490833144708,-0.418983960362129,-0.12653307523051113,-0.314709510176387,1.219227499515169,-0.822429283125335,-0.7514514308717466,-0.16169288144665261,1.0840294026163617,1.0371926203727642,-0.8115169471649814,1.0133275443319205,0.8320172135562555,0.03332559058726449,0.5154313306339756,0.8831054534357572,0.5747470393970578,0.024436076945403028,0.5827919101229257,0.25464657547148245,0.0649392383218251,-0.929192212631965,-0.15084362055096182,-0.4431958415833666,-0.029889591361739264,0.5560412910668667,0.6535979562358054,-0.42324588656440154,0.4240485374080598,0.8965658667419575,-0.18037283308768368,1.3617216919141157,0.27121586596741803,0.8041265900912218,-0.41224245041340263,-0.4331094825692881,-1.1553343021085833,0.8221346036520052,-0.7144931349854365,-0.7200160145833149,-0.047378169379489354,-0.38309070275349,-0.04626674783420519,0.1903528939040036,-0.9990939634677339,0.9260285666550789,-0.05779601352894102,-0.06753225000083625,0.09432678456637508,0.762482791021346,-0.43493685623930095,0.031206307920245292,-0.44151935765157657,0.41010770699260474,0.25946408380673924,0.3450168194792555,1.091582426086585,-0.8199416680317997,0.6156909475730397,0.4874139751833168,0.24448177582844394,0.02893574477803522,0.42295602314952424,-0.47752163647033896,0.04884568226087083,-0.4347052441768363,0.8531347893328436,0.6602082719353003,-0.5650068094506203,-0.7371117723117292,0.9933059169506142,-1.0935325305812602,0.8164812777879416,0.3732626195538003,-0.3100338050058828,-0.5673279871228356,0.46502553604249247,-0.06475934166640036,1.3753175595003972,-0.05749883722092976,-0.5852135018448467,-0.7178730591401236,-0.09980774094586095,0.4758695990233732,-0.46456291418235957,0.8046851238011764,-0.3165127712046923,0.22039307735670136,0.09079391769504509,0.46680444239824453,1.0932358843739156,-0.10049008018131524,-1.5963031925977091,0.9581519002988871,-0.8202322401077071,0.7732748715932817,0.18105486395545597,-1.4198656193789532,1.2267488477243773,0.22380589300500778,-0.21234783409368677,0.6350977686704741,-0.4258453714628631,0.3757835454209727,0.4307099118763048,-1.086200715996231,-1.1389118319978775,-0.8763749006490329,-1.165786036351309,0.8772741170204295,-0.5171949243095844,0.6676766930466554,-1.0544829045336694,0.7069607371271238,-0.5248853563945096,-0.1886919385737231,-0.1877751712956778,-1.0046196834467405,0.9584505276884805,-1.045950163114841,-0.06938334967232167,0.7236086358816329,0.7475905445094454,0.22510756070572874,-0.7797018654847369,1.6599819204813233,-1.1822322411535258,-0.017440465604791407,-0.07252008762263937,-0.9054198379881557,-0.500514706382813,0.6913811056794087,0.37015802641437745,0.5147995835747933,-1.0622613137542205,-0.8577784531991791,0.24271295739654722,-1.0513126993480433,-0.44809779903567554,0.5177004056038335,-0.32085097111003785,0.06211142784807495,-0.6688123540047536,-0.8556790601939261,-1.1056078478157094,-0.82222984059111,-0.7784625283466599,-0.1645554393242557,-1.189937192579152,-0.5624838459040161,0.36581002419515113,-0.3524336431398174,0.4243357678975126,0.884640276918206,-0.8911523485194724,-0.15505599057591637,0.17511562924353868,-0.16759717008011674,-0.8861402134221918,0.609179902402787,-0.6396933729460752,1.171333303614448,-0.1964178109346866,0.23579253447839263,0.27406017488081025,1.1357041652914748,0.4719452450014939,-0.00985337164184375,0.28473114513325454,-0.8555815672761244,0.03365813505342102,0.03383865515393864,0.004965462722178044,0.8365434967077388,0.9095649177035275,0.6419929779570015,1.3854816541216,0.156217943536029,1.0804188631470357,-1.0057045567783942,0.6744166844182858,1.107222204488574,0.4690300385544684,0.8591590545067886,0.4876552369747646,-0.4081471525703697,-0.8968645025233153,-0.742174140821426,0.6366591519086969,-0.9325955071761973,-1.2351354548674691,1.241561971015765,0.36644752681088444,-1.1977580053344639,0.7948090938038902,-1.0643340847796852,-0.9880778563991148,0.25478266338068384,-0.72689049914861,-0.7330099696526886,0.4482795070644692,0.0519830207953944,-0.203428683360693,0.062448463162774255,-0.9208934232275042,0.8193427702339015,-0.7613158319766963,-0.9432660027529871,-0.740383879214394,-0.187513624286906,0.08557142974206915,-0.7457794164954752,-0.22627315824937466,-0.1483428485787787,-0.22550124606815586,-0.16743086704327753,0.10372858229768177,0.04501590002062846,0.10577948703158013,-0.9589963912287581,0.49411479348820775,0.9581070553061638,-0.42236675656677986,-0.9213714908519373,0.22979559727316862,-1.0179676438724392,0.19028952762690574,0.034314453948588314,-1.2161582447051171,0.8278465773564707,0.8789119317945845,-0.2893913413256388,-0.8231748484101623,0.07568789566616188
ERR594315,-0.7058033399604196,0.44353340600879854,0.11192300602525118,-1.042385897789318,-0.2516270590797226,0.09859554566097714,0.6493844220625534,0.5474474235200468,-1.155863198940319,0.49645141843849316,-0.8184943470686843,0.003918003956689575,-0.8955290909231095,0.6199741756190971,0.12213423745412663,0.21648029583345274,0.6664974838611917,-0.8593897245462802,-8.485738674605499e-05,0.06822277390485025,0.49527824488322,-0.03753330807976218,-1.601394465328995,1.065917531618753,-0.2794333232812737,-0.4274130220930571,-0.40703740876876193,0.024082542242240625,0.22126467862137178,-0.05794720975769587,0.29995865321436993,1.1751454549220364,0.002198025312587709,-0.04631113979546464,0.878302404451881,-0.23177478373618446,-0.5544836689448814,-0.4157312357486119,-0.5903252298575319,0.45034047580199876,-0.3384591038957344,0.6337258209428644,-0.520908511625448,-0.16196361085560368,-0.8625163909728639,0.8899444030821866,0.688749005374657,-0.24762501781308777,0.1235280018019518,0.6766764187426448,0.591749449491472,-0.8415664711899898,-0.7723233255690791,-0.6940968159459387,-0.10989026762171206,-0.44865178930165217,0.6957860489080592,0.6017751212473519,-0.9051375941654874,-0.7076398228974843,-0.39266026565977413,0.5996517829198356,-0.2461558289898092,0.015104010526566776,0.7612392083395706,-0.9367361925714165,-0.34168315419722917,1.0720638613934996,-0.16306475254894587,0.4593014527399948,-0.15323764828148406,-0.10851414634678094,-0.9454333536389723,-0.9070456822386787,-0.24981534123107255,-0.4167190065394693,-1.1703616697824721,-0.22842165127239208,-0.5672881584737226,-0.5939712452944003,0.7684758363250923,-0.6202360697052335,0.12933381380981007,0.7302477613224184,0.16890860556452292,1.1506982578617622,0.9485673285697293,0.8303346870464579,0.11912846882263808,0.8644374663822245,0.5121582374668868,0.6468813935506921,-0.9076284846321377,0.13215420919698276,0.0840736526132487,-0.8291177210398419,-0.6256817262872487,0.8253125228227438,-0.5531449607600423,-0.5077354189464769,0.04844705334136071,-0.45256943522582016,-0.620357233208622,-0.005873747895147874,0.512345393439987,-0.17412302328137003,-0.6301354260731901,-0.8850665033196846,-0.47109453629007647,-0.5307929607993065,-0.8636913991319342,-0.04247130626693859,-0.08168492124090872,-0.3732898145225898,0.6253982550421294,-0.13864919927138752,-1.0405544089168244,-0.12100276347311635,0.1339171083123521,0.8951018074681215,0.6499581040487786,-0.9987047866106078,0.934404789762488,0.3594819988264305,0.024736381315906403,0.1267326736679126,0.059938246098930725,0.4796552680462379,0.3463829499625851,-0.04714155628665799,-0.21788851546040736,-0.1673584571933951,-0.48019253181466787,0.659505417120559,-0.2959326563703351,0.9172815718482165,0.7511959164288092,0.23833269199157148,-0.7481521886503174,0.7787849145356531,-1.0666650364283075,-1.034504667071848,-0.12997645270992214,-0.31249478782246115,-0.8656055686235856,-0.8622541966174465,0.6116793187350799,-0.623222373507732,0.8786988439848347,-0.8537720362407556,-0.9372034113852281,0.9527077043475051,-0.7931783767467324,0.833421529135548,0.3233689760733499,0.752317169668863,-1.1207816872529954,-0.09259529573554025,-0.022103202475730648,0.3892867720805672,-0.07840076192150497,0.9228034808264397,1.1417225908333202,0.7218533419677383,-0.3931815884683149,0.8322782329145091,-0.22835808873384847,-0.3842617856225935,-0.12190821326155941,-0.3307880805696285,1.1471399468705876,-0.7955263776762701,-0.7557165668899218,-0.1697266843219624,1.06177517163116,0.9687472435790628,-0.7445765470598629,0.9576239376245741,0.7728293727669863,0.0326492262643821,0.5415518456883779,0.8361499957956302,0.5467804723940708,0.03720390428131751,0.5388531408282203,0.24944502873755395,0.059291764660143784,-0.8765086474865585,-0.149932759608782,-0.42506586428082493,0.0008118325643260356,0.5176871548289416,0.652994331358221,-0.3872725213762697,0.4045286969171706,0.8609180158025391,-0.2315292781634085,1.3284650000978242,0.22463334839463706,0.7862572354150843,-0.4441508094625067,-0.4042187238916954,-1.1262312693526073,0.7654962486293506,-0.7239019591337895,-0.7165096210207587,-0.05129625200484544,-0.35521382679372837,-0.062144025454364156,0.1865931965549679,-0.9333721792087007,0.8956613265547095,-0.005054573146489361,-0.06515247983063738,0.08299712864969529,0.7561863787033583,-0.39377037826669703,0.02783077429628509,-0.4005003414248363,0.3567346682891017,0.2440930056373462,0.32610450556080817,1.0214619379717904,-0.7653715991185954,0.5780016648680477,0.4901446425826031,0.25344850180424766,0.033957812698323125,0.3861305225651356,-0.46619527849645426,0.10032815501114233,-0.3995533733286048,0.7972681123306063,0.6117173717611742,-0.5560955636336902,-0.6799076699297145,0.9831089411943257,-1.0234992839712547,0.7758192569813221,0.36170415925694543,-0.29791159834895053,-0.5334505698880305,0.45536112099543324,-0.0627891850434042,1.339650594029914,-0.014804481935519864,-0.6140409262463942,-0.6673684001289123,-0.13703348068192972,0.49465755979597653,-0.5029467104383525,0.7465699855707864,-0.28731593237729347,0.20955217002368134,0.08556333671455806,0.5089777533808938,1.0648064019359655,-0.10251814863138159,-1.5546860068125499,0.8972026545400327,-0.7305171401490781,0.7691022608995213,0.17641604686181397,-1.3669935942319358,1.1994023316582891,0.2872265400127256,-0.19326975616135655,0.6224957279187042,-0.41385931637703977,0.35605841043448705,0.43297306690229076,-1.0044497115501354,-1.0742866449705009,-0.8057362822800586,-1.130257378046356,0.8182047152324374,-0.4690552627274959,0.6402386133734078,-1.0285067216107806,0.7201957213047648,-0.47037211853857896,-0.21198256465068363,-0.1881245592325979,-0.9438281291180165,0.9051808973132789,-0.9719378031825379,-0.07296035968529455,0.7100797805146465,0.7505483668214749,0.2272971283633165,-0.7280827881929319,1.6196741734370366,-1.1514417150834189,-0.023381897271226464,-0.01898712667870402,-0.8503963744500425,-0.5161852237418105,0.6431708924308736,0.36537602027584903,0.48143512393996113,-0.9976942414065346,-0.8280233908254705,0.2193986217220077,-1.0304363020796754,-0.4817050680884839,0.4823449942256116,-0.28764929482730184,0.053411748751844734,-0.674636944740119,-0.8136645375842398,-1.0735403753543165,-0.8156352531704399,-0.7215835778541481,-0.14154836197122203,-1.0841803811813993,-0.5846544229866175,0.3641430398183732,-0.3329880324106953,0.43388161550623355,0.8314196945280936,-0.8912856111619948,-0.1579542243416032,0.16976150052732844,-0.16387752842132872,-0.828167592823077,0.5992313797226299,-0.5923561697896892,1.1030261822431142,-0.18722420751076993,0.22908611872136145,0.2588552294937575,1.1032260916150338,0.48457437998352954,-0.009384664998128086,0.2599505416622653,-0.7943986609035832,0.0286574263912757,0.07027527232811173,0.037174995840281944,0.797680975559082,0.8481838922197604,0.6520243843191235,1.3468386081022121,0.1457195535228235,1.0106317213853617,-0.9863954928089792,0.6267969907700061,1.0799796962922186,0.41793391208488717,0.8046540707359305,0.494696315781941,-0.4169296756666421,-0.876540432168846,-0.6888434596833334,0.5925261407694583,-0.9052734478422232,-1.1660371093932995,1.2078827914030719,0.4021851770440697,-1.1651237312480016,0.7923744108766908,-1.0362342193474723,-0.9243812128680267,0.2768628725967824,-0.7135594258028968,-0.6620531792481551,0.44517000608367147,0.04426660969838541,-0.22651796269333627,0.05131742484833355,-0.9122641073330678,0.765491667548431,-0.71427927715479,-0.8838238764569145,-0.6940074652568091,-0.21610718537925877,0.07704332476670886,-0.731769762699167,-0.2313660629539968,-0.16713779493745612,-0.27797329187884867,-0.11192243309554024,0.1443140830864137,0.029954979382066132,0.100158513473684,-0.9407674921465788,0.4426790118252255,0.8899336060276505,-0.3939621526234573,-0.8601135716321485,0.18228152640164477,-1.0006276141594044,0.19700861750762033,0.004907154841221831,-1.174834233205993,0.7721165688106918,0.8288777450531483,-0.3188087538644751,-0.8235719109485283,0.04972933443558149
ERR594321,-0.7020004737325986,0.45357292263777915,0.12232812199281785,-1.0632170362692195,-0.2419508174974425,0.10377581712669866,0.6514654220587934,0.553494310552466,-1.1639161090599566,0.48463555450121054,-0.8295999139387448,-0.00886186004577499,-0.9156938587168117,0.6299644497682176,0.12950045121997558,0.2172169605829979,0.6580759380026739,-0.8724922747588404,0.007478296882930282,0.05424539758824243,0.49428295133355854,-0.023838027253490393,-1.6110212448293169,1.0727350774876152,-0.2748971103361307,-0.4409957920896941,-0.4130638760333008,0.03915065447522451,0.2225537915550807,-0.06113614586878037,0.3166950158419,1.1907307539826568,0.0010526645376551342,-0.043093232725280074,0.8867779860303078,-0.23000474030380938,-0.54674544825192,-0.4303315195086502,-0.6052725182216433,0.4408072299657868,-0.34507699847759243,0.65323748780197,-0.5370555730533189,-0.16951993318350483,-0.8660211655895009,0.9071601635746674,0.7044726963980273,-0.24348428973306044,0.1252544796911339,0.6904341904829772,0.5994874713687189,-0.8535303259648854,-0.7811038566726651,-0.705392305436466,-0.11106969203428184,-0.44173418921681523,0.7017853135898887,0.6160008114969793,-0.9137838903525389,-0.720757328508142,-0.39896459220847263,0.6116504404371202,-0.24143555218017534,0.01446605249155807,0.780524719339859,-0.9427247676963624,-0.34787218931073444,1.078413452673642,-0.17094628352126642,0.4631700838106543,-0.15248988807163663,-0.10498025836028407,-0.9671013124014389,-0.9282344702957237,-0.24587333873038972,-0.4226582042831173,-1.178199483142572,-0.23325983263317618,-0.579988792992547,-0.6109996940390328,0.7868356833328003,-0.635061490744034,0.14377789945311667,0.7454621031339467,0.17180784139330424,1.1679157420572985,0.9528350834333439,0.8287707061513189,0.12175009116961392,0.8873156032583053,0.5084818658790969,0.6436881774445254,-0.9180807476126193,0.13305001000848826,0.08435269272653961,-0.8340655005226874,-0.6394824463450176,0.8244134164871629,-0.5451458719822034,-0.5221655068426474,0.04868545048575179,-0.4539064575139396,-0.6299054422178779,0.008875822720921455,0.5212960561757843,-0.17728798091521336,-0.626839150638486,-0.8893067706807941,-0.48080668214679956,-0.5442569708139793,-0.8784575978885916,-0.03169742162212511,-0.0846530981088804,-0.36220864653704865,0.6382531273821677,-0.1411544212925217,-1.0610933615400218,-0.11021805986831701,0.13704933739056524,0.9054388865363855,0.6612712273510043,-1.0170588931395799,0.9282036179124326,0.35774674550737895,0.03296049582306816,0.13058282609694452,0.0709057728827206,0.4804480682845504,0.3314881393923576,-0.04063951469643401,-0.21351600790881423,-0.1720625598422249,-0.4969927459086703,0.6684895894222346,-0.3054353637780023,0.9246670117539585,0.7677480116806097,0.24823980500829518,-0.7592827051070941,0.7941712579674696,-1.0831953382110318,-1.0430392212225528,-0.1462382288760838,-0.3197793396915066,-0.8771175559187319,-0.8730644114001092,0.6096795493452106,-0.6238132767327967,0.8932250342526712,-0.870662842597311,-0.9470183149871501,0.9600837326667688,-0.8108557827711531,0.8484648115621788,0.3275856803113125,0.7665875069364186,-1.1305093330955607,-0.10687693542454489,-0.021847426793848355,0.39442323018971365,-0.09197888567156101,0.9374599826305289,1.1626192010659357,0.7352585571082496,-0.4097853214280646,0.8491609722801281,-0.22553571832523625,-0.395374948992035,-0.12328327537940635,-0.3280125554240653,1.1682226744059216,-0.8049658232730248,-0.7560900901204781,-0.1674531975464351,1.067761081122818,0.9891707506192319,-0.7640564694797729,0.9710767865722839,0.7895910245942583,0.032838985872072346,0.5329127616076859,0.8487179965568825,0.5554267350884826,0.034045534661134615,0.5514059477702338,0.2510854256834709,0.059491686176511564,-0.888964555718096,-0.15124899825431556,-0.43201794391155013,-0.010725831648480729,0.5262308599145806,0.6539417024147165,-0.39636960557809364,0.4102694504495207,0.8708315606015555,-0.216660456392849,1.3375656693138682,0.23807745655323934,0.792772277611807,-0.4338985131308589,-0.41385945400125723,-1.1340889644070544,0.7826097474762403,-0.7202683473817971,-0.7167850164310273,-0.05035524016521173,-0.36308779239232164,-0.05711624557408153,0.18744719979165914,-0.951895295389666,0.9028808477458223,-0.02131146173343505,-0.06568952307518247,0.08644249537162356,0.7591686234562934,-0.40770712749700383,0.02888467651226404,-0.4099809929714025,0.3729742635079914,0.24750883886160358,0.3297077032850134,1.0415879067431226,-0.7789214381710198,0.5887278505913416,0.4912358243187643,0.25260190217905615,0.030593333912525292,0.39911509839034554,-0.46965700993105053,0.0852697608562037,-0.4102797857130064,0.8152991062104714,0.6226951719695102,-0.5588280594481287,-0.6981801554786778,0.9852116397115931,-1.0435271393011205,0.7883085163534919,0.36642590556061894,-0.30289145965970704,-0.5431748610813985,0.45738999233652894,-0.06372545108409311,1.3496027074085364,-0.027512404277493914,-0.6050727077471686,-0.679108046818926,-0.1262578728114604,0.4888467745442262,-0.49136387822251043,0.7621086299364008,-0.2974675121196789,0.21270640326376697,0.08702765140302732,0.49685520181389553,1.072779961535505,-0.10181078281277835,-1.5660175494200415,0.911271864167653,-0.7564845045313968,0.7711490469155903,0.17652634259709832,-1.3811630703528812,1.2067613105576978,0.26849783307041325,-0.1983395808221347,0.625796462962208,-0.4172259796694601,0.361697427111406,0.43336319957210495,-1.0277117930310915,-1.0932113056372281,-0.8288203021124002,-1.140071553442769,0.8327436288985895,-0.48207912234106354,0.6478102366738413,-1.0362545074905878,0.7175426993323213,-0.48694889481793596,-0.20364990259030807,-0.18790126189059703,-0.9600117751791177,0.9172940733025771,-0.9933332414678563,-0.07206762224914436,0.7148572281388837,0.7516188238761041,0.2266385040222089,-0.7432800635040252,1.6307188027634325,-1.1599671804166034,-0.021519180468899946,-0.03523161865126265,-0.8669850565492988,-0.5098219171702757,0.6575697203742603,0.3673336016976715,0.49046766883050397,-1.0146399512315027,-0.8359387315094791,0.22358194950518123,-1.0357461204556124,-0.47189622524088937,0.49219663109031486,-0.2956704112127385,0.05611142416554089,-0.6711327928509934,-0.8275667054999052,-1.0822837303875086,-0.8187407696567398,-0.7378761471672683,-0.14818036414943256,-1.108858790592897,-0.578055109238302,0.36504533142147666,-0.33657535605443567,0.4317100837157555,0.844625974786434,-0.8929396729918476,-0.15492786796628727,0.17137731429362785,-0.1649680485759365,-0.8448251854258887,0.6033135576950706,-0.6035863894491122,1.122645106766305,-0.1877438511454579,0.2312033839681775,0.2631809715065071,1.1120065288163903,0.4815044345719951,-0.009520697891554268,0.26795152144637585,-0.8113501497651364,0.030035890807805467,0.060505206595938804,0.028772820200472178,0.8062492500455183,0.8656721923522549,0.6510281143500214,1.3574889216922084,0.14861147639325484,1.0312270059450481,-0.9919947529627621,0.63792630680419,1.0875905000488921,0.43218173854112896,0.8228294958492317,0.49368811399564666,-0.4117885310217753,-0.8836718339437689,-0.7048944456357732,0.6069751348601905,-0.9123125663951039,-1.1858584157011645,1.217513229023293,0.39205053503761733,-1.1743487293011337,0.7912477131046539,-1.0435534793299892,-0.9426251707420162,0.27166440187598995,-0.7180323577984218,-0.6828701254537218,0.44577285581851855,0.0465001151161261,-0.21757174866160262,0.05298656409207069,-0.9148959117332444,0.7780908603109082,-0.7255143032041466,-0.8976345450870292,-0.7071354493092342,-0.2053631872763582,0.07952588237432963,-0.735447697051382,-0.2303106262840708,-0.1640837934893438,-0.2621688414126717,-0.12834993795604327,0.13221639408559427,0.03427757027309808,0.10173376828000336,-0.9461839955026675,0.45682797095840744,0.9098346726035498,-0.4021307813684686,-0.8792608836729683,0.1959834282067937,-1.0062331773910298,0.1952137335129021,0.011243273405144505,-1.186234047854478,0.7856780760875818,0.8407451926195786,-0.309428556144159,-0.8245656206684919,0.05727896882048234
ERR594318,-0.6911165206644698,0.4935178004073397,0.16492851548273932,-1.1250167128381097,-0.2149373996715648,0.11943589298997484,0.6547734792468834,0.5702877916233312,-1.1932797944189695,0.4525591649577467,-0.8607698263381548,-0.04800307562758984,-0.9820671098377419,0.6556887438805198,0.1587858007545602,0.22537790665635998,0.637365664109003,-0.9226898985087104,0.03963062993889445,0.018582232464204287,0.48909107952036557,0.011981394716045127,-1.644343220392021,1.1010283475806155,-0.25996756868458404,-0.4763398888892034,-0.43427410329638394,0.08525990931791688,0.2270201543226692,-0.07258623842552966,0.3676368683845041,1.2421538149765268,-0.0032120113246392164,-0.028985572613949493,0.9128736310553286,-0.22281561265567215,-0.524481645205847,-0.47170830967170113,-0.6452727053745465,0.41393276579379434,-0.37070791350564675,0.7114995710180856,-0.5796939965221393,-0.19809261474676113,-0.8803893576503378,0.9556418532926776,0.7506465815138796,-0.23494614309656947,0.13080829601784846,0.7327780623624507,0.6277608526457598,-0.887675430864181,-0.8153452468245188,-0.7418144029966408,-0.11490916181178405,-0.42041076381928616,0.72930408330282,0.6615963244968154,-0.9396849553614508,-0.7577940719045141,-0.419853909769533,0.6450250274873924,-0.23345855197568213,0.009110600186027738,0.8323255404408361,-0.9633359602409203,-0.3670494048460165,1.0997014707514783,-0.20188625551730083,0.475435154927819,-0.14547681330237958,-0.0928927792555854,-1.0272186416009925,-0.9888520973494938,-0.22826930757171218,-0.4413148349250099,-1.2060813205180945,-0.24655704539012593,-0.6195062855159766,-0.6780219327018331,0.8390655136492532,-0.6744467732906365,0.18725770595905436,0.7936607533711567,0.18088438000132487,1.2342401999401,0.9716464923255399,0.8282105512296106,0.1302641789118059,0.9577705013314918,0.5067036526956448,0.638959710755758,-0.953260827759273,0.12886164877743794,0.08489717498619527,-0.849291431034784,-0.6756164120376763,0.8278087479464913,-0.5223690495436928,-0.5608135329519706,0.04948958058063654,-0.46058960474870314,-0.6555619363419168,0.05497063098221633,0.5562491296135893,-0.18718336710649036,-0.624801600747669,-0.9052217841299662,-0.5114530911395161,-0.5868411680377157,-0.935561928090269,-0.0019336648056256774,-0.0943669676994643,-0.33057382050608336,0.6800056555338698,-0.1491135696698502,-1.1258476126032073,-0.08417088228345383,0.14598395143356763,0.938181494060148,0.7065815466648397,-1.0763468931347946,0.9102188921494782,0.3492720261046134,0.06699847416004256,0.1420722001038835,0.0973696726973796,0.4812148499016578,0.2887835542115987,-0.018268472607346573,-0.20504260863213233,-0.18679372695591964,-0.5475996299211766,0.7011905705736271,-0.32846373576794224,0.9505300321691341,0.8198754781510175,0.27214030928820937,-0.7929012894928164,0.8431417262093567,-1.147980055514454,-1.0725430088930736,-0.19242544962385127,-0.3355723648154338,-0.920129308367616,-0.9076367117624294,0.6048531736410039,-0.6265687882348745,0.9460563492512509,-0.9247536082774319,-0.9794776776628327,0.9884601090997134,-0.8608543604581883,0.9051921228232795,0.3494692024632333,0.8123250058736888,-1.1643909819804192,-0.14774753160199278,-0.020954950234612787,0.4047013148868939,-0.13102109419447858,0.9863285462204743,1.2290490502792022,0.7850032617242235,-0.4553935348030658,0.9033028948897075,-0.2196029109219727,-0.42643930724456963,-0.12760760170881888,-0.31483304606703694,1.233789325632465,-0.8303484819892529,-0.7546203183505985,-0.16091149523110057,1.0901854944340088,1.05099972525729,-0.8240822430027548,1.0220719238914895,0.8431352770968027,0.03352714351588499,0.5117326230505869,0.8916471856750758,0.5810428367522528,0.023072433745614736,0.5909312037648111,0.2562334728173621,0.06463034719570246,-0.9371138907998057,-0.1524335508373486,-0.4487515088383313,-0.038761296161130956,0.5610055840781426,0.6561551787053869,-0.4286556970836933,0.42821840001894124,0.904014487682409,-0.17292132761679985,1.3703145269992392,0.2790933902169047,0.8103589871453031,-0.4074349582728352,-0.4399332179643117,-1.1627138868584976,0.8337605005025025,-0.7139966859501363,-0.7218125999567808,-0.047042214398056,-0.38825651970130026,-0.043482767349280124,0.19121490430114066,-1.0113779404896592,0.9318841357855026,-0.06700316323215122,-0.06788873525481484,0.09647993103028855,0.7665871612404358,-0.44433062739894774,0.03185719512075932,-0.44678895137935587,0.4201291047609672,0.26156942510192005,0.3471059730216929,1.105147583457872,-0.828451129034555,0.6229299222849359,0.49065092727959697,0.2454358706203011,0.026397503641533118,0.4321254902181724,-0.48071553944500184,0.040979863459605435,-0.441770682185275,0.8657072769467031,0.6665753323838983,-0.5680009761091906,-0.7496648747252097,0.9967949082358531,-1.1069417509679917,0.825522985824646,0.3773025365374851,-0.3140845124160181,-0.5739213588456855,0.4669552868278275,-0.06556303273389373,1.3842391425190192,-0.06455994084216927,-0.581653140711005,-0.7248284127895063,-0.09432697485419611,0.4738813175105283,-0.4593783002802003,0.8145721088835067,-0.3234478199111878,0.22262104582843742,0.09177690030817696,0.46160554040683394,1.1006787027745761,-0.10027502594400128,-1.6062628971771924,0.9667032325905077,-0.8377442677802497,0.7768320837648944,0.18105076230144987,-1.4312182760259493,1.2338166784725568,0.21457477994899746,-0.2154069357019776,0.6384677234586078,-0.4287669882461674,0.3797130854596848,0.4324471087640502,-1.1014692186263582,-1.1521248489656535,-0.8922490711022483,-1.1745169800862998,0.8862428482632942,-0.5250905937521994,0.673311782531014,-1.0616915317912252,0.7079009767297512,-0.5346590728494749,-0.18306331782334398,-0.1880974484180392,-1.0152521737171367,0.9660553023092195,-1.0602042769844837,-0.06908689577638705,0.7284225674944804,0.7510405182589897,0.22531838012229885,-0.789944476714683,1.6699331159476343,-1.1901034400283608,-0.016431556613652427,-0.08168361287041227,-0.9168626062189232,-0.4977195843585332,0.7011033899938005,0.3723559840042031,0.5206618243155698,-1.0733425833859644,-0.8641073797719769,0.24454947658169865,-1.0566700262508788,-0.44398547581496556,0.5241860464671252,-0.32540333368144536,0.0637907583004335,-0.6679600211872415,-0.8660188455193989,-1.1130118495625443,-0.8265857269907648,-0.7891282876789493,-0.16848212243012023,-1.205170168099241,-0.560348528045808,0.36737877491353865,-0.35445574957870096,0.4245004866104882,0.893061352340325,-0.8952987853141665,-0.15295040848310137,0.17639750805919677,-0.1685877412091584,-0.8973680791859194,0.6135210029984637,-0.6463468785575053,1.1848056822049033,-0.19629747779873322,0.23756261473446325,0.27704476739897804,1.143287743561764,0.47180706680530293,-0.00995846645848809,0.29008178787689337,-0.866552972523588,0.03445341405231758,0.029027104317457707,0.0008404569757695634,0.8421837105155006,0.9211610220552713,0.6440524871446739,1.3947642859156377,0.15810181722341907,1.094376025989951,-1.0114532568290426,0.6810293190853581,1.1145697900040556,0.4775874629877327,0.8720629673935519,0.4888608881188085,-0.40545124432351715,-0.9034889160598504,-0.7529466999714037,0.6466670774522807,-0.9384270227377624,-1.2489462299476792,1.2504578663177226,0.3620885111879199,-1.2059653522645564,0.7955563617520716,-1.0707469772722398,-1.0003292439342222,0.25315832073426026,-0.7314147741306539,-0.7461054299743372,0.44963947711480373,0.0533688500525282,-0.19828348528682774,0.06291784374116062,-0.9248245838127614,0.8269617260087817,-0.7682779521427457,-0.9516859971884981,-0.7492179742760012,-0.18020719418253622,0.08716560956070359,-0.7495917606164881,-0.22646284858876714,-0.14808020838230565,-0.21741175610042884,-0.17541546438188724,0.09741697425879882,0.047428000538677836,0.10689514280936206,-0.9645032233573072,0.5026272600924137,0.9713250075699285,-0.4277946222101369,-0.9345453014488766,0.23915108156111747,-1.0244145395087376,0.189868601379993,0.03696777008642994,-1.2257720285358227,0.8362235265960618,0.8864452072410237,-0.28497594742635557,-0.8264104518433625,0.0799058456226736
ERR594340,-0.691636306021931,0.4852196766100688,0.15595738916651541,-1.1103282553518248,-0.21991456364345535,0.11611440246217555,0.6524989935380557,0.5656310249258614,-1.1850689857739267,0.45802285414490446,-0.8525347296637357,-0.04028647645068831,-0.9672243855212329,0.6489126636367191,0.15316180025266501,0.22366360446412972,0.6402647107962145,-0.9114957922388829,0.032879096712060005,0.027243047001068013,0.4887329552165259,0.004570534825908594,-1.634179431956757,1.0935808454546867,-0.2621382327085505,-0.46797251089213676,-0.4293770628211768,0.07607514039463177,0.22566999273828747,-0.07030224163613011,0.35560978907955254,1.2292632751231856,-0.0024076649012866056,-0.03139668854880032,0.9057414532255345,-0.22356970751842492,-0.5277411567539263,-0.462337910606521,-0.6356576868886327,0.4184099303174975,-0.36519451273554365,0.6984213156902996,-0.5695993231793158,-0.1923828420900174,-0.8758084439706836,0.9437679716758252,0.739826296301896,-0.23634943933580396,0.12946789615226964,0.7229201558943156,0.6211723918575809,-0.8788377055740694,-0.807352208362233,-0.7330768242059976,-0.11392770627482264,-0.42360635948433967,0.7227741625418069,0.651325075234059,-0.9324821062514015,-0.7486360648363674,-0.41499191318734635,0.6368704253614409,-0.23491609852551115,0.009912629934969238,0.8198592004213971,-0.9571600779903882,-0.36252357159856674,1.09298059430015,-0.19583758210261876,0.4720277296428118,-0.14622275366054716,-0.09492339383841875,-1.0127819783617937,-0.9745259259796845,-0.2308187276385593,-0.43676855182591007,-1.1981050277026033,-0.24332133770045872,-0.6104310493464798,-0.6632415884202997,0.8267642461563859,-0.664859458843851,0.17832792185910207,0.7826051969798832,0.17874452694273973,1.219438013102168,0.9661595729625255,0.8266867112533092,0.1283447093875572,0.9418860033371316,0.5065203739185452,0.638783058112181,-0.9443475204010431,0.1289572594763247,0.08459846188128929,-0.8444005421450187,-0.6667166189135774,0.8255757429073574,-0.5257728545538572,-0.5516571395244092,0.049249128668990276,-0.4584456626466415,-0.6488872505922578,0.04594469829408049,0.5487007596281622,-0.18486420174081322,-0.6242493470528087,-0.9002970373121321,-0.504363073160751,-0.577302995051106,-0.9229993213027213,-0.007950316890643204,-0.0923016966703289,-0.33612778442337615,0.6704925848623766,-0.147249343321074,-1.1108173358929032,-0.08958133725504243,0.14383594046006068,0.9296731538242304,0.6968400601030424,-1.0625599237537522,0.9116903544923917,0.34991873797968914,0.06014217926101282,0.1394951289854166,0.09154568615158389,0.47987041212282155,0.29659692270219523,-0.022484696589590448,-0.2065661931038327,-0.183526684275449,-0.5364140597156094,0.6935784304415408,-0.3228454067550931,0.9435640197028495,0.8079033138734589,0.2664259342793124,-0.7843577409019045,0.8318269747386703,-1.1337118381804052,-1.0643338431526224,-0.1827449852995434,-0.33134265771644833,-0.910209514605385,-0.8989405881334857,0.6044953525521461,-0.6247290127476757,0.9341948368543513,-0.9123128035748422,-0.9710346387745338,0.9809268654549407,-0.8489412787456129,0.8927469962290417,0.3449915985038528,0.801775104087277,-1.1551750227954627,-0.13927512205698248,-0.0210960145806575,0.40144333777589036,-0.12300172943384936,0.9748610904811501,1.2134739712064408,0.7741042453861123,-0.4451188949917119,0.890879500583208,-0.2204333509429047,-0.41923361563174033,-0.12648950991463304,-0.31638703197882956,1.2182645927541662,-0.8232598716293645,-0.7527525129673076,-0.1618660087263605,1.0833647354909337,1.0365782623454438,-0.8105398571916582,1.0104567988308524,0.830811660718555,0.03331134401843775,0.5150590299644794,0.8816065933727275,0.5747261789884032,0.02504604435889718,0.5819766759385754,0.2546712803041709,0.06377411405215203,-0.9262753374067111,-0.1516235485248538,-0.4441948146570642,-0.03140140946255193,0.5535210447139679,0.6541874413546451,-0.4216917890523408,0.4238140251586853,0.8957140085610951,-0.18115724868534094,1.3608363416417222,0.27044357524228857,0.804870612179888,-0.4120069182870591,-0.43361550822296274,-1.1544793335383055,0.8217860442795273,-0.7139828438199873,-0.7194270641251402,-0.047587137950544596,-0.3825068628796345,-0.04619954331611391,0.19012231290504172,-0.9976888985667494,0.9243913738402217,-0.05769020767586277,-0.06738154968696065,0.09427141092520075,0.7632742474564813,-0.43580174257205884,0.031210169975772414,-0.43907735216321553,0.40985194270229874,0.25844930577113245,0.343319308634647,1.0903569767297165,-0.8174027689492944,0.6149641246497279,0.4888905819040213,0.24594577619488467,0.027584079652587672,0.4241209492796054,-0.4774909682990553,0.04956083385637168,-0.43456493050414297,0.8536541726113751,0.6571531134772092,-0.5649947415073794,-0.7374993673419298,0.9925357992637044,-1.092253004143276,0.8163890676351444,0.3741192248304325,-0.3109506359870501,-0.5667369780082627,0.46430657824103644,-0.06500382548715455,1.374506540076171,-0.057074527608664286,-0.5852270766521669,-0.7149208875265104,-0.10041055712792368,0.47590747370350195,-0.46484086577868766,0.8028101698144973,-0.317326740963185,0.22023665483691646,0.0906748506533189,0.46756186844119607,1.0926234546511666,-0.1004349352449018,-1.595144129967678,0.9545183684988983,-0.818826805500781,0.7738609829349449,0.1800608154537318,-1.4182108387215406,1.22592891623352,0.22456018242215486,-0.21170712571935127,0.6346543123135122,-0.42558837157251816,0.3754234906784755,0.43154280943093004,-1.0846164034820787,-1.138068429598928,-0.8772423209318735,-1.1649029453571713,0.8744284154775817,-0.5157511412588478,0.6669764242050709,-1.0542697187693364,0.7080788096962862,-0.5246116705319118,-0.18786807174195252,-0.18769477439747156,-1.0026094848623013,0.955140798726012,-1.0447686478697455,-0.06954937454999627,0.7240583772751181,0.7491069220916076,0.22513073833131622,-0.7790847555151792,1.6589142625533588,-1.1814852574506267,-0.017429535198372058,-0.07222110296135731,-0.9050556476381235,-0.4994121526360106,0.6909581877371341,0.3705214348475604,0.5138078157984801,-1.0599441969559318,-0.8568029667703569,0.24042079602443744,-1.0504586046745974,-0.44859189995955134,0.5168596280962684,-0.31913434539765534,0.06210918930868113,-0.6675626895207807,-0.8563325239084858,-1.104720554425302,-0.8230461532219698,-0.7774403878343131,-0.16416847558454511,-1.183833599682662,-0.5627214109509815,0.3661083901030379,-0.3505999873054683,0.4249456076869823,0.882159281306853,-0.8924531876089736,-0.15346678087774868,0.1750833133263337,-0.16755218352643936,-0.8851407384118823,0.6099404097119365,-0.6370955672214698,1.170152409612328,-0.19466899368757506,0.2358229340995959,0.27376656738025795,1.1347511287292615,0.47260236719923504,-0.009846456907527204,0.28496119291549044,-0.8540521099729631,0.033526764934505696,0.035009467805373236,0.0061752201938030165,0.8339312322914325,0.9083934716897503,0.6436057652725636,1.384500862060348,0.15594310868575856,1.0796221014264584,-1.005432281390591,0.6716783223702603,1.1066157321930874,0.4678131233994178,0.8601046964200497,0.4885561627893464,-0.4063521837330497,-0.8974994859999895,-0.7417973160432965,0.6372218945851447,-0.9315307229115727,-1.23392457213031,1.2409737427089997,0.3671919165036714,-1.197104490051884,0.793420193159985,-1.0633026699540256,-0.9869355929558549,0.25604065831045436,-0.727157690103871,-0.7320960771480262,0.4480196801813833,0.051860804540179,-0.2021100679231735,0.06110691129672149,-0.9208829482367306,0.8162576704103556,-0.7587947985064795,-0.9397892865482228,-0.7394365676180908,-0.18611761229176357,0.08544749917737283,-0.7452934728418674,-0.22667590932684736,-0.15043992188365046,-0.2258917731498493,-0.16679573295911695,0.10412358219245509,0.044746841766761206,0.1056534268471831,-0.9588367034249797,0.49274552854290676,0.9571628289762741,-0.42188137119561286,-0.9214729596935868,0.22901471070330134,-1.0181645047420163,0.19051573756295495,0.03221033922609139,-1.215113689789968,0.8250458562960219,0.8761698930236258,-0.2892274251232301,-0.8240383233722814,0.07529828291286395
ERR594336,-0.6960974035630257,0.4712783270815786,0.14112554577567027,-1.089741631909502,-0.22947593842297206,0.11073045852640911,0.6520445055255574,0.5603242898619555,-1.1757088023996818,0.4695437887004579,-0.8425138165061623,-0.02658426456092698,-0.944639023130533,0.6406699346961309,0.1427539394065237,0.2207661270650424,0.6479247767048497,-0.8943089060611665,0.021664439237284547,0.038963366251703685,0.4911430906033589,-0.00774014307832921,-1.6239229740977075,1.0843322732557692,-0.2676937366464844,-0.4562574952374614,-0.42220425380989723,0.05997262107573353,0.22429025148922418,-0.06628094408962294,0.3385884390703115,1.2123296373358428,-0.0008892050657156366,-0.036546125009104084,0.8974130360759285,-0.2263813184939846,-0.535974551412019,-0.4483939800101404,-0.6224401477594943,0.42811922626979493,-0.3563334215640778,0.678694507969172,-0.55545639219442,-0.182334855484144,-0.8714386891414065,0.9277984195754526,0.7243890463950905,-0.23939377581223245,0.12761980772234588,0.7087083491300846,0.6116228963662091,-0.8677769086602636,-0.7957670517605132,-0.7209343525015818,-0.1126717783389532,-0.43148334900455193,0.7134609538311355,0.6358565865444132,-0.9242763195410802,-0.7364703965300242,-0.407959495127033,0.6258755692914362,-0.2376638732712314,0.011938781007298076,0.802745207160797,-0.9507723205646058,-0.3561102780862383,1.0865294558777863,-0.18488948048511772,0.4681308541528124,-0.14900369128510876,-0.09931615900350434,-0.9928768072642498,-0.954332692681723,-0.23743445755660486,-0.4305841342525023,-1.1892986828744023,-0.23893782307482045,-0.5971111073522826,-0.640206637749221,0.8093523337551385,-0.6518986575079889,0.16326324710402434,0.7663417622947641,0.17570692651157246,1.1967302565049789,0.960216827861312,0.8274881297355289,0.12545537620737032,0.9180280292389058,0.5072261282751968,0.6408182394827366,-0.9327920655104798,0.13081859818520333,0.08449012057136007,-0.8398381919615464,-0.6548766688163645,0.8249365818419478,-0.5341642392697852,-0.53883151667409,0.048999919436699964,-0.45640581834695443,-0.6406142536218979,0.02977016778903352,0.5366256987369004,-0.181547151611209,-0.6252369780548317,-0.8954115841037865,-0.49404848831243475,-0.5628415378103605,-0.9033717860177815,-0.01826348937443533,-0.08895347260023874,-0.34744753458602123,0.6563641693706748,-0.14457912559743308,-1.0890440475080243,-0.09848895494391438,0.14087482280206598,0.9190312106438052,0.6811566424877291,-1.0426154789034727,0.918816187417822,0.35334692486117025,0.04816071389011188,0.13560427012531223,0.08262907211147032,0.4801110962153083,0.31175190144444553,-0.03042990619382955,-0.20952276561645833,-0.1785128126378713,-0.5192018734468458,0.6825316909714636,-0.31530856957674896,0.9352241745095454,0.7903247053208525,0.2585580811769688,-0.773375154060003,0.8153334463415333,-1.11144134325825,-1.0549315737141742,-0.1668612220558359,-0.32636033818353616,-0.8956288459289417,-0.8875823615799356,0.6066994418424398,-0.6242786774898619,0.9161706799275007,-0.8940670144909714,-0.9604694004342975,0.9717004277171183,-0.8323334991137367,0.8732512061059196,0.3372705088977488,0.7863588489834031,-1.1442884469675665,-0.1251769106273551,-0.02142418446890835,0.39842361715376207,-0.1095012933623926,0.9584434053974871,1.1911931853628999,0.757011661566047,-0.42974908289477276,0.8726035403904412,-0.2226099799442239,-0.4088410012586522,-0.12508216910661843,-0.3214919425463314,1.1963550121550703,-0.8152723267025886,-0.7541820573992085,-0.16428651984973103,1.0764334447836275,1.0158523123068348,-0.7902167120349565,0.9931019744454564,0.8127554804538858,0.03310153914556714,0.5227445804364539,0.8671574942533337,0.5662863813684534,0.02898299077735931,0.5685977590872823,0.25309006950974083,0.06184741119690351,-0.9098260983567117,-0.15148371539931937,-0.43891316574817274,-0.022436084300884066,0.5414816547106287,0.6540455161244058,-0.4105705159689452,0.4178777853684934,0.8847734416431386,-0.1966011756165232,1.3505328015014255,0.2563167145066631,0.7995700449526313,-0.42146388408010715,-0.42501578449604716,-1.145448698731538,0.8046667599612145,-0.7166185577656826,-0.7181753840816638,-0.04879707167380944,-0.37400170920665743,-0.050935492705315985,0.18892942298603757,-0.9776254084374492,0.9148630620323072,-0.041876894032939885,-0.0666337930345792,0.09085833686870484,0.7614545279803139,-0.42359916196108394,0.03019801067220666,-0.42626727981917606,0.393780011973018,0.25361790545447455,0.33728388876772514,1.0689991869005913,-0.8004727861545597,0.6034695797833616,0.48991418561939876,0.24888647553442353,0.02882032214895237,0.4132695632567972,-0.4740382963559249,0.06510091104645498,-0.42396602876580225,0.8369366456559076,0.6419608653339594,-0.5622596850819958,-0.7203595786985311,0.989212113998957,-1.0709139856668568,0.804107411385797,0.37078514772787297,-0.3074669830608611,-0.5564168389299539,0.4612211709420761,-0.06445524481419684,1.3635044851005382,-0.04420562757431962,-0.5937929311706744,-0.6991412672034412,-0.11165957862766511,0.48148257727480753,-0.47633198478142175,0.7849527966108033,-0.30871064278069965,0.216937127279995,0.08907599232314796,0.4802793619484955,1.0838476061313989,-0.1010217862679091,-1.5822731018052703,0.9354504594977053,-0.7915347939461225,0.7726329846170888,0.1784576441287303,-1.4018714156161947,1.2174331291912006,0.2436511628228013,-0.20584691736694988,0.6307175533565075,-0.4218984492199761,0.3694064861317853,0.4323348719261078,-1.0597013579915693,-1.1184247661121058,-0.8561587254370168,-1.1539315570423228,0.8560888059142749,-0.5009998592510893,0.6585486312310909,-1.0463203880373035,0.7121767519056582,-0.5082140158978503,-0.19470143691345648,-0.18776179370676124,-0.9839043037669781,0.9384356834991585,-1.0222566208877193,-0.07064726408743409,0.7200123321872621,0.7501972081501062,0.22576530825415264,-0.7634227582876266,1.6464483841068154,-1.1719679591134298,-0.019203888903814813,-0.05613021384264772,-0.8884113394125056,-0.503826615574206,0.6763622603208453,0.3691206471208003,0.5035687615811105,-1.0400408021601069,-0.8475990693008497,0.23296336279394128,-1.0439169464228901,-0.45869722586282863,0.5060504058361939,-0.3088184093529449,0.0594974125263928,-0.6689828099475679,-0.843786775228547,-1.0948166073359207,-0.8211344974477455,-0.7601238843494231,-0.15718821152083823,-1.1507807793073717,-0.5693395346538138,0.3656273900299682,-0.3443777267648977,0.4278746811236149,0.8656412455159079,-0.8926343949890672,-0.15400448527420516,0.1734569324286553,-0.16641210297420203,-0.867485914250179,0.6070377431995467,-0.6223423168512019,1.1493385954190845,-0.19155267309550675,0.23379630175454713,0.2691263517667184,1.1247028086301756,0.4764556985768992,-0.00970336909872484,0.2775559365046532,-0.8353391474489488,0.032000238533851214,0.04614197097048252,0.016054628227709627,0.821690006032598,0.8896851700412994,0.6468446862606908,1.3725722187473215,0.15272895546053997,1.0584522106167267,-0.9994769281356574,0.6568090424792351,1.0981916390018853,0.4522277127657892,0.8438769091933006,0.4907819442767222,-0.40857951225142547,-0.8914382516657796,-0.7256733482434657,0.6240506625905918,-0.9230357670040253,-1.212857341337766,1.2306085397884945,0.37799254714869784,-1.1870583063241327,0.792325855762153,-1.0545632979250954,-0.9675302686389848,0.2628674154473706,-0.7231361718545095,-0.7105944119501147,0.44698651551096785,0.04951849050020668,-0.20873794028972048,0.057502319215501425,-0.9181883307220284,0.7994392196702028,-0.7441347060762922,-0.921206203811059,-0.7252825178468127,-0.19442744186825503,0.08285879808981308,-0.7409158032874464,-0.22825361460463564,-0.1564599966787547,-0.24164827768395208,-0.15009709800867313,0.11633670113701006,0.04018055627177357,0.10393304687021584,-0.9532355230719117,0.47702462816956054,0.9364592456123687,-0.41323550422615585,-0.9030513648055423,0.2145476925708147,-1.0128702578410325,0.19255025868890405,0.022987797887269294,-1.2023726157000814,0.8077175611221523,0.8605545302945175,-0.2979588273148301,-0.8242268217749141,0.0674439838893523
ERR594349,-0.6931524965699961,0.4810893582827566,0.1515901063624958,-1.1040597102983163,-0.22296421497560162,0.11445174861742906,0.6524117052304347,0.5640406730147516,-1.182416711121828,0.46174664611247035,-0.8495081151910462,-0.0360234928410256,-0.9604094892569415,0.6463731772661937,0.1500431074934524,0.22288349012092956,0.6428286651356566,-0.9064336337991193,0.029592360003897273,0.03091355119427535,0.48953789184288216,0.0006466207594305936,-1.6313135534090053,1.0909771030109496,-0.2639005900820459,-0.46430472928826677,-0.42724858302733293,0.0710711993026494,0.22528352806903523,-0.0690855017421365,0.35044658749164725,1.2242583710880848,-0.0019473111444488292,-0.0329425335482774,0.9032917777566418,-0.22445663062193244,-0.5304093133765699,-0.4580199608492721,-0.6315546742769346,0.42153283180041184,-0.36257333027260225,0.6923662566147667,-0.5651855760457983,-0.1893669166475467,-0.8746411668553778,0.938879341504569,0.7351051369121668,-0.2373961201083885,0.12891520303210463,0.7186080705975033,0.6183605133764704,-0.8754953771587256,-0.8039764903340063,-0.7294430960847265,-0.11355702975827422,-0.42612478718269875,0.7201303258872079,0.6466412181987271,-0.9300643480010107,-0.7449201636381106,-0.4128864605172552,0.6334945876082202,-0.23590409537287094,0.010495059904174509,0.8145518994481703,-0.9553640638364149,-0.36058460215294025,1.091185321399256,-0.19255916108370236,0.47089247536822504,-0.1470412409167333,-0.09629026121607681,-1.0066490751093404,-0.9683267843455877,-0.23283455371809,-0.4349141054786034,-1.1956131980239262,-0.24197108602030604,-0.60638863479035,-0.6564714735744517,0.8214098312397345,-0.6608381876145663,0.17365140047632202,0.7776847491533166,0.17782775198965953,1.2127561799757995,0.9645456702593588,0.8271318137543792,0.12747197219500617,0.934610106583178,0.5069602448491906,0.6395911748216941,-0.9409516684866414,0.12945352774796334,0.08457213146317846,-0.8431144293989543,-0.6630386335479067,0.8256047696643637,-0.5284926707177096,-0.5476671243581411,0.04917874401286251,-0.45791869826587084,-0.6463570266896574,0.04092601429766457,0.5451354561581874,-0.18386183051447497,-0.6247787721024942,-0.8989584090840921,-0.5012446142596728,-0.5729096106786208,-0.9172132822643608,-0.011210944311363004,-0.09128252642095733,-0.33974169066804044,0.6662324699465442,-0.1464447281249152,-1.1042371003646547,-0.09246821976532757,0.1429289698056421,0.9265265469505051,0.6922229535419819,-1.056560757326758,0.9140716082261123,0.3509958121232675,0.05659555534392046,0.1383005621330416,0.08867637979289877,0.47999654790200785,0.3014104352357034,-0.024922712117374728,-0.20759123069024357,-0.18199837198137345,-0.5311270952742594,0.6903230576008291,-0.320458590089293,0.9411623466698688,0.802580363452,0.2639237597895281,-0.7810655547119236,0.8268471444993942,-1.1271608596364684,-1.061640661392382,-0.1777735789143682,-0.3297447064803323,-0.9059234597571444,-0.8955664049340166,0.6052975717907645,-0.6246976961721357,0.9288492100811053,-0.9068058519344993,-0.9679366388387326,0.978303439323196,-0.8438379284746204,0.8869752732332288,0.3427739715087565,0.797125102045673,-1.1520440543864199,-0.1348625035997496,-0.0211984435350722,0.40048459037938894,-0.11877492219628669,0.9699581036272654,1.206762019839079,0.7690304195477845,-0.44032545559939734,0.8853627067096967,-0.22118655870391438,-0.4160184437530242,-0.12607238580488,-0.31795786145682825,1.2116488313227725,-0.8208522740684429,-0.7532974736182385,-0.1626506073547296,1.081454846047442,1.0302719878300137,-0.8043433185263965,1.0053554974319854,0.8253601261115473,0.03325373062909101,0.5176113305391803,0.8773070189658415,0.5721721589920465,0.02625904871412316,0.5779162670068397,0.25421994710823265,0.06325110528785029,-0.9214447349940466,-0.1515653478153734,-0.44255143312714473,-0.028599192297512496,0.5499854534669976,0.6542369364799261,-0.4183589905659435,0.42203469560063406,0.8924874575084707,-0.18602388756172952,1.357935871207361,0.2660847507889561,0.8033169634635198,-0.4150894813448913,-0.43095554746132075,-1.1519386964615606,0.8165675593440656,-0.7149839193127742,-0.7192157777058884,-0.04796280696597261,-0.37993609812566226,-0.04770502658594716,0.18979785046683642,-0.9916369428862959,0.921683926409385,-0.05271260239498649,-0.06716475228403324,0.09321564769241056,0.762804201186796,-0.43197970527773966,0.030894602134156332,-0.43527370921139086,0.40487032934839196,0.2570399534523158,0.34158931198765285,1.083907075715619,-0.812380218993453,0.6114994511894349,0.4892642150654172,0.24683544642635044,0.028061515342835033,0.4207189650524467,-0.47649852054351166,0.054441450508068805,-0.4313108096174732,0.8485078194662089,0.6526784303194941,-0.5642429820548802,-0.7322211739114337,0.9917389722175747,-1.0858068275717139,0.8126735241535785,0.3730852939003181,-0.3098532096685028,-0.5636232163940319,0.46346462403233096,-0.06482702347218709,1.3713666288299766,-0.05304731931772161,-0.58804302963854,-0.7102624997889573,-0.1039457725672051,0.47776117291897385,-0.4685421862630583,0.7974475863853666,-0.31461723672769715,0.21924503037870005,0.09019409804929025,0.47162409195638094,1.0901386947254115,-0.10063966463238806,-1.5914690463155183,0.9489120038942837,-0.8105714962156525,0.7735968577424758,0.17964969764136393,-1.4134750973727235,1.2235512572245448,0.23061112817467563,-0.20993703644765113,0.6335708215379792,-0.424527193892771,0.37361740312414715,0.43182424226778465,-1.0770748354185213,-1.1321458523449932,-0.8707172150665371,-1.1617713932114953,0.8689843044849179,-0.5112820986494605,0.664490343373433,-1.0519975888309214,0.7094447934394895,-0.5194958159686548,-0.19003718349267937,-0.1877580307016953,-0.9970218781262843,0.9502595424829632,-1.0379479678926125,-0.0698949275385066,0.7228969930210299,0.7495146606700651,0.22537289504979519,-0.7743302647360086,1.6553695044825016,-1.178788888432391,-0.01799383441629435,-0.06717252466459238,-0.899997217555171,-0.5009765679254506,0.686515346024395,0.370125804727878,0.5107340496443671,-1.0540106909958624,-0.8541375403638165,0.2382577340361837,-1.0486590501284143,-0.4518395429699693,0.5136029757280448,-0.3160530507370059,0.061296956170779106,-0.6682218559597505,-0.8524967120401455,-1.101871461849294,-0.8225584044615217,-0.7721896298949171,-0.1620183335169131,-1.1741144661732992,-0.5649068409924055,0.3660070277000358,-0.34882029419279287,0.4259142731091256,0.8772689323060143,-0.8926235407753933,-0.15376598127238864,0.17460135523119866,-0.16722536613699324,-0.8798079576165939,0.6091025453288866,-0.632724407235125,1.1638843889091819,-0.19382980529366098,0.23522393008145048,0.2723728512426991,1.1318751196004317,0.47387347252945666,-0.009804142846283273,0.2826643664116498,-0.848406576345646,0.03305950694669088,0.03845855965984541,0.009218436160610658,0.8303914390122881,0.9027378573147475,0.6446649192339099,1.3810830736905615,0.15497544519989123,1.073198077671501,-1.003776612747333,0.6672858862488985,1.104249698396891,0.463055832026867,0.8550890450393946,0.4893027972046584,-0.4072510879697575,-0.8957200784636723,-0.7368765379232947,0.6331491823708901,-0.9290977909596321,-1.2275966017240156,1.2380242665395962,0.3706290813056934,-1.194227361686439,0.793319356784071,-1.0608213748883295,-0.9810744333973309,0.2581681794256943,-0.7260134478733028,-0.7255042139325608,0.4477971205883778,0.051143360819781276,-0.20432701278923243,0.06006822321138268,-0.9202192243622217,0.8112983321395236,-0.7544685444060887,-0.9343212835281363,-0.7351728956580821,-0.18878612886824123,0.08465761357452811,-0.7440925199988403,-0.2271929756554984,-0.1522400392237792,-0.2308882932120855,-0.16149180234566823,0.10797751874148366,0.04333067283456704,0.10514034251218708,-0.9572709695504085,0.4879616071693895,0.9508744196398892,-0.41926357257285163,-0.9158286157728299,0.22465053353197198,-1.0167230683777275,0.19118004187547927,0.029441092078554568,-1.2114389336423146,0.8199133483174729,0.8715806223194275,-0.2920662077013817,-0.8242140757675914,0.07285536072380462
ERR598947,-0.7260450419660515,0.3803929308893947,0.04455726421472661,-0.9546988646201751,-0.2928046349399698,0.07531481426675173,0.6492638614360388,0.5256157578337496,-1.1152007737824168,0.5460700261149518,-0.7768736260977483,0.06368168902999358,-0.7967993944161343,0.5864447771565775,0.07475068385011939,0.20224203349049305,0.699201896093507,-0.7823853096387234,-0.05128020547637346,0.1163250237196831,0.5072441354389335,-0.08928543519095301,-1.5577867141128272,1.0246372274679287,-0.30443146794016285,-0.3789413328915439,-0.3754157954130214,-0.04608094994777557,0.21538930018546656,-0.03994951025931907,0.2270270703493257,1.1019388253776086,0.009056775163545113,-0.07019775730266357,0.8431599922837589,-0.244944219146254,-0.5906838296763243,-0.3566008525010888,-0.535368256440554,0.492538041993029,-0.2985810949543402,0.5490858968377769,-0.462182754254752,-0.11665398464089069,-0.8435068505071214,0.8229122740385082,0.6230326597612164,-0.2599065987527544,0.11554319786738534,0.6155595920996194,0.5494317634414905,-0.7953223419406464,-0.7204843364419171,-0.641577825927924,-0.10448631350519483,-0.4836664235702634,0.6532652862877247,0.5345242845710628,-0.8707994099019419,-0.6566041156217286,-0.36199885801888476,0.553616127434796,-0.2563836936451064,0.025056655119107808,0.6900291816878442,-0.9095335074646342,-0.3141062599694083,1.0449586604367753,-0.11336386979215722,0.44279546133608017,-0.16709038487354685,-0.1282468139813329,-0.8619649837883606,-0.8216373491281495,-0.2807966601458498,-0.39014704586984456,-1.1323824269029017,-0.21010891905104936,-0.5098067046484488,-0.4902714008239463,0.6948923557434541,-0.566524527311107,0.06406146336516907,0.6598161337296594,0.15581962068918895,1.0488835801337397,0.9221213831441304,0.8336416549246892,0.10653769273942877,0.7614955151652039,0.5128904196844718,0.6550148964605387,-0.8575502564600369,0.1426764956306742,0.0838062074551628,-0.8103593080327881,-0.5768621514347567,0.8217515451983336,-0.5899270380599081,-0.4543043830318927,0.04738958510810427,-0.4434503775576692,-0.58627897174129,-0.07671828627292802,0.4579563172782513,-0.1598247617435617,-0.632756737937738,-0.8640306454971062,-0.4264965439299494,-0.468040078287787,-0.7755351498235766,-0.08644983586335293,-0.06699784490785286,-0.42243204240529536,0.5638917036724741,-0.1271033783706282,-0.9464579753345456,-0.15771547773713343,0.12142521500657522,0.8496423761262106,0.5790432913424081,-0.912137646603819,0.9664755461463943,0.3759551250529541,-0.029928468997079016,0.11003936242275003,0.023430365568974824,0.4819070451227676,0.41203344625265154,-0.08260779384318936,-0.22948704880482662,-0.14562159955359444,-0.4061015862303246,0.6105777032832957,-0.265436346338446,0.8811393082773712,0.6751628024593609,0.20644932893915222,-0.7015608191011569,0.7073463843884114,-0.9664565690292133,-0.9940172225897667,-0.062071433081877125,-0.2932881149824743,-0.8007087103790134,-0.8134569744632086,0.6217312775621336,-0.6217883599663543,0.798620603850951,-0.7746179418126375,-0.8917015441646721,0.9120255626193657,-0.7231737894715926,0.7461590606811503,0.28726339219449554,0.6854467397437563,-1.073704480148598,-0.03216891205626955,-0.02358676553313662,0.37841108333610635,-0.020432707804769617,0.8512002503443018,1.0453808196070598,0.6455229280854945,-0.32841228325986493,0.7529542492167108,-0.23729547167163947,-0.3404362494988165,-0.11590133072976509,-0.3550152151425418,1.0528951282428118,-0.7629640243202226,-0.7640150141548376,-0.18037117471990127,1.0318647619241867,0.8799244835598931,-0.6568823336888238,0.8801268391378742,0.6945390416784011,0.031753220235465,0.574106276006637,0.7728467324471053,0.5109918096863444,0.05485854780315054,0.48090944645220784,0.24284981972863073,0.04951522150025738,-0.8027703400033717,-0.1504800801471876,-0.4040881805143424,0.036729325114165184,0.4631348075426941,0.6535106131265195,-0.3378861131105954,0.3790658984417162,0.8134849416473762,-0.2986199291017462,1.2840071167235867,0.1634089767203857,0.765048171760292,-0.4844027334435243,-0.36840766585740486,-1.0871500492655197,0.6923467116032139,-0.7347964994389327,-0.7107272309492616,-0.05676158315753646,-0.3183048675764026,-0.08228471062876468,0.18128033269161142,-0.8462931221824606,0.8532496663318477,0.0625734814667376,-0.06177994361174831,0.06839698638373291,0.7498705689802452,-0.34306128863611707,0.02352562870406606,-0.342715651949036,0.2879663728962529,0.22221927768151556,0.29820504231074096,0.9291553627495268,-0.6900538027739452,0.5282376872612861,0.49686961032266735,0.26811943018371476,0.037406041555029815,0.3416268932549643,-0.4516493511997651,0.16768441619022506,-0.3543220622534676,0.7270111962646785,0.5430356202863575,-0.5446757827285522,-0.6076526215177233,0.9683759439962707,-0.9311857168438994,0.7236485029354823,0.3488118987331301,-0.2844319383072532,-0.4888564818021182,0.44142747897770385,-0.06080802123594754,1.2922768283784158,0.0406846562088178,-0.650901421345057,-0.5963391389174142,-0.18592501926035032,0.5187434998319472,-0.5526006441223922,0.6681808809812351,-0.25179155801411424,0.19535339933610893,0.07861703138476801,0.5645270796505231,1.0271191415392602,-0.10498768640705677,-1.4989424732262815,0.8113275964632313,-0.6127732698993844,0.7650489342119211,0.16830306141426535,-1.2957790861370198,1.1626428206577721,0.36992100586378135,-0.16748143485122705,0.6054109810380636,-0.3979736852575313,0.33005801931316747,0.4376899439153144,-0.8964924263522666,-0.989840852042938,-0.7173664779996755,-1.0829023547576406,0.7364633380261043,-0.4043636376939917,0.6036317065849224,-0.9948326496228639,0.7395560243296527,-0.4001092648112575,-0.23993679602174434,-0.1883923814526546,-0.8617200247755322,0.8298304625900427,-0.8747547523952172,-0.07789538372756095,0.6937720025153633,0.7576501050227873,0.23014357590479878,-0.6607579043769317,1.5658042173936666,-1.11044108505028,-0.03094990552599251,0.05007695202170406,-0.7792755819316909,-0.5337822080525082,0.5806292791158862,0.3600598067775878,0.43661680930929203,-0.9100867405130597,-0.7878485302722364,0.18456905033506898,-1.0018718030632316,-0.5257302977382837,0.4353138592490919,-0.2414483640990227,0.042289350136246705,-0.6793275563385011,-0.7614028849064595,-1.0306019839184895,-0.8089923156400286,-0.646647714324237,-0.11129735160033268,-0.935614537265453,-0.613500619264091,0.36266447262730866,-0.30410800120393805,0.44741472876584015,0.7579532126735834,-0.8943025699501183,-0.15816523189830967,0.16284716373364172,-0.15902393047213462,-0.7518825276010527,0.5881823108262095,-0.5261536186595716,1.0131339471169987,-0.17163288828054896,0.22058080384733514,0.23877787746834586,1.0596178008824277,0.5021505591875086,-0.008770409572795868,0.22878712596065198,-0.7128478750874144,0.021978393699264916,0.11940684222225009,0.08099100072935313,0.7422739076928139,0.7671657350844642,0.6683779649493744,1.2952887461122309,0.13169893510411096,0.9196931310252346,-0.9611120647693909,0.5599243648546757,1.0438218474634977,0.34996332494822074,0.7370733375521902,0.5056671242463023,-0.4242049627730516,-0.8519547066284765,-0.6198595302307823,0.5373606064744271,-0.8680112526431063,-1.0750669390433827,1.1635382869773616,0.4494832660763478,-1.1219728306791086,0.7862037508902315,-0.9980497178215441,-0.8404672706554804,0.30783835184349573,-0.6971035044268515,-0.5693665468429882,0.4406210128473447,0.034137010213217855,-0.25312364558949313,0.034146054290253754,-0.901203934631465,0.6898931776445648,-0.6486284200793423,-0.8002193963550912,-0.632656891064257,-0.24958110278955936,0.06587245434874335,-0.7127919383932841,-0.23875622767579383,-0.19575944338291795,-0.34587949816667596,-0.03960029714865381,0.1970423010205036,0.010118031516211797,0.0926976790649458,-0.9171124680979073,0.37393938494834505,0.8007342822440172,-0.35659490207625155,-0.7820487517768295,0.11984230393280741,-0.9788888728658095,0.2060894448930597,-0.037293148067497194,-1.1197187032014269,0.6947414793191485,0.7589095744863905,-0.356035520689031,-0.8259666022383662,0.015701916312587407
ERR598945,-0.7249577439592374,0.3840728669811959,0.048461155430565415,-0.9607205705966292,-0.2901227561908685,0.07683782155960898,0.6496360066366293,0.5272714018724081,-1.1179312264240815,0.5428603980586936,-0.7799425225823408,0.059880846382491346,-0.8031313175717323,0.5890313313096481,0.07745299914596246,0.20290822560309069,0.6970725574468557,-0.787034702502378,-0.04835246352804009,0.11272444467968196,0.5067734160397429,-0.08568015927006721,-1.5609095970296567,1.0272109583954478,-0.3029969766376636,-0.38249405534860165,-0.37741073906400135,-0.04160344161499325,0.21580790728521654,-0.04102541199029059,0.23196322764486907,1.1068299336854714,0.008658398395301673,-0.06891486287590198,0.8456737622710857,-0.24427785577745773,-0.5884815251247116,-0.36067909574956314,-0.5393601073720139,0.4898718773353605,-0.30095214521752195,0.5547613621384856,-0.46645314940174537,-0.11931261219884015,-0.8448096634448765,0.8276900412627487,0.6275435284273175,-0.2589870730732203,0.11607471299682792,0.619653836121208,0.5520713066286355,-0.7986726500993839,-0.7236424995279319,-0.6450622360779981,-0.10485236407824923,-0.4815898897476189,0.6557337246693499,0.5388976624829149,-0.8733085642257364,-0.6602510237810466,-0.36398727386291024,0.5569148750869215,-0.25547050084891293,0.02460661122485593,0.6951939120779104,-0.9114683374838971,-0.3159572617073511,1.0469647222263847,-0.11622437807852416,0.4439689880055789,-0.16650408461711794,-0.1270968099497808,-0.8679127581694549,-0.8275937502730645,-0.27919658404511954,-0.39194122734221976,-1.1349859546487715,-0.2114270799622383,-0.5136197285209706,-0.4964502921624843,0.7000316268052941,-0.5704609805810889,0.0682965851361399,0.6644489424278516,0.15669376343197577,1.0550204248242612,0.9238106770540131,0.8334831862826185,0.10735206432188472,0.7683114991369355,0.5125117820291073,0.6544388010363635,-0.8608819261916295,0.1424105761610433,0.08386399315141634,-0.811819804725793,-0.5804856872025974,0.8219370468578809,-0.5876692208772506,-0.4581616851878713,0.04746538462435225,-0.44403718404983133,-0.5888324055374143,-0.07226122450719218,0.46118465059543345,-0.16077815687717867,-0.6323794692807697,-0.865498309043435,-0.4294442112304017,-0.4721366619511838,-0.7808167093675041,-0.08349224568446538,-0.06792657684953214,-0.41930524068030356,0.5678843636395751,-0.12786760163052033,-0.9526869629331941,-0.15504028341799658,0.12230342359043336,0.85278094970857,0.5832097787728348,-0.9178112588696107,0.9646896127164875,0.3751903276673687,-0.026812342722558866,0.1111587476604897,0.026146171650160723,0.48200635396895575,0.40781942014362327,-0.08048590410900094,-0.22855852746960895,-0.147042038911246,-0.41102325209346324,0.6136329038359313,-0.26779211373799244,0.8835655905503862,0.6801794567363411,0.20889822928548152,-0.7048186526920083,0.7120480032621475,-0.9724339170444418,-0.9967898818310262,-0.06662827986995191,-0.2949503358685633,-0.8047082100393307,-0.8167666551682725,0.6212236065265506,-0.6220245348811484,0.8035611069301176,-0.7798048731817672,-0.8947847582127355,0.9146413060452804,-0.7280989364402799,0.7514304073326924,0.2891965665453781,0.6898316043588736,-1.0768856338704176,-0.03619499948509643,-0.02350211253180971,0.37951417038908497,-0.024275129408772363,0.8558451724759731,1.0517583277519567,0.6501594372996718,-0.3329412477574023,0.7581447779121282,-0.23665883510044733,-0.34350643958695765,-0.11631653202127823,-0.35382562254759536,1.0592181966259993,-0.7654855241725529,-0.7639089385354362,-0.17972406318735473,1.0339344846393486,0.8859242877752124,-0.6626885378435511,0.8848572194432983,0.6996761910481752,0.03181707329927745,0.5719300644368284,0.7769074353228035,0.5134865872610209,0.053818935746684005,0.4847145136007252,0.2433423139237365,0.049919487099191404,-0.8072218539053058,-0.15065051103393712,-0.40579891051695566,0.033867912247570915,0.46632339796400557,0.6537267892089116,-0.3409221234361801,0.38079350171462467,0.8166319605424872,-0.29433100625621383,1.287057309787069,0.16739033338800882,0.7667885480364616,-0.4817225270575462,-0.3710026122455711,-1.0898102743384752,0.697324062266639,-0.7340734443082287,-0.7111144273454298,-0.05644807342927122,-0.3207196647287751,-0.08092359485754924,0.18161868336443837,-0.8519936831188705,0.8559042366007533,0.05805219315730065,-0.06198108668417407,0.06938060378948943,0.7506112095155268,-0.34673489533278823,0.023819165089937738,-0.34612095545430405,0.29259165096826234,0.22350519635006544,0.2997563174293856,0.935266895402211,-0.6946817242451426,0.5315195521319093,0.4968798038368846,0.26751277253620875,0.03687204893474693,0.34496279828822024,-0.45270439186438854,0.1633434428332269,-0.35740020051894833,0.7319898947197787,0.5470721156385574,-0.5455389951681957,-0.6127295785225402,0.9693742975425431,-0.9372805014101434,0.7272685615465592,0.3499351172375269,-0.2855969255199675,-0.49181188341994053,0.44227850833687093,-0.061006607725306194,1.2955266351138002,0.037048935285826826,-0.6485321982568576,-0.6005637270207125,-0.18279973846908115,0.5172220802173269,-0.54941320711021,0.6731595443619525,-0.25441418791539955,0.19630702184142448,0.07907114918320056,0.5610555763697019,1.0297321188378479,-0.10482391720949356,-1.5027051010010692,0.8164373169839123,-0.6206020610054954,0.765597062627631,0.1686526680975436,-1.300470967331881,1.1651518575378024,0.3646061339304232,-0.16910315618883967,0.6065755532065077,-0.3990603852958943,0.33178518611959634,0.4376363278989571,-0.9035811815847605,-0.9955201536776476,-0.7236583084128718,-1.086129403718116,0.7414569077212453,-0.4084664917621955,0.6060475548010703,-0.997245457047938,0.7386369003742587,-0.40480156609398193,-0.2378394799886532,-0.18838956793523579,-0.8669484207939656,0.8343065067496919,-0.8812001498103011,-0.07761007845127321,0.695097164782653,0.7576579487815944,0.2299966730840597,-0.6652722609099742,1.569469061459214,-1.1132586589398374,-0.030442716257160662,0.04549878014399685,-0.7841214704950353,-0.5324441190788859,0.5848550227959852,0.3605607971039061,0.43948725474641454,-0.9156267431124002,-0.7904852228961253,0.18643202367193154,-1.0037864509953427,-0.5229669312701528,0.43837274646029956,-0.24422236116845059,0.043046100538229146,-0.6788500332528609,-0.7652060327333772,-1.0334825066121698,-0.8097720798506768,-0.6515820542192887,-0.11326627089122185,-0.9445063454109706,-0.6117182519991727,0.36289311568973504,-0.30569505069261005,0.4467179716336269,0.7624751616326189,-0.8945683324554732,-0.1578195106454927,0.16333030437241294,-0.159366673132171,-0.7569360490713175,0.5892085450231976,-0.5301211359439556,1.019105141569393,-0.17231618967697002,0.22119673970655612,0.24010631186842957,1.062541511112682,0.5012053987818803,-0.008812246223483646,0.23097990079451566,-0.7181245216898456,0.02240272027438651,0.11638119608953684,0.07832378431335572,0.7455473804111373,0.7724971481390436,0.6677679960842658,1.2987840873242327,0.13260454715567935,0.9258036341450266,-0.9629334856384931,0.5639110301660443,1.0463407731720331,0.354327754149922,0.7419711042615476,0.5052243268118762,-0.4233867786465421,-0.8539038523694296,-0.6245345632216214,0.5412976212629073,-0.8704351392736069,-1.081120027821136,1.166638069119743,0.4465438817239005,-1.1249486424000243,0.7864461699850182,-1.00057075890817,-0.8460142466368522,0.3060894851338369,-0.6983956053136541,-0.5755046589723753,0.44094610358729064,0.03480206361072039,-0.2510786359627171,0.03500940836986097,-0.9021110754339315,0.6944111709137771,-0.652594470835424,-0.8052077472307281,-0.6366905718546993,-0.24698207507343334,0.06661169439015614,-0.7140910870867245,-0.23839088377300105,-0.19433964035237772,-0.3414528757669663,-0.04424533815012743,0.1936139052078901,0.011396120602133927,0.09318977051766807,-0.9188367000300903,0.3783269875771093,0.806676104987635,-0.359065850005445,-0.7874695190996966,0.1239944061787275,-0.9806096023937871,0.205563620080996,-0.03492655677255954,-1.123434903731374,0.6994478504881511,0.7631376832030476,-0.3535652658309263,-0.8261536530190059,0.01790835940219438
