ERR594299,-0.7201377860178074,0.39907665469513043,0.0646001926906059,-0.9778154671971188,-0.2817830347890662,0.08162351445149345,0.6483664357067475,0.5309779891830161,-1.1264408119502454,0.532813592730678,-0.7872993564933833,0.04723626299749828,-0.8241909758891535,0.5944369121945171,0.08887526484917306,0.20704714868800578,0.6906596623610414,-0.8047741602774983,-0.03591289262174775,0.10465466700327797,0.5032313915691004,-0.07609336204736811,-1.5693747358742356,1.0366232812653753,-0.29717516918399484,-0.39091605119742334,-0.38434404921435367,-0.026806481439172077,0.21695486062129565,-0.04515585545092325,0.2464906499851415,1.1218846480063833,0.007041736794487503,-0.06286092475858553,0.852294519509436,-0.2408599757737347,-0.5806287848992923,-0.3720135210146762,-0.549109185198188,0.48105688324023027,-0.31025788583514574,0.5716980336201007,-0.47681121946736926,-0.12994342995611688,-0.8488119142300754,0.8400496240727262,0.6403268764397971,-0.25709182783770357,0.11771291301149482,0.6319863835713717,0.5615022266442373,-0.8070695977492528,-0.7355417144161455,-0.6558769142706187,-0.10594568699678379,-0.4737274675522265,0.6660758975807682,0.552985126457481,-0.8795706993959447,-0.6696402941009864,-0.3704730490893327,0.5653187509859272,-0.2545429290890493,0.021718752610371102,0.7078647119268483,-0.9167792642650618,-0.3215203183733671,1.051995655536487,-0.1281103730550066,0.4471248282290567,-0.16236683568452204,-0.12252187103383785,-0.8832392956505587,-0.8438095904244133,-0.2711546110638004,-0.39728804454191924,-1.1427401986391024,-0.2147398683974575,-0.5253601859858779,-0.5206759213774461,0.7139576876630656,-0.5798590173593027,0.08180468896349823,0.679010310138441,0.15935372703624354,1.0785264687995393,0.9297913367475248,0.8329302462787614,0.1100100746198046,0.7893232910473043,0.5140112188488253,0.6532501540890746,-0.8712679302043538,0.1385002745257176,0.08377801641602564,-0.8150028528615068,-0.5888460074198069,0.8232477469213896,-0.5797683525083254,-0.4677152437793866,0.04766909735464377,-0.44612987921586644,-0.5946464714107035,-0.05706348046106442,0.4739089673913988,-0.1636873979995261,-0.6330189663471925,-0.8697728362267007,-0.4386148113237184,-0.4851969447825632,-0.8012719803175663,-0.07489178322997772,-0.07109398837128762,-0.4090756309521842,0.5808272018723248,-0.13024222805240482,-0.972003327681862,-0.14877435702436398,0.1246520769234741,0.8617442664907915,0.599985623404865,-0.9358477783611543,0.9572255732340283,0.37064453620179383,-0.013553135389822236,0.11449851655226888,0.03220000710265929,0.4806950459391216,0.3942507297046347,-0.07241253868451789,-0.2270177803572011,-0.1515515917478034,-0.4260191883848484,0.6245196577648001,-0.27258268996761903,0.8910648875042325,0.69583241633389,0.2139417367001418,-0.7137714662497163,0.7268256738067465,-0.9958097503392205,-1.005010064146043,-0.08003436490100416,-0.2972486662108587,-0.8193666857053931,-0.8265848985344857,0.6187998046954958,-0.6219663762773804,0.8215457374202026,-0.7962672413407275,-0.9040220665958151,0.9235749413640141,-0.741217901888029,0.7714717703622442,0.29854527457840696,0.7037334636277808,-1.0865827310337821,-0.048234850608907594,-0.02315181164055893,0.38021196836880705,-0.03589878053761799,0.8710076195126463,1.0715739976216625,0.6675697813188682,-0.34506134051109033,0.7746697797531333,-0.2351619687477591,-0.3517313900074954,-0.11749736083891414,-0.3473294774699141,1.0782551842991077,-0.7707924389979236,-0.7607209904494808,-0.1774135536814407,1.0400578052276523,0.9036284227750313,-0.6805911917020404,0.9025345813059311,0.7159298720366827,0.031993925087400496,0.5657296256473391,0.7905128617137792,0.5203506495243434,0.049745477749290216,0.49669587480522187,0.24453050228441886,0.05295210678971133,-0.8242363942908505,-0.14972596811214886,-0.4088004758298693,0.02849290316186175,0.4793062248232254,0.6528325092595433,-0.35199496187210844,0.3858868449366196,0.826482250080138,-0.2803292293873271,1.296150745431375,0.18007357983042027,0.769950374472121,-0.47391190942035993,-0.3773958866152651,-1.0978856349872528,0.7117496778650184,-0.7322021753278914,-0.712577114366444,-0.05516042583278361,-0.3284039331403633,-0.07702466698892671,0.18282310773389474,-0.8701321872233067,0.8654926905566716,0.04468573664863124,-0.0627734092935786,0.07227028249567535,0.750823604240611,-0.35570742177806247,0.024653564143479093,-0.359695399113595,0.30621383711171507,0.2286994741067606,0.306770033459797,0.9542202717545729,-0.7116661298609995,0.5417983542555519,0.4938837364996965,0.2631193748872676,0.03750621325092402,0.3524045771743434,-0.4554300990481777,0.14939153869126243,-0.3662776867388987,0.7450035972711048,0.5633113437198672,-0.5476072950803655,-0.6262751462480265,0.9726748185647881,-0.9562972110383734,0.7373398820853643,0.35151179210540656,-0.287251208346873,-0.5009625232292435,0.44556809102152917,-0.06113809979638648,1.305144026348136,0.025757188470468307,-0.6410943250565304,-0.6171499480100116,-0.17257843260469505,0.5122961579337514,-0.5392424939234406,0.6901103083079411,-0.2604934449643337,0.19917952750614873,0.08052307241960888,0.549254595775299,1.0373134563034538,-0.10436600222203042,-1.5142490978174419,0.8365218120851927,-0.644629659533869,0.7655546486248752,0.1711580161043202,-1.315529193354783,1.1727434687227472,0.3475184120011029,-0.17472286278616359,0.6101413249890909,-0.402282727836875,0.337121482463229,0.43576018838825303,-0.9259415089754491,-1.0125416220652212,-0.7398535204815719,-1.09582300632858,0.7599938628363568,-0.4224089122132369,0.6136972967823513,-1.0036893411873609,0.7335102475499121,-0.4187889718254173,-0.23321961700954044,-0.1883532834098743,-0.8847038288556169,0.8520105985981875,-0.9010742026368026,-0.07646404090754233,0.6976202544125288,0.7545232349231507,0.22934297655817593,-0.6788372407053178,1.5805426743652216,-1.1215979558254277,-0.028961813558540096,0.031670034459139636,-0.7981487558987181,-0.5298923404969733,0.5973132601307303,0.3611349449010094,0.44908977929894967,-0.934738483921098,-0.799022313745432,0.19542066129550212,-1.0098708752231687,-0.513695341046015,0.44825178477660177,-0.25484957071927905,0.04521152829909936,-0.678923664498331,-0.7745531961378251,-1.042404687216334,-0.8100029849973288,-0.6670342039501472,-0.11953283292227276,-0.9790554686293543,-0.6056384713216353,0.36277744499291775,-0.31303248608613543,0.44333039045750106,0.7790301028582891,-0.8923849458478174,-0.15927455323637696,0.16466994838337531,-0.16031270304077555,-0.7725872336605776,0.5904268762675957,-0.5454393309671904,1.0375195582832784,-0.1770202262955818,0.22276557149753803,0.24424540274177142,1.07163487723132,0.4969553092909324,-0.008935513530962502,0.23678150507488374,-0.7353450801562544,0.023831041681786905,0.10558305512495927,0.0685444033148777,0.7586977169525887,0.7892465978256156,0.6627579963738323,1.3093798405633992,0.1355746994168364,0.9440823011584922,-0.9678155713546198,0.5794865981460732,1.053602598776216,0.3687110314243665,0.7540399610705797,0.5020260629204154,-0.423565922239951,-0.8578220744086473,-0.6382004372576502,0.5513785633452464,-0.8784821423951382,-1.0997448728398076,1.1754383828574626,0.43641011383191486,-1.1336323966468667,0.7887456741358296,-1.0087147379902097,-0.8632765108737019,0.29869873904700606,-0.70112882207252,-0.5943582041497855,0.44194605437747436,0.036885646242310464,-0.24706839378521211,0.03966050100047227,-0.9039812690153397,0.7119925564793131,-0.6676957197457638,-0.8247020326416714,-0.6494138708047787,-0.2418395884841279,0.06889262167860895,-0.718037981249473,-0.23647422795317705,-0.1866282254687208,-0.32766337012927593,-0.059182101856279215,0.1828393608357669,0.015538083830249783,0.09474016277528022,-0.923314309168519,0.39299846250834275,0.8247916347259917,-0.3667383464764246,-0.8023996874759978,0.13675490063618373,-0.9842809385129929,0.2035002704198687,-0.024611760604269787,-1.1348002095434264,0.7170919425866948,0.7792602640365711,-0.3462959687515246,-0.8245586301278898,0.024947324533813868
ERR594340,-0.6914937284153225,0.4853913740479045,0.15613805764851282,-1.11037238445753,-0.21981002378325207,0.11615402233669435,0.6523845269528948,0.5655916367940288,-1.1850424740521996,0.4578751433363148,-0.8524909300473843,-0.04042749926790925,-0.9673748290394849,0.6488625112257802,0.15331810709150037,0.22372188651539793,0.6401423365240845,-0.9116516266688791,0.03302213827635985,0.027266237836140975,0.4886094486117711,0.004639177958997054,-1.6340840551435705,1.093603647023635,-0.26202682314992415,-0.46796888800597725,-0.42942268349371004,0.07623475122384105,0.225658039170101,-0.07035195411508262,0.35565961863295253,1.2292881318102702,-0.002430047881704111,-0.0312954344451137,0.9057042936657106,-0.22348900960210935,-0.5275946281486791,-0.4623861188671584,-0.6356518378719671,0.41827268245909655,-0.3652888648704684,0.6985163878916248,-0.5695993702831941,-0.19251368320406873,-0.8757661686797431,0.9437630266392194,0.7398665430303663,-0.23632525890084363,0.12947321762872022,0.7229736864287571,0.6212346701531638,-0.8788056629491029,-0.8074377070177295,-0.7331157288944661,-0.11392800744977576,-0.42346173007411053,0.7228555019738646,0.6514164965552772,-0.9324326441361601,-0.7486271336885835,-0.41502738210945433,0.636865561824992,-0.23491908677738207,0.009855808514743403,0.8198519755633636,-0.9571078168667555,-0.36254452296251954,1.0929008289195086,-0.1959937737937095,0.47200873225153805,-0.14612649876469747,-0.09484875453621693,-1.0127889444349718,-0.9745605426873043,-0.23066050804069071,-0.4367809383788171,-1.1980643479816466,-0.24331920914614644,-0.610491871555395,-0.6634693230391594,0.8267949829248283,-0.664843713865749,0.17845619874354288,0.7826854082050905,0.1787551490544497,1.21964488728908,0.9661441106195755,0.8266018421925426,0.12836232694990818,0.9420097101571239,0.5065361201393725,0.6387230626598792,-0.9443621593096277,0.12885155201377083,0.08458582778035649,-0.8443303574769457,-0.6666915642713884,0.8255214794433415,-0.5256290814771136,-0.5516605841132013,0.049247034120230467,-0.458430578151642,-0.6488505158464256,0.04612045861257432,0.548828836285456,-0.18487661699992672,-0.6242276050522215,-0.9002534639918529,-0.5044093421753851,-0.5773887034905415,-0.9231905910625264,-0.007872612849475573,-0.09233050451016668,-0.3359824535071632,0.6705723560746761,-0.1472601581566839,-1.110911486460324,-0.08954821190551197,0.14383845242063906,0.9296613232035652,0.6970143777835714,-1.0626528282658643,0.9114939071432023,0.349800981419185,0.06030890607583897,0.13951396392616275,0.0915574317481339,0.47978381959786853,0.2964205334940208,-0.022376267823978016,-0.20655579056885892,-0.18355762696854688,-0.5365109676881998,0.6936503578683492,-0.3228198312018241,0.9435528871792555,0.8079872217947166,0.2664063153342878,-0.7843487556541708,0.8319043461109081,-1.1339319021023184,-1.0643016679781754,-0.1828512320765447,-0.3312858182073868,-0.910315939324455,-0.8989491495121587,0.6043988834216278,-0.6246585678489772,0.9343398266885804,-0.9124039925070473,-0.9710304128055279,0.9809354711561203,-0.8489596849159348,0.8929323264399445,0.345114093162418,0.8018504192324117,-1.1551534728677608,-0.13937737911843653,-0.021089818910459836,0.40136542041272255,-0.12310553116270871,0.9749395803891419,1.213563438773329,0.7742637328688561,-0.44516612459030086,0.8909731612800365,-0.2204059199238895,-0.4192556466419712,-0.1264881367581873,-0.31624175014593037,1.2183342823792236,-0.8231914304417935,-0.7525880236642304,-0.16182273701096384,1.0833109846219764,1.0366483791573327,-0.8106448581436784,1.0105963117000316,0.8309005906918203,0.03330915090201216,0.5149583896831987,0.8816834614534047,0.5747290910588603,0.0249860094844649,0.5820484438761961,0.25465423054112957,0.06383054974315544,-0.9264201741146126,-0.15157222792179836,-0.4441438633270306,-0.0313363172743078,0.5536568730500394,0.6540895184521908,-0.42179522375691136,0.4238234137458715,0.895733894746565,-0.1809848819656692,1.360783243394195,0.27055294507822836,0.8047853391372773,-0.4118987068481066,-0.4336102661349417,-1.1544380527293643,0.8218371081369468,-0.7139067133499342,-0.7193779850003521,-0.04756539363432123,-0.38255162058883224,-0.04616307315330101,0.19011965383295104,-0.997789595014789,0.9244198585019575,-0.057809671228724276,-0.06738795219258105,0.09428919222830401,0.7631676468585628,-0.4358099420210069,0.031215276685455307,-0.43922696741332173,0.40994100483002566,0.25849871037940875,0.3433969660999157,1.0904475268351626,-0.8175447483071994,0.6150143285082695,0.4887400271199504,0.24583219913289858,0.02762995143289621,0.4240994108841042,-0.47746421077199225,0.04940237086982409,-0.434603869178009,0.8536660260242376,0.6573223072837049,-0.5649531141297708,-0.7375237781498595,0.9924775672720971,-1.0923488422434775,0.8163974760067446,0.3740676162874047,-0.3109047138026791,-0.5667790325448547,0.46431072934517414,-0.06499110707090501,1.3744636856110455,-0.05718456313076769,-0.5850980016310537,-0.7150855772823318,-0.100287975621524,0.47580936752897535,-0.4646908117781116,0.8029345544928979,-0.3173229242522183,0.22024537581704598,0.09068255940899325,0.46738031840263083,1.0925753892018613,-0.10042374516660522,-1.5951112704899764,0.9547095994290261,-0.8189376370392021,0.7737549705752409,0.18009604851919606,-1.4182231273056491,1.2258842058195463,0.22434392175360987,-0.2117557218631751,0.6346281674874372,-0.4255774238727525,0.37544391590679005,0.4314546194871907,-1.084743859656258,-1.1381242903420055,-0.8772604831445788,-1.1648661834912235,0.8745915067245513,-0.5158679713657583,0.6669954842989022,-1.0542118656049426,0.707920410920092,-0.5247223664029809,-0.18787344276043574,-0.18767665128357874,-1.002726606632443,0.9553009045252359,-1.0448681429209046,-0.06952882353337592,0.7239885284679656,0.7489453953072633,0.22510046674084755,-0.7791433508359675,1.658869898092198,-1.1814404874559237,-0.01741462178815312,-0.0723481785366108,-0.90509860772013,-0.49936737691010236,0.691007802137391,0.3704775296343368,0.5138721088077814,-1.0600757912198289,-0.8568120043507859,0.24054622710676543,-1.05042373663782,-0.4484447661047437,0.5169181847968517,-0.3192458156712961,0.062122145342498436,-0.6675292525203103,-0.8563061327708997,-1.104706921412637,-0.8229319145070243,-0.7775280723959049,-0.16422088806640484,-1.1841505259141267,-0.5625985825676676,0.3660603585344701,-0.35068433058675486,0.4248513924344492,0.8822924490922132,-0.8922871199401998,-0.153512365264277,0.17508028197024939,-0.1675455402978727,-0.8852151946173159,0.6098590747656724,-0.6372459158493379,1.17022965424214,-0.19474595787995858,0.23581280439662863,0.27378405650045856,1.1347331071919948,0.47249147409257036,-0.009846455223322077,0.28497617191540264,-0.8541635069965663,0.033540167141955395,0.034871761882105994,0.006049794180095665,0.8340420069835563,0.9084836778916032,0.6434357680857745,1.3844698553472432,0.15596203852815818,1.079697001697205,-1.0053713031627423,0.6718317282004094,1.1065601991495753,0.46793281645745705,0.8600934080013768,0.4884447478412964,-0.40636337640247533,-0.897420256137985,-0.7418523908357529,0.6372295797417827,-0.9315363921638741,-1.2339946985438919,1.2409148497032494,0.36703714024021894,-1.1970642963958555,0.7933973974936358,-1.0632913000942334,-0.987020599785629,0.2559073914277194,-0.7270964566864746,-0.7322182737575401,0.4479889293678992,0.051875501106641506,-0.20209145272040552,0.061181739671518465,-0.9207982745986555,0.8164252068341556,-0.7589297299603824,-0.9399730421770169,-0.7395009478740756,-0.1861372345228759,0.08546116659891662,-0.7452616436387663,-0.22662207258134406,-0.15028902471637368,-0.22572984874420876,-0.16698935518118993,0.10400165913970998,0.04478780025689569,0.1056591798659471,-0.9587767240117793,0.49286889151612356,0.9572521785633699,-0.4219210546387923,-0.9215073909641014,0.2290695457676735,-1.0180591084735569,0.19047039325340784,0.03236228014382209,-1.2150940330152717,0.8252021626326279,0.8763073114106663,-0.289127494489377,-0.8239042816951538,0.07536704849969007
ERR594336,-0.6959941306267328,0.47149099880961176,0.14135382374864053,-1.0898916370393048,-0.22936640944279163,0.11078589279363933,0.6519755882537256,0.5603315808502438,-1.175770185009446,0.4694031808290007,-0.8425454629398856,-0.02674876408652211,-0.9448809580060062,0.6406800520113504,0.14292743969360241,0.22083558676647577,0.647825914033988,-0.8945367805358597,0.02184337561510955,0.03892369714611572,0.4910538378275406,-0.0076437313748538935,-1.6239501207217746,1.0844284407719527,-0.2675943609075144,-0.45631060699702425,-0.42228413186990726,0.060162502203129235,0.22429438318560657,-0.06633922018675217,0.33872404278751095,1.2124642841262194,-0.0009135569590367725,-0.03644434033329916,0.897447101950452,-0.22631382748722134,-0.5358470269944573,-0.4484989885723302,-0.6225033019352183,0.42799009986772013,-0.3564590335291073,0.6788681322891228,-0.5555253088282626,-0.18248804827824086,-0.8714559033331254,0.9278848163437934,0.72450381508722,-0.2393746358887578,0.1276354652379244,0.7088295554823307,0.6117330456219615,-0.8678227414582625,-0.7959119369280692,-0.7210396133458361,-0.1126807799223775,-0.4313540060743162,0.7135948164565289,0.6360123042759602,-0.9243006047392801,-0.7365337373222826,-0.40802915406502327,0.6259327899821174,-0.23766895614836753,0.011883909703249493,0.8028278781335799,-0.9507926905622633,-0.3561636622276294,1.0865339767902955,-0.1850666507762,0.46814707540710165,-0.1489183360382916,-0.09924339465309046,-0.9929884694397622,-0.9544675793778493,-0.2372882722638958,-0.43063221648664884,-1.1893461522645405,-0.23895995979339452,-0.5972318474016572,-0.6405267390182784,0.809468099073717,-0.6519540216414468,0.16342716584267405,0.7664951609100623,0.1757328891670345,1.1970328076386452,0.9602655501731475,0.8274509504539841,0.12548510229918589,0.9182499036945114,0.5072610774809517,0.6407892274713258,-0.9328848176657555,0.13072684427595144,0.08448298115362665,-0.8398299300823339,-0.6549194100428454,0.8249314934379379,-0.5340381193404881,-0.5388979221507102,0.04900063645691034,-0.45641928094817136,-0.6406360173960954,0.029972377810667226,0.5367973626509625,-0.1815759006146561,-0.6252452086383498,-0.8954291144302174,-0.4941429154584362,-0.5629854602559722,-0.9036404546451804,-0.018165607469342857,-0.08899265336577146,-0.3473035970035281,0.6565061178632663,-0.14460311617751181,-1.0892413035591813,-0.0984364691932374,0.140893115333011,0.9190969625460624,0.6813867475515455,-1.0428042780240692,0.9186674396652071,0.35325089215444144,0.04835693302801462,0.13563853613455487,0.08266959995244778,0.48005734307206294,0.311568460466637,-0.03031209142201718,-0.20951416538705334,-0.17856290524659332,-0.5193624014066117,0.6826587009357843,-0.31532347969495167,0.9352825256174938,0.790488028415275,0.2585771445907802,-0.7734395586037143,0.815487595291279,-1.1117500463881933,-1.0549858045117946,-0.16700917398284,-0.3263404504562834,-0.8958056668315387,-0.8876649892899897,0.6066373721917842,-0.6242466228967692,0.9163924504876227,-0.8942415977820473,-0.9605430672237751,0.9717834653384091,-0.8324369593921895,0.8735118109145319,0.3374157625871385,0.7865055477719025,-1.1443603510606946,-0.12531364238645154,-0.021418365870522454,0.3983831714893963,-0.10963607256826134,0.9586046434273131,1.1913930801596337,0.7572363905690779,-0.4298565287519832,0.8727799013225094,-0.22258999541505983,-0.40891017962773496,-0.12509086868062874,-0.3213652694396639,1.1965371463346999,-0.8152753186873798,-0.7540754529479209,-0.16424892156474788,1.076462467762431,1.0160214291059708,-0.7904056263548763,0.9933212156538886,0.81292712792907,0.033102056756580206,0.5226579345510827,0.8673066603298062,0.5663395326488655,0.028920936240277438,0.5687262967484258,0.25309145878736083,0.06190510989111965,-0.9100430559363702,-0.15144759165338334,-0.43890479102779967,-0.02243485325972414,0.5416607668850383,0.6539912911172894,-0.4107125377741705,0.41792232191015427,0.8848639293262403,-0.19641440264583068,1.3505864811980888,0.2564663329409165,0.799550418474017,-0.42136060969362593,-0.42505710215678716,-1.145499519286728,0.8048005687797772,-0.7165763242152441,-0.7181706212746449,-0.04877611855968305,-0.3740841532341916,-0.050891034882356245,0.1889394427143691,-0.9778181278569917,0.9149623989971597,-0.04202995970766444,-0.0666438837559087,0.09088826019675524,0.7614030738240404,-0.4236624405559173,0.030206459160452826,-0.426456072789993,0.3939232801218938,0.25368749924547807,0.33738553885696293,1.069192049571659,-0.8006848595316475,0.6035752095278241,0.48981343200878935,0.24879122380726043,0.028857097792829342,0.41330579144261154,-0.4740475923709277,0.06492112556847411,-0.42405093543539224,0.8370350729607602,0.6421837187044381,-0.5622574604528544,-0.7204686119516379,0.9892188997837154,-1.0711100916354044,0.8041877361782199,0.37076704709171304,-0.30745136818053564,-0.5565092311223795,0.461254258110686,-0.06444854486158827,1.363565846395821,-0.044341894523027704,-0.5936812269821904,-0.6993638622699025,-0.1115243575683301,0.4814029038419046,-0.47618826734589403,0.7851510239428988,-0.308747415923268,0.21696393826172364,0.08909132731112546,0.48010546058397635,1.08388958590716,-0.101014020868403,-1.5823564341843637,0.9357170088943044,-0.7917762425985833,0.7725817261326494,0.17850069455332013,-1.4020051468796084,1.2174785118553801,0.24342252521477029,-0.20591597609014758,0.6307371845226986,-0.4219203428765752,0.36945874111813226,0.43227523189759776,-1.0599390233600958,-1.1185846817206224,-0.8562806790667944,-1.1539967679942575,0.8563244430517643,-0.5011682628814349,0.6586208115052116,-1.0463459665373855,0.7120598233449257,-0.5083695083669493,-0.19467641641951478,-0.1877544497880693,-0.9841066932946894,0.9386679692910388,-1.0224598705109162,-0.07062828072443583,0.7199972004538288,0.7500903274502727,0.22574714570842486,-0.7635557601603203,1.6465223927810249,-1.1720182871402893,-0.01918641374585818,-0.056291789721894914,-0.8885388016280742,-0.503798120070605,0.6764812988651654,0.3691027816401418,0.50367776267047,-1.0402624208690756,-0.8476761164522022,0.23310584283200847,-1.0439555206795963,-0.4585595785902574,0.5061576521051124,-0.3089620060594386,0.05951932141397009,-0.6689803061386325,-0.8438399065430506,-1.0948859990465696,-0.8210796701708312,-0.7602872945766561,-0.15726148468670445,-1.1512327876602908,-0.5692387185525167,0.3656031419223971,-0.34448592739464284,0.4278030845204055,0.8658457664096989,-0.8925346810827456,-0.15404947511146586,0.1734660127525999,-0.16641677858091158,-0.8676449253145025,0.6070050211672767,-0.6225459742740793,1.1495212676984388,-0.1916370906343124,0.23380348502951068,0.26916772174765413,1.1247721973993172,0.47636999812000186,-0.009704359679050631,0.2776040019834151,-0.8355306849268754,0.03201795756126064,0.04599074491230629,0.015916008515675366,0.8218604322596711,0.8898607923338939,0.646719158907722,1.3726475888127063,0.15276196933198177,1.0586293681430776,-0.9994899320689291,0.6570172290484456,1.098227944016008,0.4523986124544668,0.8439543939862894,0.49070173214128743,-0.408601955120451,-0.8914279128407304,-0.7258034162412013,0.6241248095764804,-0.9231084822596265,-1.2130388072611216,1.2306548231497498,0.3778428462261424,-1.1871123511795767,0.7923459622726686,-1.0546291080544894,-0.9677072517101469,0.2627429780880097,-0.7231279861787085,-0.7107973170332832,0.4469831703313353,0.04954161983118876,-0.20871167562724124,0.05758172570697565,-0.9181660736086678,0.7996717421206806,-0.7443293980100217,-0.9214636679217557,-0.7254146629565259,-0.19440980567219796,0.0828829867006273,-0.7409362444815818,-0.22821235429595982,-0.15631794752751094,-0.2414711695077464,-0.1502987085536449,0.11619948019365581,0.04023182573355624,0.10394834537695881,-0.9532448889116947,0.47720065979848364,0.9366427298437724,-0.41331478298673174,-0.9031777357808833,0.21467450086874093,-1.0128507707237975,0.1925131489804667,0.023149972019919217,-1.2024592457318144,0.8079431441166905,0.8607599905611194,-0.2978625452747565,-0.8241492890170754,0.06753013766494162
ERR594321,-0.70203835634508,0.4536008275717963,0.12235513626433499,-1.0634758645495472,-0.24188355344469112,0.10382199538808407,0.6515670062248409,0.5536026781417418,-1.1640429172959599,0.4845659777110467,-0.8297808140461691,-0.008948295070829287,-0.915875172186989,0.6301343488861292,0.12950172154936115,0.21718926942595518,0.6580368437577612,-0.8725722141549169,0.007490327569857038,0.05403739307515381,0.4943478137507309,-0.02369221949958871,-1.6112134429948772,1.0728132477621506,-0.2749054463232389,-0.44118584015311874,-0.4131174343956197,0.03925679130182389,0.22257900981124176,-0.0611482563758338,0.31689366342627806,1.1909287701143174,0.0010512059112621247,-0.043113762224040036,0.8869180538935986,-0.23003177896653604,-0.5467316106858612,-0.4305022849264651,-0.605482667236055,0.44076269310252714,-0.3451074252182524,0.6534458300022032,-0.537278647004372,-0.16954014549458818,-0.8660955760260611,0.9074006993272679,0.7046637437586145,-0.24344202175598234,0.12527481080340694,0.6905894520046559,0.5995537364115517,-0.8537155297983317,-0.7811693243280374,-0.7055227189314727,-0.11108568556758196,-0.44173067662753396,0.7018148908200833,0.6161382304202204,-0.9139342080962334,-0.7209438592510499,-0.399028581715298,0.6118190451177535,-0.24136774758172636,0.014493789971182874,0.7807956277567341,-0.9428398696995222,-0.3479439971372473,1.0785510045090332,-0.1709547015857323,0.4632352519928441,-0.15254129329226307,-0.10497912608999495,-0.9673958392690171,-0.9285045924996184,-0.2459201850070179,-0.42273196290313575,-1.1783324331777416,-0.233327949349628,-0.5801248354546326,-0.6110873458687297,0.7870693169080047,-0.6352762684284589,0.1438954098727893,0.7456202829285778,0.17184095382482464,1.168019401772655,0.9529026804563234,0.8288022951689101,0.12177491115242105,0.8875518156920963,0.5084198742499894,0.6436814818119567,-0.918214726357322,0.13313034444348187,0.08436457929169523,-0.8341779799254183,-0.6396890459123714,0.8244344698061268,-0.5451266578785153,-0.5223626218614551,0.04869004400239679,-0.4539339981792639,-0.6300605661262134,0.008967203019655586,0.5213368686834271,-0.17732361111249909,-0.6268063474904447,-0.8893922265293442,-0.48091080064064196,-0.5443876378765251,-0.8785376944081916,-0.0315979729996643,-0.08467557551482993,-0.3621479449120738,0.6383790183768593,-0.14118197944782745,-1.0613158986327653,-0.11008965170973248,0.1370909221421563,0.9055883663187206,0.6613147614417954,-1.0172519845612877,0.9282425982661318,0.3577979471960844,0.03296663705407427,0.130623891136151,0.07105025746536767,0.480514067586044,0.33139456859601474,-0.04061914814745604,-0.21346170722949193,-0.17210760365515682,-0.4971625377528108,0.6685667862398015,-0.3055831784540886,0.9247751257456318,0.767922272875479,0.24838946505607112,-0.7594415339211689,0.7943335638685098,-1.0832811073743078,-1.0431764456971975,-0.14639512904033927,-0.3199165186621873,-0.8772072710676512,-0.8732074245513488,0.6097129440956106,-0.6238658709479492,0.8933316857739607,-0.8708370076837051,-0.9471555948793642,0.960178824688382,-0.8110878624266181,0.8485526691148682,0.3275647066914956,0.766735739296533,-1.1306561241405901,-0.10700901636468295,-0.021847850051084073,0.3945440537092147,-0.09210026335027345,0.9376112144925758,1.1628495329972997,0.7353405579898346,-0.40998455161654296,0.8493334494001207,-0.2255138598181635,-0.3955142817313559,-0.12330303731259244,-0.3280671178470755,1.1684683124487987,-0.8051395224708202,-0.756199803939149,-0.1674492725824489,1.0678768090690325,0.989407317734299,-0.7642578000280406,0.9711719224067606,0.7897648675611776,0.03284296786721385,0.5328568810292164,0.8488414641910769,0.5555439267028429,0.03404032274400997,0.5515329542239616,0.2511187630457983,0.05945799568143113,-0.8890425780989416,-0.15130004028771507,-0.43214651963024286,-0.010926846420082108,0.5262610019412286,0.6540168530046185,-0.3964285183112843,0.41034239414157336,0.8709548613202795,-0.21656486731165445,1.3377236968387403,0.238193097194601,0.7929162418020852,-0.4338252956135873,-0.4139958847519801,-1.1342224633035807,0.7828129454913166,-0.7202658441305547,-0.7168192411329415,-0.05035613700777972,-0.3631675660739011,-0.05706992907347062,0.1874604502997262,-0.9520858260033315,0.9029610270756088,-0.021459998363269735,-0.06569276811685387,0.08647869383606516,0.7592774115682945,-0.40789452602184945,0.02889597486127025,-0.410015417328955,0.37314158229960454,0.24752396918598607,0.3297070909213077,1.0418070338790344,-0.7790166176850989,0.5888433525823557,0.4913467847629044,0.2526628955018183,0.03051707246038164,0.399308343650779,-0.46972149095925714,0.08516275474167954,-0.4104028435598559,0.8155403022259307,0.6227374019064514,-0.5588918757786451,-0.6984166676295062,0.9852766419617937,-1.043741544208163,0.7884751020252158,0.36652407596376907,-0.30298965148397106,-0.5432818059697129,0.4574147472865289,-0.0637465401489897,1.3497660673173912,-0.027617763661196497,-0.6050304991083107,-0.6791636821879095,-0.12618715558156385,0.4888285609697848,-0.4912990861096828,0.7622427890938461,-0.2976103209985884,0.21274421758179302,0.08704286560914269,0.4968031830533985,1.0729195174353616,-0.10180804480056649,-1.5661933357327045,0.9113423291469044,-0.7567711466566333,0.7712444239237439,0.17650489997223534,-1.3813491179634616,1.206890129704059,0.26837670955883147,-0.1983782862103869,0.6258580171167695,-0.4172790213646229,0.3617619236650195,0.43342474243210677,-1.0279505830324187,-1.0934360310282558,-0.8291273699014025,-1.1402291223044925,0.8328388943990107,-0.4821837528718517,0.6479019331785733,-1.0363974302327836,0.7176067659426412,-0.4871072230259187,-0.20353115024872573,-0.18790953311308295,-0.9601592804709576,0.9173574560072124,-0.9935642500517727,-0.07206839876901877,0.7149673280992062,0.7517364373075014,0.22664851073043424,-0.7434519269327559,1.6308979532650913,-1.1601121546334854,-0.021502914310287675,-0.03537504088595795,-0.8671861181877579,-0.5097616277319331,0.6577363970840364,0.3673884781975348,0.4905507752931771,-1.0147885966333592,-0.8360412532398128,0.2235587827167363,-1.035840504085841,-0.4718541889369271,0.49229474453939437,-0.29570932382730103,0.05614043535696144,-0.6711046145743222,-0.827775236943308,-1.0824119929859577,-0.8188560827815156,-0.7380444599572256,-0.14823837454314995,-1.1089942535876849,-0.5780417592893836,0.3650882252584408,-0.3365702093347137,0.4317399754990024,0.8447220166110182,-0.8930680105561227,-0.1548562559212882,0.17140144356877984,-0.16498720942137116,-0.8450068691946931,0.603421560174715,-0.603644317634225,1.1228656639646093,-0.1877011807231311,0.23123893501585455,0.26322928757405967,1.112138012979772,0.4815324931155674,-0.009522566407490194,0.2680524297626063,-0.8115122084118329,0.030046329266382316,0.06045830119162322,0.028737048054797768,0.8062954296816036,0.8658552632242364,0.651122681229127,1.357654302771802,0.14863915953196183,1.0314627833235221,-0.9921100157604812,0.6379808106779994,1.0877297671449095,0.4323015965806111,0.8230875834961136,0.4937450786663055,-0.41170929106163806,-0.8838203941545104,-0.7050804680023771,0.6071696721101472,-0.912405074468338,-1.1860862168318298,1.2176824317952515,0.39200902090954404,-1.174500527134649,0.7912454591688323,-1.043660597014635,-0.9428219414045887,0.27167771198546575,-0.7181326982238104,-0.683079088946387,0.44580030958838873,0.04652151809931747,-0.21745925967529145,0.0529613845568548,-0.9149854412018072,0.7781564333785744,-0.7255820631633284,-0.8977062795874794,-0.707274921526965,-0.2052018146975913,0.07955136080580757,-0.7355179895302696,-0.2303303027014038,-0.16413838666319006,-0.26205348746136403,-0.12845372356444118,0.13212689668456212,0.03431108795555496,0.10175173558040088,-0.9462962018946297,0.4569440378206829,0.910051680033876,-0.4022178836850629,-0.879502907482887,0.19613694176704144,-1.0063768577340884,0.19521774435317454,0.01123320563878539,-1.1864025528511153,0.7857641912753408,0.8408199204580071,-0.3093621890512229,-0.8246643619604783,0.05733931650303948
ERR594315,-0.7057381730829179,0.4434704621941591,0.11184119856260473,-1.0424539761819747,-0.251541415124097,0.09861821255281777,0.6493915570343064,0.5474656907737846,-1.1557944667774616,0.49632655996571307,-0.8185330765748541,0.0038543873136199507,-0.895537008792747,0.6200390435920947,0.12209897212804988,0.21641531487149848,0.6663711385248776,-0.8593119869904627,-0.00015755574420469367,0.06811084745993266,0.4952653057641321,-0.0374045450874986,-1.6013160595179745,1.0658250274940313,-0.27940445717302875,-0.4275183532326998,-0.40701996183998546,0.024155812199719108,0.22125440282595676,-0.05794359344273499,0.2999995425212621,1.175117880075032,0.0021999646571543435,-0.046334218794703105,0.8782969984910541,-0.23177042629327926,-0.554402864963674,-0.4158132506816835,-0.5904243652273241,0.4502479441851758,-0.3384212579010738,0.6338028371360368,-0.5210261768659815,-0.16193856724874583,-0.862452577917448,0.8900240360292374,0.6888097210296452,-0.24755145649051108,0.12352792390025952,0.6767075853737856,0.5917131758975003,-0.8416052156979457,-0.7722558428789471,-0.6940964748226239,-0.10988838823162386,-0.4485955218769126,0.695687780691405,0.6017935041803213,-0.9051385553880823,-0.7076972935340778,-0.3926566877087903,0.5997128453024783,-0.24605701000802835,0.015133092986568323,0.7613644392233528,-0.9366916000032561,-0.3416942079255307,1.0720163370796316,-0.1630289144812901,0.4592931122532032,-0.1532721264492946,-0.10850256256978659,-0.9455513460753283,-0.9071440713376261,-0.24983638387410323,-0.4167232218321008,-1.1702997600207352,-0.22844855377099213,-0.5673146753876995,-0.5938529830270671,0.7685656470777512,-0.6203351407641217,0.12940592633155343,0.7302695464741257,0.16891270819086152,1.1505915578367063,0.9484829997520179,0.8302416027886413,0.11913050006335789,0.8645008098127087,0.5120212562249427,0.6467831630523883,-0.9075991687045668,0.13221947198130907,0.08407408428672573,-0.8290977622957888,-0.6257780411649172,0.8252028673447324,-0.5530606521529988,-0.5078338303670653,0.0484455121320462,-0.4525279207564769,-0.6204075202418398,-0.005809225552241315,0.5122901763443044,-0.17412797810944303,-0.63000656196394,-0.8850133639327663,-0.47110849296542234,-0.5308183901402657,-0.8636014740312741,-0.042384866199112047,-0.08168922863409575,-0.3731930012162834,0.6254058413034154,-0.1386516208838455,-1.040583448686318,-0.12087715855738164,0.13393112563257117,0.8950935410424345,0.6498761417385452,-0.9987130504513414,0.9343145551230311,0.3594850618091775,0.02467471532510903,0.12674800249212498,0.06005868764563929,0.47965018955030797,0.3462620939886582,-0.04713223956982092,-0.217808198369276,-0.16736983516076973,-0.4802576579245954,0.6594650019403413,-0.2960230943532348,0.917238699857102,0.7512229564893349,0.23843101050933527,-0.7481684830537249,0.7788023282728613,-1.0665539212574506,-1.0344539794400036,-0.1300846501141265,-0.31257826085285567,-0.865542564152013,-0.8622480255495292,0.6116244644530711,-0.6231846655013089,0.8786441174795627,-0.8537884902027222,-0.9371780090889139,0.9526346194839937,-0.7932651746490693,0.8333477256670622,0.3232856195753204,0.7523299072945595,-1.1207254935902589,-0.09268895494683446,-0.022102344157029743,0.3893449441617272,-0.07848940614036339,0.9227893368675992,1.1417419358829632,0.7217973518750413,-0.393293308444659,0.8322944332886886,-0.22830577848874592,-0.38432537020690105,-0.12190763837056415,-0.33080252394897514,1.1471735111983201,-0.7955646153815648,-0.755697733728277,-0.16970287562248232,1.0617034836662065,0.9688052872232927,-0.7446298421043682,0.9575449181436267,0.7728470951107866,0.03264711448943037,0.541429972348152,0.8361262609183401,0.5468038618285833,0.0371983606432601,0.5388765912150547,0.24943912234963475,0.05924564362008109,-0.8764273328017556,-0.14995787103895047,-0.4251224390815919,0.000715007725970367,0.5176186010567306,0.652971274771333,-0.3872543239669909,0.4045330999400179,0.8608949883523704,-0.23142610929938787,1.3283856040853965,0.22468900077849532,0.7862693682603842,-0.44402947293174405,-0.40427814889773084,-1.1261592194882069,0.7655517978166861,-0.7238004384963801,-0.7164317658589645,-0.051293891733406476,-0.35522296273673626,-0.0620998767662258,0.18657642359074064,-0.9333880644003187,0.895578861334893,-0.005174386994490614,-0.0651472311574644,0.08301472895162805,0.7561775760966714,-0.3938773844862281,0.02783746933703579,-0.40044985662251686,0.35682173735518397,0.24406159122992754,0.32604283722080574,1.0214882304502786,-0.7653192630485522,0.578011573969888,0.4901506377369341,0.25347464014068455,0.033880900943794375,0.3862362464130798,-0.46618319276204906,0.10022918771366093,-0.39959891653172463,0.7973628465624382,0.6116391253829063,-0.5560723927785062,-0.6800021421789825,0.9830159606474191,-1.0235250430479332,0.7758514036780835,0.361743779414915,-0.29796041053724276,-0.5334621523022327,0.45531596337484437,-0.06280083005260487,1.339586238892041,-0.014884537061829843,-0.6139267260280651,-0.6672966360881657,-0.13696292158163875,0.4945754698829203,-0.5028303848909085,0.7465598180243426,-0.28740062055322224,0.20955506373584737,0.0855638197948719,0.5088733349374308,1.0647478873176477,-0.10250424510703472,-1.5546065019055622,0.897105193372842,-0.7305598771820406,0.7690761290467272,0.17636738410348032,-1.3669167305895558,1.1993291373054003,0.2870798084284215,-0.19326996396840182,0.6224529520501028,-0.41384135225589636,0.3560610300222542,0.43297353634836877,-1.0044837705963778,-1.0743135853973058,-0.805874740418745,-1.1301916160713843,0.8181471426486506,-0.46906515265302473,0.6402200777758364,-1.02847036380212,0.7201595869021079,-0.4704740798353664,-0.21190305462805142,-0.1881051447675642,-0.943804462716815,0.9050802818850253,-0.9719770616149953,-0.07295577923043403,0.7100763625998856,0.7505494885520404,0.22727565459171054,-0.7281186334437435,1.6195925527919035,-1.151376989868132,-0.023365586122338595,-0.019097936276739454,-0.8504436291912606,-0.5160546576513056,0.6432127018789784,0.3653771083195054,0.4814308337996543,-0.9976600237225478,-0.8279781936509758,0.2193281242675301,-1.0303621210132794,-0.4816115805867837,0.48235003465244697,-0.2876218586714474,0.05342790773501758,-0.6745110394646747,-0.8137312132035502,-1.073487860076342,-0.8156232117129407,-0.7216128166898824,-0.14157427844116924,-1.0840163818505681,-0.5845675756472296,0.3641335740601462,-0.3329209356503755,0.4338544482245234,0.831364510658335,-0.8912690295938421,-0.15786033770765992,0.16976122399807955,-0.16387235987351811,-0.8281901075382658,0.599241092709881,-0.5922992472718541,1.1030450163255203,-0.18715007358139654,0.22908680210489094,0.25885723497599533,1.103165674799533,0.4845365315758957,-0.009384509488549029,0.2599994357060003,-0.7944087209309058,0.028660802555933052,0.07023889541587952,0.03715383771022552,0.7975878869226445,0.8482069783830065,0.6520212042863877,1.3467718716249137,0.14572018251442456,1.0106800446820536,-0.9863468409208654,0.626731515247711,1.0799153722201302,0.41796594147535865,0.8047644857056366,0.4946816840007567,-0.4167905166948266,-0.8765503699138879,-0.6888969382451379,0.5926116678460762,-0.9052169041166941,-1.1660492037242316,1.207822786476323,0.40210402460037964,-1.165071051424634,0.7922519832496053,-1.0361688221849,-0.9244047836357444,0.2768482211842468,-0.7135477322807594,-0.6621268991745972,0.44513048377187475,0.044273846311540424,-0.22638303555557537,0.0512751062023057,-0.9122102798259969,0.7654143097174743,-0.7142171499538436,-0.8837320952177766,-0.6940173789734216,-0.21598884622083947,0.07705036343279269,-0.731720796416792,-0.23135506593562558,-0.16717872306301523,-0.2778457555149906,-0.11205589262070412,0.14422503762692243,0.02997543600158967,0.10015738389802398,-0.9407274377017761,0.4427020505500586,0.8899793667300155,-0.39397579367423696,-0.8601961816740628,0.18229857045666104,-1.0005823869860058,0.19698855390361808,0.004875126844936188,-1.1747727820000848,0.7720549466022111,0.8288026179532475,-0.3187009197795951,-0.8235437541938923,0.04976907201550611
ERR594310,-0.6943348938784093,0.47776081928214537,0.14808656316177915,-1.098436825651402,-0.22561298633870322,0.11300448262915053,0.6521225266828361,0.562523415342451,-1.1800696441983096,0.46496871345753293,-0.8466712286301136,-0.03237627316857295,-0.9545538819164089,0.6439319689104837,0.14756294460231356,0.22236156960216913,0.6450569400517414,-0.9022581454237835,0.026980968245597127,0.03437558177977023,0.49005608120333083,-0.0028994448857149486,-1.62866405590335,1.0887881915831252,-0.2653172917545171,-0.46088736407525455,-0.4254401745815347,0.06678117311539276,0.224927508756992,-0.0680862760580199,0.34585650829383013,1.2198446998026506,-0.0015762388415562168,-0.03412334477725148,0.9010348509722981,-0.2251143059749507,-0.532635979281709,-0.45413795820957004,-0.6277500863417549,0.4241973022764403,-0.3604326905394876,0.6870148057903509,-0.561091417359646,-0.1869221025892934,-0.8735925664095141,0.9343940609316448,0.7308718250386601,-0.23837665843194078,0.12842895412137992,0.7147991552966585,0.6159902207478221,-0.8723960990495164,-0.801177401647763,-0.7262529543347342,-0.1132272280816128,-0.4281923274942723,0.7180157238494621,0.6425806050478182,-0.9278069529775668,-0.741505207843883,-0.41106480162057746,0.6303877428819417,-0.2369091129162205,0.010883477516835879,0.8096346656204598,-0.9537117333761463,-0.35886976504051676,1.0894883215780817,-0.1899361774455125,0.4698501029249949,-0.14756537738310857,-0.09739747056202278,-1.0010247234756005,-0.9627144959064471,-0.2343384044604132,-0.43326777397550664,-1.1933771246028366,-0.24072525320588795,-0.6028398643955605,-0.6509378220499398,0.8165582373831121,-0.6570894710511256,0.169600913636835,0.7733881586901047,0.17701950912062037,1.2072514972746171,0.9631674927245963,0.8274877040306595,0.12671799679317283,0.9282299829665177,0.5075400212266942,0.640322640118337,-0.9379652125042048,0.12963654057034554,0.08452564631011418,-0.8418594450164955,-0.6595845230529508,0.8256606697219709,-0.5307745780179004,-0.5439811795882837,0.04911367095492604,-0.45746698810583514,-0.64396463185284,0.03666140790549712,0.5422276154314856,-0.18297900470717507,-0.6253631744612004,-0.8977415501695094,-0.4985132813620492,-0.5690913391388123,-0.9124652217045605,-0.014097391845120754,-0.09041440207674749,-0.34283719410878466,0.6625437214806904,-0.14573936381114036,-1.0984680438064052,-0.09514334020425479,0.14210377307793992,0.9236926127295642,0.6884842542936332,-1.051334571324129,0.9159633643578677,0.3517499082593033,0.0537803154502438,0.13724479054445213,0.08598509789434315,0.47996219431017784,0.30555459466080087,-0.026928297352062654,-0.20858451149812673,-0.18066921035456981,-0.5264815258176876,0.6875767982683465,-0.31816847352977085,0.9390375961146658,0.7979232394516244,0.26153166568524683,-0.778077866948144,0.8224972786517062,-1.1218019796557297,-1.0592261471088495,-0.17337812779007905,-0.32811483684022014,-0.9023397169725595,-0.8925620390556444,0.6059093419091479,-0.6245881794961634,0.9243738186863103,-0.9020087329629459,-0.9651794528099145,0.9760494308188402,-0.8391931645459972,0.8822110196020062,0.34109742257675063,0.7930728200038879,-1.1492619866291294,-0.1309779143613237,-0.02128033659973687,0.39941981911924307,-0.11506549921688167,0.9657153934325063,1.2008776557068321,0.76482595563665,-0.43598109157994014,0.8805614281849593,-0.2218736897760834,-0.4131004406594177,-0.1256964578469069,-0.3190930421128555,1.2057994002986565,-0.8185275715375,-0.753516668259677,-0.16330511038850118,1.0797288546759711,1.0246728017805338,-0.7989097867792072,1.001117469784753,0.820607257781638,0.033200594099151465,0.519862499370609,0.873613708774941,0.5698595181389589,0.027247166739135378,0.5743742597721452,0.253791699143882,0.06293487520917666,-0.9174615841801634,-0.15139342630740288,-0.4409221339224248,-0.025859157097333742,0.5471333098495753,0.6541344233270736,-0.4155735525379247,0.42045021934417404,0.8896549294344023,-0.19020250890208945,1.3553313458161038,0.26230466296275384,0.8017584253542619,-0.41780226825053185,-0.4284920489692047,-1.1496694252617894,0.8119132392124129,-0.7158636756573324,-0.719028773861902,-0.048263987163421236,-0.3776989039428651,-0.049041562515513434,0.18952136717236118,-0.9863684475304705,0.9194005253347941,-0.04832165155176253,-0.06698765222130204,0.09227990729668785,0.7622039261692891,-0.4284429849601862,0.030612893152896364,-0.4321847834098487,0.4004595614028608,0.2558993391683768,0.3402458589867663,1.0782517080024978,-0.8081865481172988,0.6084691844713866,0.4893258875102538,0.24740233995993272,0.02865933570759144,0.41750784404875435,-0.47557480498460775,0.058652403595548984,-0.4284085295190943,0.8438037640860451,0.6490541421406542,-0.5635215641446389,-0.7274213952790072,0.9910279094311143,-1.0801647763180793,0.8093186799422106,0.3720209765267788,-0.308731448349584,-0.5608913608358965,0.4627686152239169,-0.06463253782455726,1.368548190556752,-0.04953783853556459,-0.5904715301229503,-0.7064580066644464,-0.106980818530973,0.4793444952285736,-0.471730147288151,0.7928693210091314,-0.31208280513873066,0.21836767065238474,0.08977596220188964,0.47506633305269513,1.0878919852212434,-0.10081946015825394,-1.588205661130811,0.9443336976858238,-0.8033137158698226,0.7732022383881879,0.1793992084347098,-1.4093372201329815,1.2214234179936367,0.2358243738675927,-0.2084350920968792,0.6326017766367239,-0.4235765743272955,0.3720305162809236,0.4319199880721506,-1.0704966809265204,-1.126901320487233,-0.8647373814912419,-1.1589728561912354,0.8644558954867011,-0.507468916295189,0.6623153904662386,-1.0498988268181668,0.7104310961110613,-0.5149858368300891,-0.19208369246754287,-0.1878049793929169,-0.9922444130738752,0.946280161755915,-1.0319609627958142,-0.07017375703355515,0.7217354858338442,0.7495930946048209,0.2255611698447399,-0.770128108581614,1.6522050788624878,-1.176365336333538,-0.018492333459414208,-0.06274173193258645,-0.8954816421311808,-0.5024505162997885,0.6825699862246114,0.36969193548455087,0.5080956784082389,-1.048960702442418,-0.8518145908388987,0.23662055858987777,-1.047068327574161,-0.45459949927721954,0.510779683156141,-0.31351804866685123,0.06057277142149025,-0.6688985278687232,-0.8489327087385359,-1.0993520280182072,-0.8219324454816531,-0.7676014267371875,-0.16015271406389328,-1.1661460337726408,-0.5667494116944438,0.36584192913611996,-0.3474503367486543,0.426647534148874,0.8731815154687795,-0.8925013353237266,-0.15422291429453736,0.17416399285408382,-0.166926387023143,-0.8751304793737226,0.6081958122288917,-0.6291351161833145,1.1583771708717387,-0.1932984899541564,0.23466790690488334,0.271151364309231,1.1293328461040717,0.4748607564264231,-0.009766363111362033,0.2805744975990356,-0.843528278460497,0.03266023405389344,0.0413503112202214,0.011750384789696958,0.8275193432296388,0.8977980313482024,0.6453176100044111,1.378039095711765,0.1541402559686035,1.0675129073467784,-1.0022393981361923,0.6636927492335578,1.1021029349583888,0.45896373413282704,0.8504432401363716,0.4897920451373431,-0.40823705132440374,-0.8939722585901173,-0.7324987381369944,0.6294113674185199,-0.9269904553032643,-1.2220307461561968,1.2353432500244896,0.3735313366279874,-1.1916359376431407,0.793329161257331,-1.0586506557566322,-0.9759404721261902,0.2598574003451797,-0.7248920769387454,-0.7197230679882171,0.4475884303217675,0.050517531370718766,-0.20643760577212403,0.0593176336122954,-0.9195357635655265,0.8072353570903906,-0.7508982117803513,-0.9298473251329905,-0.7314510286338213,-0.19135043198579602,0.08396520941066145,-0.7430151576799704,-0.22757408202326665,-0.15354052636551788,-0.23522989406988512,-0.15692378024380899,0.11132085338520681,0.04210941071311132,0.10469159455626018,-0.9558063200885656,0.4838624475031912,0.945339422522054,-0.4169700289404907,-0.9107317707085242,0.2208134239196079,-1.0152954338361277,0.1917186707366449,0.02726292982503973,-1.2081784843184113,0.8156570812844813,0.8677937017936357,-0.294559480004748,-0.8241667167840125,0.07074020198661694
ERR594294,-0.7054910271276399,0.44380698383228806,0.11195732348747846,-1.0493695633617266,-0.24870993968903954,0.100055690779523,0.6515442157740644,0.5500952910896736,-1.1578589981996417,0.4928710422076414,-0.8230748569635973,0.000746259979581784,-0.900212917963431,0.6246177182709836,0.12210527580921665,0.21515377177034087,0.6636686447633627,-0.8606411555294079,-0.00037604856786008423,0.06202630164442209,0.4963071071081426,-0.032333561297567176,-1.6046102611730122,1.0666052489010551,-0.2789780174559633,-0.4331578657474745,-0.4081710238332214,0.027881257895368987,0.22168818009144411,-0.05830663423896465,0.30521338876979437,1.1794477252691737,0.0021328021676200602,-0.04682809782027096,0.8813884507949439,-0.23214359648436433,-0.5527620749207649,-0.4208609489908378,-0.596451467115354,0.44778029700951577,-0.3389178280865529,0.6397807459409596,-0.5275861574446531,-0.16244068282922458,-0.863320301932324,0.8965283445913195,0.6940568536516252,-0.2456437608330834,0.12401187878222207,0.680809965742449,0.5929789204548477,-0.8462764946364909,-0.7731936612941466,-0.6972146330498482,-0.11023791903542779,-0.44748805227553645,0.6954200679145798,0.605426567567466,-0.9085118581097135,-0.7126779993864838,-0.394187594289243,0.604330343336053,-0.2433276769224921,0.01597640621658936,0.7691046728928759,-0.9387044317324055,-0.34354239135824866,1.0744462369166752,-0.16319394975816304,0.46065852097794274,-0.15462892631063227,-0.10815246327568805,-0.9537896717748393,-0.9146548411233574,-0.25077361136031573,-0.41851457520514074,-1.1725515499873207,-0.23033993533478614,-0.5709348499312752,-0.5950640203188367,0.7751193666004271,-0.6264439914094869,0.1333028550597423,0.7343960401010649,0.1697556461611623,1.1522577125276,0.9490182848060139,0.829664419608152,0.11977427525754537,0.8710358561534758,0.5090091162826507,0.645319891207533,-0.910397709400818,0.13458618242399176,0.08432312764998758,-0.8312950246445862,-0.6316413816435649,0.8242629172800153,-0.5512607943732483,-0.5135734495703911,0.04852862722294749,-0.45263963432966675,-0.6245054124044941,-0.002488542153733539,0.5129075929793713,-0.1750438499296523,-0.627672893865787,-0.8862597533757707,-0.4738037706935537,-0.5343635516099243,-0.8648796351710293,-0.03886495517108281,-0.0823335833835344,-0.3702797271471114,0.6286150984334155,-0.13934642265304953,-1.0463229698272385,-0.11633606701639744,0.13506701331390905,0.8984331528448777,0.6503576244715044,-1.0035217563021515,0.933662287334027,0.360413023918357,0.024509076463591278,0.1279282627910699,0.0648581173182434,0.48090363449669093,0.34222528499543553,-0.0462779576317652,-0.2155764289379159,-0.1686262123819879,-0.4852060300426894,0.6609596937564136,-0.30045255894656026,0.9192129751556372,0.7557936043953263,0.2430110762719976,-0.7520214393916056,0.7829658819490892,-1.067786249245462,-1.0369584736855153,-0.13526496569593205,-0.31660052444752923,-0.8671480154126805,-0.8655135344398454,0.611510481611843,-0.6237833014214398,0.8808366939760867,-0.8582504548755603,-0.9400518675383334,0.9540004576032399,-0.7997164059371694,0.8349809228342945,0.32212454278956637,0.7561068139201598,-1.1234136488566975,-0.09711235812428082,-0.022086495186136604,0.39263688012404424,-0.082609370350072,0.9263270430440368,1.147536252305795,0.7234397370294817,-0.39934869452156946,0.8367204649070803,-0.22711364460525968,-0.3883612260765428,-0.12235573263495031,-0.33187342388762103,1.1534406929980703,-0.7998717466249544,-0.7576074007948002,-0.16922270693354116,1.0634078448986377,0.9751515967812813,-0.7501905727584697,0.9591704454778143,0.7773108641288111,0.032709077218974515,0.538445419453616,0.8389029901599858,0.5498046364656468,0.03686147334146531,0.5422785463580504,0.25009988644469644,0.05806254609212243,-0.8776422886769932,-0.1513086780383131,-0.4286430305675881,-0.00492432144351834,0.5178508701049346,0.6541966880713183,-0.3886658416844441,0.4063002398372794,0.8635331528802714,-0.22756098544252176,1.3309817820302872,0.22830116608773207,0.7895370605527736,-0.44063016721125425,-0.4081292320574567,-1.1283027573745013,0.7710470056872336,-0.7223551279902067,-0.7161849792413532,-0.05123229992837686,-0.35729304747101504,-0.06041399148079367,0.18667942607967558,-0.9382467379404658,0.8965382249349507,-0.010330782502571134,-0.06517671876981655,0.08410624342519056,0.7583292677269358,-0.39950486218187253,0.028191200448806544,-0.40102894361117825,0.36195160030028456,0.24416636604750186,0.3254969655955988,1.0271072618109052,-0.7672663895588403,0.5809330419862522,0.49241673305739037,0.2549120616655516,0.0313212012695876,0.3919095665401501,-0.46746905826298263,0.09618368644525402,-0.4030871970493285,0.8041025622274354,0.6121212838142014,-0.557174909236628,-0.6866616659508181,0.9832817743820099,-1.0290415482908257,0.7801146930545042,0.36435780262668377,-0.30069750778234944,-0.5361844284055617,0.4553684306727631,-0.06339520418265482,1.342509017660544,-0.018547455855894165,-0.6112782816419509,-0.6681547632802314,-0.1341838097065838,0.4929395883414819,-0.4995804890790507,0.7498636366921966,-0.29170086283891045,0.21048803122786053,0.0859417064843381,0.5059809099000125,1.0671743424235383,-0.1022488400974599,-1.5576640581993544,0.8980710931567482,-0.7379893701607451,0.7707140895495244,0.17538516737996834,-1.3703567179907468,1.2013420486944293,0.28199904154457794,-0.1942920428010672,0.6233108747595079,-0.41483234348144465,0.3576389567290626,0.43418498714044235,-1.0107429665144572,-1.0799830092082532,-0.814673150023729,-1.1329788072086695,0.8200875598945082,-0.4719015089426579,0.6421761315245966,-1.031211396480653,0.720822050834491,-0.47562520513791523,-0.20822563854483714,-0.18802272839825745,-0.9472405200215994,0.9057666352892909,-0.9780468691521859,-0.07286823331251205,0.7124141752484203,0.75288491514426,0.22717872961457952,-0.732673881153831,1.62267432471639,-1.1538642005652766,-0.022758725558279132,-0.024048735420849964,-0.8557712175350395,-0.5130056628271918,0.647695385984063,0.36655240326876637,0.48346905842868376,-1.0010345306042163,-0.82984601005151,0.21827506671532668,-1.0315894920455557,-0.4791658490568413,0.4848318351395689,-0.288480854614991,0.054323642269258926,-0.672290135838919,-0.8192867830732294,-1.0758095217358195,-0.8178688972230617,-0.7260808944045615,-0.14335656410379571,-1.0860212343898967,-0.5829263779214421,0.3648962625316887,-0.3322227265230668,0.4339911012862987,0.8332759626790721,-0.8936331807718888,-0.15520773997949577,0.17030995818298175,-0.16423916051345572,-0.832855848747757,0.601656143226515,-0.5933494179959926,1.1085759397590114,-0.18548018537006583,0.229893919455171,0.2600453006628459,1.1054579344036717,0.48446295716945176,-0.009426007241355566,0.2629533686490345,-0.7985653019216393,0.028976309815402286,0.06837680571239278,0.035760086535525065,0.7978401277675743,0.8529511572010084,0.6537501937065309,1.3497432022515121,0.14641713178827392,1.016905519737811,-0.9882936926796884,0.6276091676912089,1.0822479379442618,0.42142349402441037,0.8120226168164918,0.49555073068214406,-0.41334126834654467,-0.8799139569465935,-0.6939794818052575,0.5981503400557446,-0.9067103432627494,-1.1716508456289734,1.2108920693793885,0.39979655614606663,-1.1678699285604828,0.7906999966189564,-1.037853997110604,-0.9294593462549736,0.27664975838758626,-0.7155833222567735,-0.6681484668676543,0.4452243294586385,0.04489237486953037,-0.2221377226159372,0.050380362570633844,-0.9134398680169318,0.7664441446992691,-0.7153953158444466,-0.8847755971641232,-0.6975304021645207,-0.210901263078388,0.07775849344265827,-0.7326941677905762,-0.23154668755799612,-0.16854829371471236,-0.2732613531885988,-0.1165213599888954,0.14079421880287257,0.031096610769069742,0.10057520942591912,-0.9427072093834283,0.44597495853266444,0.8957756085441801,-0.39625618745904695,-0.8668689167934956,0.18619728788921894,-1.0031171426815886,0.19673135441522416,0.004645663984039186,-1.1779073281889838,0.7737184059135409,0.8299954525363394,-0.3156403636860675,-0.8251655224561393,0.05180945830495328
ERR594313,-0.6909805858535094,0.4880334970021443,0.15911007731752394,-1.1107244956436035,-0.21963440437902207,0.11640712620905298,0.651425284945111,0.5652781019601312,-1.1860261331000006,0.45775186964921244,-0.8520868475282068,-0.041314387341870096,-0.9693513874434022,0.6480270493342196,0.1553702721701925,0.2250649898108296,0.6403877876849394,-0.9144752272952266,0.035448570334287534,0.028313432628659298,0.4877048017931939,0.004130963567583962,-1.634681638904181,1.0952502967912934,-0.2612810259850922,-0.46715254429526254,-0.43027121097559173,0.077247069237654,0.22574203023488348,-0.07094244025907902,0.3562380806396244,1.2304834235558066,-0.002688002479638894,-0.030026593498933246,0.9058100795447508,-0.22279997824256204,-0.5270868499832781,-0.4623400240886008,-0.6349516322875607,0.4179181828091409,-0.36682725679104067,0.6991250669356907,-0.5687613401211314,-0.19423132966344211,-0.8763699650728076,0.9434114433827115,0.7400713013305164,-0.23689139251520003,0.12958910796403947,0.7235850369488562,0.6225316658683614,-0.8785344042394805,-0.8093681808151186,-0.7339058564608069,-0.11400266181022263,-0.4226908418218414,0.7250296940045055,0.6525253875892681,-0.932361847914981,-0.7483570601807735,-0.4156260870582494,0.6365378924597923,-0.23600948625329457,0.008986073886703368,0.8189853173263719,-0.9574851941277678,-0.3628312564272011,1.0931012029971936,-0.1980733381204224,0.47211484952445526,-0.1448551030011984,-0.09423011427338712,-1.0122300570899745,-0.9744620337667345,-0.22891351049238587,-0.43707320706024916,-1.19883432003898,-0.24315664737806103,-0.6111799594458821,-0.6675683732491244,0.8266577613894898,-0.6640569181782059,0.179196753869187,0.7836980107894903,0.17890989107608207,1.2234306638359942,0.9672637012955858,0.8270164283306441,0.1285903683092814,0.9431686360041465,0.5082614555579944,0.6393437714205382,-0.9452846923827519,0.12717656274580344,0.084486501757139,-0.844202184322375,-0.6658204383047133,0.8264292070192418,-0.5251782213997637,-0.5510258655615845,0.04925896002045477,-0.458888273817078,-0.6482944341666443,0.04736567349356972,0.550964711982356,-0.18504630392801216,-0.6255528504946704,-0.9007405829775947,-0.5050140049687969,-0.5783291364219146,-0.926532561732631,-0.007885790264655931,-0.09263693388499429,-0.3355518796866967,0.671665666938444,-0.1474218072607231,-1.112165461207241,-0.09043102753414273,0.14380890198307592,0.9300906044152987,0.6999725885680221,-1.06407169833383,0.9107532620149865,0.3487101948311849,0.06281914436431794,0.13963301928770738,0.09056976339487632,0.47915963439899845,0.2958815531780486,-0.021325979378437353,-0.20731324678950175,-0.18386275433759242,-0.5371755210870305,0.6951314095555797,-0.3218435157893599,0.9443080326125619,0.8090183755266971,0.2653957882632233,-0.7845213893028957,0.8329559941131524,-1.1378556798852777,-1.065028043311746,-0.183023049286045,-0.33004711834821043,-0.912475339255749,-0.8995409419436634,0.6042121750219628,-0.6245761665620992,0.9368382425024474,-0.9136444542388932,-0.9717199171573515,0.9822394002031675,-0.8487302292189653,0.8960308417300272,0.3473683202509811,0.8028988708968919,-1.1560872398843236,-0.1396201662326005,-0.021038687674809316,0.4001855536647171,-0.12339629261851016,0.9763725981072497,1.2149164874052953,0.7768531781120498,-0.4448154800614781,0.8922371119087978,-0.22072823569667607,-0.4190836766537996,-0.12654022898882697,-0.314734240590312,1.2193491225284019,-0.8225202541077636,-0.7514730272276604,-0.1616725776925307,1.084020904702453,1.0373280824405962,-0.8116370275688184,1.0133146074439408,0.832100802300273,0.03332553380629004,0.5153190293824637,0.8831397398498626,0.5748089189301216,0.024427445123645364,0.5828607146145341,0.2546544884864844,0.0648961519985086,-0.929171290677398,-0.15087876563422878,-0.4432831678164634,-0.030032697592059274,0.5560105245114028,0.6536062267852025,-0.42326038627975343,0.4240802091934458,0.8965980270871446,-0.1802552238299621,1.3617240850902352,0.2713047596158671,0.8041868667096084,-0.4121235015962177,-0.4332039103666664,-1.1553329630685127,0.822254573643931,-0.7144169227905257,-0.7199719275123971,-0.047375867685491777,-0.38312994773603753,-0.04621600933932487,0.19034601862046285,-0.9991832179854829,0.9260024306594469,-0.05794344184865509,-0.06753007621457122,0.09435399778375139,0.7625137297635985,-0.43508520946897494,0.031215631937840025,-0.4415036461320495,0.41023784644368894,0.2594499162279359,0.3449764464035931,1.0916896170219523,-0.8199477368693471,0.6157447649599757,0.4874542444352264,0.24451868618964892,0.028853979991270776,0.42310438701637404,-0.47753675340576557,0.04872726712388599,-0.43478667955613165,0.8532953745290728,0.6601768107653349,-0.5650131589535756,-0.7372709301822844,0.9932625884521307,-1.0936377607276795,0.8165686514573401,0.3733261938402987,-0.31010414634874833,-0.5673793214278486,0.4650033228417027,-0.06477514243199262,1.3753331111815217,-0.057601059668931205,-0.5851106238700186,-0.7178511520196427,-0.09972503414231251,0.47580008582150113,-0.4644488786985279,0.8047352693083168,-0.3166275962596074,0.22041010182828158,0.09080047426730786,0.4667023413354142,1.0932461523890917,-0.10047868452496547,-1.5963132684230945,0.9581187265048112,-0.8203780179180529,0.773288404031454,0.18101375001677225,-1.419883551831348,1.2267447398497415,0.2236456416886782,-0.21236509510151158,0.6350900717808686,-0.4258526283576506,0.3758111936837352,0.4307300156330608,-1.0863226452189059,-1.139020080822854,-0.8765921100948635,-1.1657986329844767,0.877277463710824,-0.5172475308938836,0.6676998041879034,-1.054509706522052,0.7069527608672131,-0.5250235369202693,-0.18859012551975204,-0.18776381134343859,-1.0046650997351818,0.9584109909024721,-1.0460715121893451,-0.06937948450339793,0.7236455427583645,0.7476294386890173,0.22509486694400885,-0.779796148227042,1.6599912797102252,-1.18224035332238,-0.017421981345828386,-0.07265951529045012,-0.9055327514340591,-0.5003970667149072,0.6914772035420125,0.37017798792833695,0.5148314938426961,-1.0623003558532222,-0.8577864265955044,0.2426597868666572,-1.0512950541372312,-0.4480088291837502,0.5177444473495012,-0.320851581861404,0.06213463223046576,-0.6687109070649602,-0.8558054760172116,-1.1056195527292285,-0.8222606613751172,-0.7785520757190972,-0.1645985061850619,-1.1898876664326599,-0.5624117311480968,0.3658177118034023,-0.3523879813108249,0.4243238404646577,0.8846442673389815,-0.8911826500090017,-0.1549639968436267,0.1751246040436791,-0.1676006051031041,-0.8862295659411628,0.6092247735922461,-0.6396822053849203,1.1714351712667146,-0.19635236566491307,0.23580627461721357,0.2740810157825282,1.1357113252876687,0.4719243039487978,-0.009853982238844667,0.28480533068715763,-0.855656200031421,0.03366515240586125,0.03378863559941824,0.004931056430581807,0.836500431527631,0.90965591784859,0.6420195587546623,1.3854968332296218,0.15622991722697013,1.0805473588190244,-1.0057118519234511,0.6743982824969754,1.1072279153011557,0.46910431039640244,0.8593362079734065,0.4876618468021018,-0.40801864113677394,-0.8969252705987415,-0.7422862015113378,0.636795039397189,-0.9325914394192688,-1.2352350282334443,1.2415821327693992,0.3663671415036153,-1.1977774771370897,0.7947205846957974,-1.0643286221059016,-0.9881742496234085,0.25477143901746063,-0.7269181743628444,-0.7331482173444271,0.44826075221308925,0.05199705656881524,-0.20328900124157165,0.062412176687398575,-0.9208860658270724,0.8193208666345692,-0.7613040811301072,-0.9432370007986471,-0.7404475827958604,-0.18736854266352562,0.08558685111498837,-0.7457704548166422,-0.22627054650453163,-0.1483860756402314,-0.2253592435800209,-0.1675740234175758,0.10362558287576033,0.045045142230380544,0.10578587661470847,-0.9590086348888889,0.4941814073741173,0.9582271480614946,-0.4224117873450391,-0.9215248329593669,0.22986933188974773,-1.0179863252106898,0.19027484112445858,0.03429474401039324,-1.2161788783300738,0.8278432245449471,0.8788937831121616,-0.28928495976343915,-0.8231869855651535,0.07574237749240378
ERR594318,-0.6911724156477882,0.4935720349605599,0.16499647663670422,-1.1250287533271874,-0.21498354341176937,0.11943054230097655,0.654791618821073,0.5702999265691271,-1.1933604047000366,0.4526332708093381,-0.8607841915758235,-0.04797797921078199,-0.9821056880038437,0.6556812142638307,0.15881320898228274,0.22541952032432228,0.6374483283316154,-0.9227673119995303,0.03968803436546613,0.018615071467231403,0.48911514929853084,0.011922018635776643,-1.6444460347811285,1.1011152008758671,-0.2599899506707702,-0.4763077610479009,-0.4343000579045877,0.08523255547957466,0.22703364004531587,-0.07259216076842646,0.36765458282012964,1.242221538780527,-0.003213953375727966,-0.02897274150925686,0.9129107572418496,-0.22282466532831,-0.5245366661003571,-0.47168911453905094,-0.6452499144457211,0.41398915362417077,-0.3707437137323076,0.7114933713739348,-0.5796607080232019,-0.19811683601861355,-0.8804537268384386,0.9556406631227206,0.7506478304045817,-0.23498996954676643,0.130813245512064,0.732792599679716,0.6278038094609643,-0.887690900417329,-0.815411138002548,-0.7418460705746657,-0.11491436322437214,-0.4204502193949695,0.7293840164638834,0.6616162883692961,-0.9397197533755473,-0.7577962605253697,-0.4198720788067717,0.645020326940537,-0.23351506131246688,0.009095407570103615,0.8322980503188404,-0.9633958317519132,-0.36705857117364293,1.0997686501348918,-0.20191578998733944,0.4754566993193919,-0.14546300587622057,-0.09290046803169287,-1.027202217685704,-0.9888444720060127,-0.22826382788972413,-0.4413294314558811,-1.206158273346087,-0.24655350292420009,-0.6195197098992998,-0.6781315268515197,0.8390554590635964,-0.67442506023275,0.18723368290144776,0.7936830862014367,0.18088934539852064,1.2343449555509887,0.9717245232467656,0.8282859066108493,0.1302687408858703,0.9577812226180564,0.5067897087976657,0.6390298998243064,-0.9533144719389667,0.12883203645286154,0.08489959975250361,-0.8493324271071842,-0.6755947042183172,0.8278940044536274,-0.5224253850094361,-0.560788233337837,0.04949179456626595,-0.46062659359325786,-0.6555617035638026,0.05494630921748911,0.556300435647246,-0.18718832016194525,-0.6248883730361523,-0.9052809305272381,-0.5114680239080988,-0.5868542957965364,-0.93564860708088,-0.00197291385193445,-0.09436938061162906,-0.3306294384564556,0.6800307203769589,-0.1491184470769206,-1.1258800747288173,-0.08423235491635761,0.14598358702499617,0.9382231598435647,0.7066535168044489,-1.0763875965303122,0.9102930797142776,0.34928111102986464,0.06704653753273894,0.14207086953656567,0.09731567373555196,0.48123368719054865,0.28884877516537966,-0.018269650435490413,-0.2050886346289647,-0.18679634212981405,-0.547592987138423,0.7012392544264593,-0.32843231589916316,0.9505872790307368,0.819897812325045,0.27210357930853174,-0.7929271463648596,0.8431682371870889,-1.1480838869789025,-1.0726127930748435,-0.19238412630008725,-0.3355432940991529,-0.9201978502299931,-0.9076754461698807,0.6049007595156712,-0.6266085422925993,0.9461231347191036,-0.924783758970669,-0.9795290901309416,0.9885366138536336,-0.8608460581574778,0.9052687540689793,0.34952641375509197,0.8123515813168276,-1.1644671780171283,-0.1477109459987746,-0.02095563600035052,0.404686788532045,-0.13098565359389075,0.9863756294919248,1.2290904670669198,0.7850652019014739,-0.4553592813693651,0.9033328476191119,-0.21963595637809297,-0.42642596728931104,-0.12761273064483214,-0.3148343578505556,1.2338237905518539,-0.8303613055887159,-0.7546591197391548,-0.16092774257277906,1.0902654296794323,1.051014026788,-0.8240918883478991,1.0221537845910267,0.8431644011186515,0.033529630397615036,0.5118081552847905,0.8916946833899017,0.5810536280078596,0.023074816532371558,0.5909448087041804,0.25624564495158425,0.06465664598372627,-0.937193394856842,-0.15242688164652415,-0.44874020940900883,-0.03873758029512808,0.5610642091840865,0.6561893358972097,-0.42868391480151424,0.42823264157871693,0.9040609980343292,-0.17297309027447047,1.3704102309171682,0.27908088368760686,0.8103837848740627,-0.40750590121670394,-0.43992203986802786,-1.1627984230127186,0.8337685296781422,-0.7140701741119302,-0.7218776535179827,-0.04704400115578343,-0.3882691759743724,-0.0435039059521704,0.19123038130606654,-1.0114124864909946,0.9319641286171394,-0.06695140037189204,-0.06789341748976285,0.09647576069255558,0.7666187993865154,-0.4442967239611241,0.031855006511952555,-0.44683541420578005,0.4201056765036888,0.2615965080629642,0.3471517586329723,1.1051812251795436,-0.8285133961004731,0.6229505779422907,0.4906718723705622,0.2454303546606038,0.026436205948046573,0.4320937023565982,-0.48073961582145863,0.04102591574255957,-0.4417668520310892,0.8656952650335572,0.6666442202726793,-0.5680329341778511,-0.7496520318091675,0.9968783616614044,-1.1069746974800914,0.8255391669793931,0.3772964436044968,-0.31407170761833325,-0.5739386805017374,0.46699443409565206,-0.06555940711393608,1.384325135045024,-0.06452704019917554,-0.581726080088449,-0.7248956993539839,-0.09436106612165356,0.4739366025634399,-0.4594472554569855,0.814612537293822,-0.3234195966937884,0.22262800815957867,0.0917802339371221,0.4616685518521479,1.1007546800715058,-0.10028451298434253,-1.6063630712116843,0.9667931545401244,-0.8377820818974442,0.7768732691049024,0.18108169445345998,-1.4313192951634772,1.2339009135742267,0.21465215456268238,-0.21541638474410107,0.6385136747981172,-0.428792775819851,0.3797267052253317,0.4324607906420291,-1.1015021184165346,-1.1521590902270489,-0.8922206740341492,-1.1746026706803563,0.8863091449480949,-0.5251091682523462,0.6733474408259743,-1.0617519455929234,0.7079416524393634,-0.5346227095516929,-0.18309348617173843,-0.1881135636357428,-1.015305659723083,0.9661456203252373,-1.060231286528361,-0.06909029543634809,0.7284508343752413,0.7510665528053873,0.22533633283866839,-0.7899595736983267,1.6700355624685939,-1.1901853025037488,-0.016439557572392915,-0.08163730796467779,-0.9168761644197199,-0.4978008755069842,0.7011127958739942,0.37236795187246613,0.520685295635593,-1.0734042091701776,-0.8641651530047448,0.2445967300851689,-1.0567468422345174,-0.4440430893287376,0.5242061949499952,-0.3254336322616943,0.06378589635926009,-0.6680456337392067,-0.8660193848477852,-1.1130809778124495,-0.8266212468517956,-0.7891476135958289,-0.16847730186567222,-1.2053254758295,-0.5604082871163807,0.36739561310146446,-0.35450449510848947,0.42452689279933864,0.893125853460212,-0.8953403640325328,-0.1530027012781868,0.1764034474933308,-0.16859606528601132,-0.8973954418721501,0.6135390270039185,-0.6464036906496506,1.1848450501173524,-0.19634238740976345,0.2375705210394039,0.27705495502490357,1.143363418475675,0.4718407650876887,-0.009959026753439668,0.2900700276864418,-0.866585087337702,0.03445352303228169,0.02904162835625371,0.0008465385708972211,0.8422640178151233,0.921188413666999,0.6440761212436966,1.3948526008775612,0.1581081035521815,1.0943973231929163,-1.0115160865520414,0.681091626504983,1.1146499145217676,0.477593412265118,0.8720432822375289,0.48888440837966746,-0.405534751228732,-0.9035164702139477,-0.7529521826690115,0.6466506693431895,-0.9384907247287954,-1.2489922297373375,1.2505419340106951,0.36213712099012185,-1.2060400195498953,0.7956456838540835,-1.0708205491348373,-1.0003595098384022,0.2531712728317314,-0.7314468621231945,-0.7461020058852086,0.44967486281587477,0.05336874668712288,-0.1983557213860493,0.06294351545437103,-0.9248849004381321,0.8270355192624509,-0.7683408225750451,-0.9517719890542078,-0.7492444535689498,-0.18025585161922558,0.08716661670601322,-0.7496443071861684,-0.2264752281223205,-0.14806200906336844,-0.2174767992199239,-0.17534354211853867,0.09746018280220027,0.047421263634792515,0.10690030474461429,-0.9645590087471909,0.5026389435772419,0.971343817802264,-0.42780567654260926,-0.9345425722843715,0.23917559698820445,-1.0244813001524151,0.18988397315687752,0.03699005890161241,-1.2258572875014264,0.8362905666531028,0.886519319240418,-0.28503865795228955,-0.8264537190317723,0.0798915416821404
ERR594349,-0.693117185716388,0.4810292665917918,0.15152380493254103,-1.1038725904735434,-0.2230012500177425,0.11441831962005956,0.6523460603985993,0.563965234259654,-1.182297889317545,0.4617776946566243,-0.849382456612987,-0.0359605217295295,-0.9602531609361152,0.6462651191554528,0.15001438043704893,0.2228785958667447,0.6428325366420597,-0.9063295502674461,0.029544735219361653,0.031039627879115298,0.4894957992963342,0.000565128149517514,-1.6311474572531315,1.0908838632048592,-0.26389672251312773,-0.464188641669403,-0.42719602864024414,0.07099378159103184,0.2252616789081124,-0.06906954205033809,0.35029769282364115,1.2240909931645332,-0.0019431742217384611,-0.032944391882408615,0.9031836447669538,-0.22444251077554492,-0.5304102347260176,-0.45790620132233173,-0.6314210266037905,0.42155325307928665,-0.36252738736702866,0.6922163365436752,-0.5650469728039987,-0.18932919549974855,-0.8745668589042287,0.9387154929878336,0.7349695115963994,-0.2374087503495694,0.1288985937078549,0.7184898979376761,0.618290231238483,-0.8753650847617827,-0.8038945125321844,-0.7293360999791184,-0.11354380177757666,-0.4261251234082214,0.7200673434297141,0.6465290456063321,-0.9299514556139109,-0.7447922897749193,-0.4128311456759501,0.6333815419458898,-0.23592598492820285,0.010488421000219779,0.8143787663971228,-0.9552648246445027,-0.36052928985467264,1.091070384765296,-0.1925246331790997,0.47084050612433304,-0.14702184148528855,-0.09629541301210624,-1.0064535391552323,-0.9681413510423054,-0.23282107628223106,-0.43485600426805515,-1.1954931952612884,-0.24192613819897957,-0.606283363268699,-0.6563408810189839,0.8212508509181256,-0.6607019224080073,0.1735679797594521,0.7775584821712948,0.1778018299042051,1.2126188402173077,0.964467404507386,0.8270865188858452,0.127451187554469,0.9344308678994194,0.5069641435440229,0.6395717816059312,-0.9408352834841348,0.12942206220949973,0.08456424221722093,-0.8430269411784641,-0.6629089293787154,0.8255592936737235,-0.5284964289517514,-0.5475425322065067,0.04917485981774607,-0.45788548185111855,-0.6462545805296761,0.04085574694179663,0.5450722633526354,-0.18383400353485319,-0.6247662134615073,-0.8988789078510698,-0.5011620734311624,-0.5728055906874777,-0.9171014647597227,-0.011270240622192836,-0.0912631194446899,-0.33977435393724137,0.666127205917703,-0.14642263104235545,-1.1040609354808941,-0.09253323149705257,0.14290036479266716,0.9264074065501112,0.6921442601047658,-1.0564013627790618,0.9140332282280652,0.35096892919661105,0.05655354369715009,0.13827104910091378,0.08859933763653093,0.4799521263091547,0.3014646974289089,-0.024947321099670912,-0.2076097459201498,-0.18196319095735664,-0.5310035999910385,0.6902418293239169,-0.3203734045927754,0.9410647935428054,0.8024426929771213,0.2638389779122601,-0.7809465054761782,0.8267165464645951,-1.1270348224377067,-1.0615199338082215,-0.177672858681706,-0.3296690181423484,-0.9058215706794444,-0.8954508584085716,0.6052641631011856,-0.6246518150722228,0.9287324992543821,-0.9066641401345753,-0.9678208907568017,0.9782045074267975,-0.8436805290360307,0.8868630640019203,0.3427511655205056,0.7970043341403529,-1.1519129219696123,-0.13477717004537357,-0.02119849622305741,0.4004160322574752,-0.1186962740460032,0.9698261425826691,1.2065771470080657,0.7689311949529329,-0.44019875577955764,0.8852219825973536,-0.22119016600911534,-0.41592640648608653,-0.12605677828423914,-0.31793484634229463,1.2114584885565503,-0.8207347486529253,-0.7532225261631053,-0.16265076920897162,1.081346711284547,1.0300964813569344,-0.8041903753814007,1.0052407664756762,0.8252193085626333,0.03325015848465456,0.517627535897358,0.877194076964794,0.5720868974362904,0.026267773854488093,0.5778159852874059,0.2541936216111409,0.06325709273695511,-0.9213421988442936,-0.15153850763984636,-0.44247340079930914,-0.028478297960671205,0.5499256323674527,0.654180826193353,-0.4182958458912044,0.42197761391339395,0.8923809164739612,-0.18608490133174618,1.3577919016415128,0.2659996090596265,0.8032164063871409,-0.41512032038605656,-0.43086737639720923,-1.1518151214296757,0.8164195797850976,-0.7149618951726374,-0.7191694200390978,-0.04796366170496361,-0.37987137725743686,-0.04773144340842958,0.18978239253886905,-0.9914811472413323,0.9215916721616786,-0.05262074001775596,-0.06715985775624972,0.09319079873230822,0.7627270100239041,-0.43186498020094216,0.030887272883293477,-0.4352147597325074,0.40475654777113956,0.25701286443565285,0.3415620715724977,1.0837331117580262,-0.8122736222842929,0.6114062442035142,0.4891946510092045,0.246807694960457,0.028092439840022358,0.42060238310592835,-0.47644673279555166,0.05451131265075541,-0.43122410244658715,0.8483464393450096,0.6526024820987023,-0.5641897935504048,-0.7320620693554548,0.9916645556289554,-1.0856358549548735,0.8125515257134666,0.3730259328847196,-0.309796132575417,-0.5635381454730111,0.4634304106661094,-0.06481543468889796,1.371222122599834,-0.05297791790864074,-0.5880539033336951,-0.7101785145047098,-0.10399220867828109,0.47775999839124733,-0.46857240914296405,0.7973254646955099,-0.3145318703339219,0.21921522314782568,0.09018144459347839,0.47165135372597955,1.0900153433524071,-0.10063861670992084,-1.5913089020011506,0.9488053987609301,-0.810347376811598,0.7735246965629688,0.1796474808518123,-1.4133029114839495,1.2234313721351089,0.23068315616468624,-0.20990144768952695,0.6335115788593951,-0.4244808852214331,0.37356524294768206,0.43178525444976135,-1.0768839158498407,-1.1319713625401084,-0.8705170752567479,-1.161630359201606,0.8688737456840598,-0.51119038284052,0.6644102118547032,-1.0518796231113012,0.7093997017631766,-0.5193915281649357,-0.19010506540003524,-0.1877473024272259,-0.9968857460088728,0.9501608237581344,-1.0377677891225079,-0.06989504903668799,0.7228165699794548,0.7494394787755004,0.22536143765220157,-0.7741999511867925,1.6552072614171183,-1.1786589556943918,-0.01800308051550048,-0.06708103981503362,-0.8998491606593425,-0.5009875735625795,0.6863919565791802,0.3700875664426823,0.5106603881401955,-1.0538687915279212,-0.8540415190430307,0.23824040727611606,-1.048564942580584,-0.45185874079315297,0.5135210458673266,-0.31600189393351674,0.061277827116525185,-0.6682078288195552,-0.8523562632818957,-1.1017552511005655,-0.8224758590279919,-0.7720569404591515,-0.16197525064543383,-1.1739222868777817,-0.5649029542493041,0.36597533479397254,-0.3487942022466542,0.4258921328845308,0.8771616913096304,-0.8925347973650652,-0.15378790972261966,0.17458257659816806,-0.16720934009151042,-0.879664011631363,0.609029142244757,-0.6326448260442434,1.1637083535697554,-0.19383184012061916,0.2351972080005412,0.27233355816416793,1.1317543395911993,0.47385117175933744,-0.009802621580495866,0.2825987129501055,-0.8482702396811433,0.033050926530256056,0.03849863720168198,0.009253246413728683,0.8303138878428331,0.9025913276435767,0.6446074366829943,1.3809349654681344,0.154951822220854,1.0730196147266198,-1.003676889328122,0.6672059766468734,1.1041255313744824,0.4629588084652472,0.854921764531489,0.48926511000666545,-0.4072683727209145,-0.8956145652771018,-0.7367410123469217,0.6330221007262219,-0.9290064325396726,-1.2274134845195088,1.2378782324735038,0.37065257564389514,-1.1940953721900267,0.7932848720670483,-1.0607175154731734,-0.9809178136379606,0.2581672025305991,-0.7259371863686069,-0.7253498849538353,0.44776626424850485,0.051127223129951466,-0.20437499605185078,0.0600667541808188,-0.9201406566107143,0.8112044471582076,-0.7543812075720101,-0.9342162658433113,-0.7350592984910294,-0.18887381408933757,0.08463831125701898,-0.7440250392234039,-0.22717970922822314,-0.15222596320897464,-0.23095607433904852,-0.16143164473011373,0.10803284247393159,0.04330637951908697,0.10512521773845063,-0.9571762647943507,0.4878643410322327,0.9507084040856273,-0.41919503879096864,-0.9156603573428227,0.22452913788473491,-1.0166067480144627,0.19117535374566655,0.029422785047202037,-1.2112888295613737,0.8198094398565265,0.8714834240639923,-0.2920950362407828,-0.8241415980543672,0.07281306766036973
ERR598949,-0.7147638669593603,0.41519976301788175,0.08157371849144962,-1.0060476780701508,-0.2688407810581046,0.08877173009090307,0.6503035942035008,0.538809543312524,-1.138427810300571,0.517158929089515,-0.8018174381105394,0.02939461919858021,-0.8531669061737046,0.6069768857954805,0.10076899900911615,0.20945357694017006,0.6799239657516055,-0.8252474322805323,-0.023294548998946573,0.08707359856483171,0.5011276957437206,-0.05847230657247633,-1.5831787991878636,1.0476092993243025,-0.29048121385128317,-0.40819093042056864,-0.3932994680929169,-0.005793999567440698,0.21880611509755282,-0.050001183082619534,0.2694820838464543,1.1440990988430442,0.005258601534402827,-0.05730896443936869,0.8638600046521261,-0.237871586497934,-0.5699944673334241,-0.39142542249935397,-0.5683519446874851,0.468172470412918,-0.32069337990695407,0.598344568320576,-0.4974904090671332,-0.1417627987942937,-0.8542992705495039,0.8627329945225485,0.661551368172828,-0.25224705061862873,0.12014903042198344,0.6510147590795341,0.5732319551752417,-0.8228652843204167,-0.7493475964973717,-0.6718429627608383,-0.10761205985622395,-0.46388578937675967,0.6764435593091996,0.5731303480083582,-0.891188729992343,-0.6869327255159156,-0.3795354861333254,0.5810360137200399,-0.24946537040117603,0.019986906770818467,0.7327340519691085,-0.9253572866970039,-0.3301007885434208,1.0609144357285587,-0.14072671424200675,0.4524749723770041,-0.1601120951612451,-0.11723678717430082,-0.9116255888898067,-0.8720229714915043,-0.2642068977877953,-0.4055589182505325,-1.1542239296117052,-0.22104278739051206,-0.5430437898608186,-0.5477227023563795,0.7383428587541426,-0.5988605032253138,0.10173675113192922,0.700394628092508,0.1633949733986479,1.1055117504425487,0.936836583951368,0.8314990716035701,0.11374818864495616,0.8210533515742775,0.511036488303581,0.64981755877932,-0.8863098511140486,0.13800451878916886,0.08406553118111379,-0.8216427316810616,-0.6063972856334032,0.8232084686070836,-0.5688438440419028,-0.4863196240739077,0.04800703931065722,-0.44848292001757273,-0.6068861532649298,-0.03624531147607254,0.48808550323221017,-0.1680981011007669,-0.6301755588306298,-0.876114527885256,-0.4522283999346554,-0.5041396399098599,-0.8244943939941456,-0.060636398728236646,-0.07536225519445504,-0.39404643845469867,0.5991426469671035,-0.13376283571108152,-1.0007725866168038,-0.1354080859148404,0.12881120140791877,0.876121880869104,0.6181744497623326,-0.9618810416018893,0.9484936409079765,0.3673217199299532,-4.553340218116692e-06,0.11975518329599491,0.04573777617040914,0.4812298837217165,0.3740530995479999,-0.06272593115806067,-0.22205232685400345,-0.15814063516550905,-0.4490913715981918,0.6381106158593272,-0.28425244949343215,0.9018598249861919,0.719023189627347,0.22610100882013584,-0.7289106352197298,0.7484918299726417,-1.0220037435653897,-1.0173587326335944,-0.10179632315405386,-0.30571174071058166,-0.8370516202190363,-0.8417389481746933,0.6161171877435045,-0.6228192174426287,0.8435766236374043,-0.8201371616552559,-0.9179827719104018,0.9349460378461666,-0.7646092319880134,0.7947981894009674,0.3065246963374705,0.723904482637858,-1.1007462381095268,-0.06743305254014598,-0.022763717944565113,0.385909923286236,-0.05420579465931547,0.8921324344112056,1.1009472114589565,0.6881708654284728,-0.3668100603184661,0.7985504914150778,-0.23181065670351683,-0.3663816353005426,-0.1194036855354179,-0.34219280206492964,1.1075318621237809,-0.7828237691800394,-0.760300362973977,-0.1742885621198956,1.0490187596352174,0.9316342762913762,-0.7076151496683881,0.9233921490212004,0.7395852710580617,0.0322720227657321,0.5547870226723833,0.8088684463490623,0.5320264543553225,0.04500072436258512,0.51430023025791,0.24676742225619405,0.05432333205749748,-0.8437836248459485,-0.1508046806620073,-0.4172404601354454,0.014385135215396564,0.4931710612317005,0.6537619514520197,-0.36564932961922697,0.3938574538816877,0.8407231266274904,-0.25993781549194833,1.3095516764391464,0.1987199427758379,0.7781825489270989,-0.4606669984426296,-0.3898625268754116,-1.1095413202497073,0.73505840506873,-0.7280875591835817,-0.7137391943448216,-0.053728662109882676,-0.33952644690765277,-0.07042657457073594,0.18423462495190837,-0.8963456908643811,0.8769311515044056,0.023003385487457246,-0.06364294003852222,0.07692415024570597,0.7543033350720527,-0.37353624700316207,0.026055434628008786,-0.37469703292551787,0.3281281173547325,0.2342653181530487,0.313248596629688,0.9824301905636839,-0.7322849104619568,0.5569074965012404,0.4941975177736787,0.26072189152576275,0.03430530032932471,0.3687112729383829,-0.46021325889299963,0.1287781411829995,-0.38078096412714324,0.7687206823686077,0.5809424878124075,-0.5514313831180947,-0.6504239474174126,0.9765268057750464,-0.984417886221502,0.7542603119859052,0.3571009302881564,-0.2931056232918485,-0.5145966658004477,0.4490767252243453,-0.06217239680416883,1.3195813739242412,0.008485557555791634,-0.6293723221323885,-0.6357098176816208,-0.15775602464495067,0.5047129810783972,-0.5237686469983479,0.712739913927827,-0.27330872253543176,0.20357830295043916,0.08260481859872262,0.5326243889507299,1.048881151632363,-0.10350582623153301,-1.530896712856188,0.8588873922303846,-0.680853601895263,0.7679950007711535,0.1722855247342133,-1.336409527961506,1.1836985914106635,0.32208602519457546,-0.18211373930808647,0.6151560035129574,-0.4071370477432387,0.3450586367048008,0.43564306466299946,-0.958661793488345,-1.0388188036389794,-0.769987118980095,-1.1101346096639386,0.7822179125875213,-0.4411988393221126,0.6246165092815271,-1.0145462765100783,0.729188893791046,-0.441112414419742,-0.22286375808420544,-0.18819445125528966,-0.9083728773011341,0.8714783173005481,-0.9309214442901884,-0.07514066126067552,0.7037835203578319,0.7547987137908969,0.22852054878886385,-0.6998318284338861,1.5967382120822737,-1.134046966265813,-0.026506298249292515,0.009816502978354522,-0.8207911017547098,-0.5226479207768091,0.6170460464080579,0.3635109242264753,0.4621613010091827,-0.9597267468803536,-0.810735685741191,0.20318675174850126,-1.0180697893627884,-0.5003694959528941,0.46228056528624323,-0.26720587880099683,0.048816176739031825,-0.6756619782566957,-0.7926703350372586,-1.055206905764364,-0.8136448658097579,-0.6898604980255815,-0.12874229478047003,-1.018047515495645,-0.5968482938079135,0.3638135010789487,-0.3196180837575043,0.4400197689169677,0.7991488537505734,-0.8936964881209521,-0.15678980868839212,0.1668937095085027,-0.16185267473573528,-0.7959209756297951,0.595347822010635,-0.5629685579556524,1.0650370494488388,-0.17939787141523356,0.22561861335059227,0.2503475787330342,1.0845720848554903,0.4924315776596103,-0.009126542178616267,0.24727677924977381,-0.7595423443496748,0.025793270251954718,0.09154255319120153,0.056269368939869405,0.77277159963615,0.8138410112047777,0.6601662358805895,1.3249084921341985,0.1397181564163418,0.9725045048474477,-0.9758485479709517,0.5970239201568663,1.0646970176202493,0.3888955808106399,0.7775563567280677,0.5000186345048695,-0.41855699249018596,-0.8669863725256355,-0.660094845103509,0.5702295938828748,-0.8891212971255195,-1.1275895069403972,1.1892470307115042,0.42239470400923745,-1.1469091163519323,0.7888105242335391,-1.0197466558818604,-0.8888739459004258,0.29071573885107227,-0.707054644553504,-0.6230647206662754,0.44313537515154255,0.039987237763170036,-0.2364972213275521,0.04315050046093589,-0.9077974949726216,0.7318482551269477,-0.6851940870394907,-0.8465702733882724,-0.667960411780288,-0.2288128924097763,0.07233509826494622,-0.7236249105333544,-0.23477332517962915,-0.18067497453563586,-0.30640843541229185,-0.08144885770410178,0.16645859622501188,0.02153851037414296,0.09698506581654638,-0.9309749016066189,0.41320487968443603,0.8523949063181994,-0.3781661274599247,-0.8280105136681272,0.15592264680755094,-0.9919442253298534,0.20096911333432618,-0.014227151507041383,-1.151375160791071,0.7379690471462612,0.7978453315604741,-0.3341242088022965,-0.8253603588901173,0.03534808362117235
ERR598950,-0.7032455039825473,0.4516739782903845,0.12034287785358042,-1.0613568370745197,-0.24338193739303784,0.10312077213375861,0.6520766569809691,0.5533044282657137,-1.1634953459304378,0.48651892124331336,-0.8290594758770592,-0.006955145138550591,-0.9131746143209826,0.6295484192008514,0.12790308104852022,0.2167752390867356,0.6595353436257669,-0.8704712985936439,0.005957567831616838,0.05514384051304858,0.49518646754424517,-0.02533221307953717,-1.6109450184275005,1.0720777103325478,-0.2759856994477468,-0.43999612097365426,-0.4123078454987754,0.03694732576153979,0.22253808289639698,-0.060564254938015344,0.31510498814906746,1.1893988327802765,0.0012883878836828604,-0.0440116234926498,0.8863928369901592,-0.23067866775191592,-0.5483126755538802,-0.4289096347072073,-0.6041859998303843,0.4424474071629262,-0.34395125367405854,0.6511339224701398,-0.5358384720242471,-0.16807841490607803,-0.8660463508359997,0.9058989882354795,0.7030214621738408,-0.2439612848519462,0.12508952196369605,0.6890430222218812,0.5984928113184532,-0.8528467837636,-0.7798774683543311,-0.7042856396179261,-0.11097947791220839,-0.4432256344973578,0.7007970852213262,0.6143213702762034,-0.9134680360727159,-0.7198312104556938,-0.3982549216109776,0.6107805941637092,-0.2417754184923828,0.01489292944514387,0.7791208733973318,-0.9426296640463101,-0.34726754129168713,1.0784759325388036,-0.1693111348205026,0.4630083212763598,-0.15318904707736464,-0.10574611146920507,-0.965424384190182,-0.9264092970817307,-0.24722805117975255,-0.42213013959355444,-1.1778893823270467,-0.23291006158491256,-0.5786281937635875,-0.6082052715735644,0.7852489198274519,-0.6340504581051425,0.14183147600633642,0.7437835752977412,0.1715192511581778,1.1652462870954294,0.9526246838081998,0.8294629533416618,0.12143551767486431,0.8847688401871779,0.5086605052542381,0.6443359798625186,-0.9172018206188324,0.13368747147816204,0.08441648447557074,-0.8341669099111252,-0.6386107480275586,0.8248517419160635,-0.5467143864449147,-0.5210554495940571,0.04868174397704577,-0.4539101903999829,-0.6294334962958212,0.006588630167035074,0.5197706318347219,-0.1769674139395972,-0.6272401676417003,-0.8892848880893541,-0.47976826837361913,-0.542672412563924,-0.8760752353710106,-0.03303084584330078,-0.08423739207738748,-0.36401921169417456,0.6367551554973027,-0.14089415296823654,-1.058922179101165,-0.11125593673820146,0.13679703443189548,0.9047446993846526,0.6592605830827926,-1.0150610260950266,0.9299910827448238,0.3586660723247519,0.031230737759384248,0.13016722895936955,0.06999789970942173,0.48096965837845,0.33379409700342194,-0.041854046283904434,-0.2139184152377041,-0.17150209023146684,-0.4950806840142721,0.6673371860652961,-0.3048893821619481,0.9241914222491086,0.7659441813035118,0.24762308554681683,-0.7585084223388273,0.7924991796023803,-1.0804891840196271,-1.0426191886688014,-0.1443010591380046,-0.3196095437512987,-0.8755460243976025,-0.8721979223846432,0.6104797216543987,-0.6242438371908003,0.8911686685142298,-0.8687855180342737,-0.9463133528022367,0.9594784690146996,-0.8094029976496147,0.8461004762854031,0.3264540043218693,0.7650130875549173,-1.1299290750204656,-0.10511574062502602,-0.02190817914068222,0.3945572681122493,-0.09026034066589954,0.9358371104843146,1.1604532688824287,0.7331890019048929,-0.4082180409854373,0.8472676941407604,-0.22593440370840764,-0.39439091039039065,-0.12318955371005089,-0.3291936003164497,1.16617449477616,-0.804715405294921,-0.7571662914421152,-0.16791513967187618,1.0676779356062842,0.9871674757195376,-0.761890253836677,0.969139101164493,0.787738435950282,0.03283961953148321,0.5342424323056303,0.8472630153043159,0.554758240326803,0.034684948142076344,0.5499832249865627,0.2510772984792842,0.05910130701801366,-0.8870659740889533,-0.15149291685344715,-0.43183531569373956,-0.010292022780436645,0.5246848005627724,0.6545288625247413,-0.39499603354569723,0.40977633558807486,0.8699573796078767,-0.2189363430422553,1.3372454117075872,0.23633376202479256,0.792855408954154,-0.4353997150617645,-0.41316881840557734,-1.1337820662938631,0.7809822460268236,-0.72105753076339,-0.7170985589773295,-0.050571659443697105,-0.36219747174308925,-0.057740152836461944,0.18740217385986796,-0.9498320282612973,0.9021546184268053,-0.019285278548312107,-0.06560672040617402,0.0860641258168744,0.7596606660145433,-0.40660156823830246,0.028771080609223846,-0.4082711520359338,0.3711553595784011,0.24692383474324445,0.328921198049585,1.0394719696968158,-0.7769582139670541,0.5875873831188211,0.49216323228482944,0.253425155491199,0.03054270299329092,0.3982803233759665,-0.4695779950255457,0.08746634068925092,-0.4092125148032516,0.8138632648711442,0.6207437529397839,-0.5589040794489377,-0.6966420473200335,0.9854507085969075,-1.0413831290126585,0.7873148270897016,0.3664157998935698,-0.30282329864841984,-0.5421639507226522,0.457213177689225,-0.06373986326256924,1.3491490248105675,-0.02581778196546385,-0.6066171862353411,-0.6771293598081495,-0.12789130516779854,0.4899450727597922,-0.4932449503983931,0.7601117084375311,-0.29672741880946646,0.21241154485155153,0.08686628084655137,0.49898710213147285,1.0725089960006438,-0.10193969005864209,-1.565394543418976,0.9089424455894224,-0.7537940932889756,0.771708323555862,0.17628500985447745,-1.380024655617493,1.2065148237211303,0.2713599138881273,-0.19763408276626765,0.6257273957387854,-0.4170484578579434,0.36113804303436065,0.4339252910431687,-1.0251130518070162,-1.0914178851636815,-0.8269609291423753,-1.1395874412016693,0.8305651201884725,-0.48031985792431225,0.6471166680394507,-1.0360646326842764,0.7188058194164767,-0.48495871171763055,-0.2042430334748747,-0.18804076895185826,-0.9580161317669754,0.9153200318895486,-0.9910614209409316,-0.0722725699747506,0.7149680636072491,0.7526216715715537,0.2268922016451314,-0.7417468389096693,1.6301945585773885,-1.1596331947568421,-0.021759724885879055,-0.03315591050257962,-0.8654517353515222,-0.5106071553675468,0.656156112911062,0.3674813392003005,0.489360477863022,-1.0124908919108635,-0.8352883676551998,0.22243224526379635,-1.0355871490909778,-0.4736233893366286,0.49106596031949273,-0.29432413129775065,0.05582134166832272,-0.671627601076928,-0.8266983036671501,-1.081723852088893,-0.8192750092829638,-0.7360662821168036,-0.14733062228605348,-1.1048964593676616,-0.5793785320343224,0.3653004482913645,-0.3357455642730914,0.43250619947377583,0.8427477427660555,-0.8939304202551788,-0.15485495140658104,0.17127666391773147,-0.16493127048867923,-0.8430771251149772,0.6035526171004045,-0.6017410415082127,1.1206568417789282,-0.18719370805632363,0.23111271800948296,0.2627396540413671,1.1114738157208985,0.48248035097806036,-0.009510532995181975,0.26724877144797815,-0.809333196376422,0.029842584159455166,0.06216252732985977,0.030244379251361846,0.8048709422680849,0.8637562852995438,0.6522427972349132,1.356903670405142,0.148267954941227,1.0291794269948908,-0.9919875191835389,0.6360685717361924,1.087397151111478,0.4303101815973036,0.8215369883369263,0.4945116290387296,-0.4121075298388259,-0.8836684342222919,-0.7033197483833663,0.6058360675688551,-0.9117511364613231,-1.1839031650555945,1.2171908928226591,0.39385253572604956,-1.1739308916592934,0.7914929130899554,-1.0430859052488943,-0.940687511096315,0.2729482139779379,-0.7181087676682367,-0.6804871607293452,0.44593648256664714,0.04623385115573349,-0.21837527004490317,0.052362592745462753,-0.9152701053047262,0.7760290844504641,-0.7237723094187372,-0.8953742382805436,-0.7057200760623366,-0.20604385667945438,0.07924788250239635,-0.7353889042370514,-0.2307513646540569,-0.16532161664000422,-0.26444636001794125,-0.12581283661133436,0.13394561611456993,0.03367791780662148,0.10157730920044342,-0.9461831864699176,0.4549397956245689,0.9077423564139898,-0.4012521264829763,-0.8775908498501109,0.1945886168159983,-1.0065230818111532,0.1956534898353112,0.009752101693351615,-1.1855162242348767,0.783618516768408,0.8389400136217762,-0.3108080488687892,-0.8253918293897011,0.056249960333077574
